{"learner":{"attributes":{"scikit_learn":"{\"_estimator_type\": \"classifier\"}"},"feature_names":["purchases","time_spent","n_visits","customer_group_2","customer_group_3","customer_group_4","customer_group_5","customer_group_6","customer_group_7","customer_group_8","customer_group_9","onboarding_True"],"feature_types":["float","float","float","float","float","float","float","float","float","float","float","float"],"gradient_booster":{"model":{"gbtree_model_param":{"num_parallel_tree":"100","num_trees":"100"},"iteration_indptr":[0,100],"tree_info":[0,0,0,0,0,0,0,0,0,0,0,0,0,0,0,0,0,0,0,0,0,0,0,0,0,0,0,0,0,0,0,0,0,0,0,0,0,0,0,0,0,0,0,0,0,0,0,0,0,0,0,0,0,0,0,0,0,0,0,0,0,0,0,0,0,0,0,0,0,0,0,0,0,0,0,0,0,0,0,0,0,0,0,0,0,0,0,0,0,0,0,0,0,0,0,0,0,0,0,0],"trees":[{"base_weights":[-9.617274E-2,1.8121193E-1,-4.9091232E-1,-3.675285E-3,2.7150274E-3,-4.504763E-3,9.6361643E-1,3.2908635E-4,4.0474273E-3],"categories":[],"categories_nodes":[],"categories_segments":[],"categories_sizes":[],"default_left":[0,0,0,0,0,0,0,0,0],"id":0,"left_children":[1,3,5,-1,-1,-1,7,-1,-1],"loss_changes":[3.4353013E0,2.5515835E1,2.3480244E1,0E0,0E0,0E0,2.9881167E0,0E0,0E0],"parents":[2147483647,0,0,1,1,2,2,6,6],"right_children":[2,4,6,-1,-1,-1,8,-1,-1],"split_conditions":[5.377468E-1,2.3436446E-1,2.8123736E-1,-3.675285E-3,2.7150274E-3,-4.504763E-3,4.9591413E-1,3.2908635E-4,4.0474273E-3],"split_indices":[1,2,2,0,0,0,0,0,0],"split_type":[0,0,0,0,0,0,0,0,0],"sum_hessian":[3.1374117E1,1.8426067E1,1.2948048E1,6.474024E0,1.19520445E1,6.972026E0,5.9760222E0,2.4900093E0,3.486013E0],"tree_param":{"num_deleted":"0","num_feature":"12","num_nodes":"9","size_leaf_vector":"1"}},{"base_weights":[-1.5059075E-1,-4.372825E-3,1.4107592E0,9.078386E-1,5.5347704E-3,3.6790347E-1,5.5347597E-3,-7.8579456E-1,3.3037593E-3,3.2908548E-4,-4.876565E-3],"categories":[],"categories_nodes":[],"categories_segments":[],"categories_sizes":[],"default_left":[0,0,0,0,0,0,0,0,0,0,0],"id":1,"left_children":[1,-1,3,5,-1,7,-1,9,-1,-1,-1],"loss_changes":[7.3459E1,0E0,5.532091E0,5.939254E0,0E0,6.510152E0,0E0,2.738186E0,0E0,0E0,0E0],"parents":[2147483647,0,0,2,2,3,3,5,5,7,7],"right_children":[2,-1,4,6,-1,8,-1,10,-1,-1,-1],"split_conditions":[2.8123736E-1,-4.372825E-3,5.3507006E-1,6.562205E-1,5.5347704E-3,1E0,5.5347597E-3,2.7515766E-1,3.3037593E-3,3.2908548E-4,-4.876565E-3],"split_indices":[2,0,1,2,0,11,0,1,0,0,0],"split_type":[0,0,0,0,0,0,0,0,0,0,0],"sum_hessian":[3.0627113E1,1.5438057E1,1.5189056E1,8.964033E0,6.2250233E0,6.2250233E0,2.73901E0,2.73901E0,3.486013E0,1.4940056E0,1.2450047E0],"tree_param":{"num_deleted":"0","num_feature":"12","num_nodes":"11","size_leaf_vector":"1"}},{"base_weights":[1.4764231E-1,-1.199112E0,4.5882864E-3,-4.8765964E-3,-1.5300859E-3],"categories":[],"categories_nodes":[],"categories_segments":[],"categories_sizes":[],"default_left":[0,0,0,0,0],"id":2,"left_children":[1,3,-1,-1,-1],"loss_changes":[5.276828E1,5.480095E0,0E0,0E0,0E0],"parents":[2147483647,0,0,1,1],"right_children":[2,4,-1,-1,-1],"split_conditions":[4.2185605E-1,1.8749157E-1,4.5882864E-3,-4.8765964E-3,-1.5300859E-3],"split_indices":[2,2,0,0,0],"split_type":[0,0,0,0,0],"sum_hessian":[2.415309E1,1.3197049E1,1.095604E1,6.2250233E0,6.972026E0],"tree_param":{"num_deleted":"0","num_feature":"12","num_nodes":"5","size_leaf_vector":"1"}},{"base_weights":[3.7695523E-2,2.3262648E-1,-2.6455862E-3,-4.075723E-3,1.171113E0,8.9925736E-1,5.5347597E-3,1.4178121E0,-1.0906425E-3,1.5303965E-3,5.5347653E-3],"categories":[],"categories_nodes":[],"categories_segments":[],"categories_sizes":[],"default_left":[0,0,0,0,0,0,0,0,0,0,0],"id":3,"left_children":[1,3,-1,-1,5,7,-1,9,-1,-1,-1],"loss_changes":[4.62264E0,3.2052917E1,0E0,0E0,3.262228E0,6.6469297E0,0E0,4.1373854E0,0E0,0E0,0E0],"parents":[2147483647,0,0,1,1,4,4,5,5,7,7],"right_children":[2,4,-1,-1,6,8,-1,10,-1,-1,-1],"split_conditions":[1E0,2.8123736E-1,-2.6455862E-3,-4.075723E-3,6.943578E-1,5.611271E-1,5.5347597E-3,6.0934764E-1,-1.0906425E-3,1.5303965E-3,5.5347653E-3],"split_indices":[6,2,0,0,1,1,0,2,0,0,0],"split_type":[0,0,0,0,0,0,0,0,0,0,0],"sum_hessian":[2.2410084E1,1.892407E1,3.486013E0,6.474024E0,1.2450047E1,9.711036E0,2.73901E0,6.972026E0,2.73901E0,3.237012E0,3.7350137E0],"tree_param":{"num_deleted":"0","num_feature":"12","num_nodes":"11","size_leaf_vector":"1"}},{"base_weights":[8.821979E-3,-3.9712633E-3,1.2743828E0,6.2894624E-1,4.5587067E-3,3.7995363E-3,-5.3852587E-4],"categories":[],"categories_nodes":[],"categories_segments":[],"categories_sizes":[],"default_left":[0,0,0,0,0,0,0],"id":4,"left_children":[1,-1,3,5,-1,-1,-1],"loss_changes":[4.952195E1,0E0,4.356676E0,4.183367E0,0E0,0E0,0E0],"parents":[2147483647,0,0,2,2,3,3],"right_children":[2,-1,4,6,-1,-1,-1],"split_conditions":[3.2811025E-1,-3.9712633E-3,5.156018E-1,4.972696E-1,4.5587067E-3,3.7995363E-3,-5.3852587E-4],"split_indices":[2,0,2,1,0,0,0],"split_type":[0,0,0,0,0,0,0],"sum_hessian":[2.5398094E1,1.1454042E1,1.3944052E1,5.9760222E0,7.9680295E0,2.9880111E0,2.9880111E0],"tree_param":{"num_deleted":"0","num_feature":"12","num_nodes":"7","size_leaf_vector":"1"}},{"base_weights":[-3.857459E-1],"categories":[],"categories_nodes":[],"categories_segments":[],"categories_sizes":[],"default_left":[0],"id":5,"left_children":[-1],"loss_changes":[0E0],"parents":[2147483647],"right_children":[-1],"split_conditions":[-1.0000247E-3],"split_indices":[0],"split_type":[0],"sum_hessian":[2.3406086E1],"tree_param":{"num_deleted":"0","num_feature":"12","num_nodes":"1","size_leaf_vector":"1"}},{"base_weights":[4.1493207E-2],"categories":[],"categories_nodes":[],"categories_segments":[],"categories_sizes":[],"default_left":[0],"id":6,"left_children":[-1],"loss_changes":[0E0],"parents":[2147483647],"right_children":[-1],"split_conditions":[1.0756883E-4],"split_indices":[0],"split_type":[0],"sum_hessian":[2.3406086E1],"tree_param":{"num_deleted":"0","num_feature":"12","num_nodes":"1","size_leaf_vector":"1"}},{"base_weights":[1.2694104E-1,-4.1975975E-3,1.3081313E0,3.5005417E-1,4.2854105E-3,-1.0906425E-3,4.047416E-3],"categories":[],"categories_nodes":[],"categories_segments":[],"categories_sizes":[],"default_left":[0,0,0,0,0,0,0],"id":7,"left_children":[1,-1,3,5,-1,-1,-1],"loss_changes":[5.8545948E1,0E0,5.5951595E0,4.1840844E0,0E0,0E0,0E0],"parents":[2147483647,0,0,2,2,3,3],"right_children":[2,-1,4,6,-1,-1,-1],"split_conditions":[2.8123736E-1,-4.1975975E-3,4.2185605E-1,6.080653E-1,4.2854105E-3,-1.0906425E-3,4.047416E-3],"split_indices":[2,0,2,0,0,0,0],"split_type":[0,0,0,0,0,0,0],"sum_hessian":[2.8386105E1,1.1454042E1,1.6932062E1,4.4820166E0,1.2450047E1,2.73901E0,1.7430065E0],"tree_param":{"num_deleted":"0","num_feature":"12","num_nodes":"7","size_leaf_vector":"1"}},{"base_weights":[1.4570762E-1,-1.350661E0,4.1851527E-3,-4.579131E-3,-1.4061399E-3],"categories":[],"categories_nodes":[],"categories_segments":[],"categories_sizes":[],"default_left":[0,0,0,0,0],"id":8,"left_children":[1,3,-1,-1,-1],"loss_changes":[5.8552345E1,4.433878E0,0E0,0E0,0E0],"parents":[2147483647,0,0,1,1],"right_children":[2,4,-1,-1,-1],"split_conditions":[3.2811025E-1,1.8749157E-1,4.1851527E-3,-4.579131E-3,-1.4061399E-3],"split_indices":[2,2,0,0,0],"split_type":[0,0,0,0,0],"sum_hessian":[2.6643099E1,1.3197049E1,1.344605E1,8.715033E0,4.4820166E0],"tree_param":{"num_deleted":"0","num_feature":"12","num_nodes":"5","size_leaf_vector":"1"}},{"base_weights":[-1.5040456E-2,-8.398844E-1,2.9427633E-1,-4.8765936E-3,3.2211244E-3,-4.075723E-3,1.3492159E0,4.1999826E-3,-4.1458025E-4],"categories":[],"categories_nodes":[],"categories_segments":[],"categories_sizes":[],"default_left":[0,0,0,0,0,0,0,0,0],"id":9,"left_children":[1,3,5,-1,-1,-1,7,-1,-1],"loss_changes":[6.289437E0,1.4576729E1,3.5299896E1,0E0,0E0,0E0,4.682184E0,0E0,0E0],"parents":[2147483647,0,0,1,1,2,2,6,6],"right_children":[2,4,6,-1,-1,-1,8,-1,-1],"split_conditions":[3.552754E-1,5.156018E-1,2.8123736E-1,-4.8765936E-3,3.2211244E-3,-4.075723E-3,8.323676E-1,4.1999826E-3,-4.1458025E-4],"split_indices":[1,2,2,0,0,0,0,0,0],"split_type":[0,0,0,0,0,0,0,0,0],"sum_hessian":[2.465109E1,6.723025E0,1.7928066E1,4.4820166E0,2.2410083E0,6.474024E0,1.1454042E1,9.711036E0,1.7430065E0],"tree_param":{"num_deleted":"0","num_feature":"12","num_nodes":"9","size_leaf_vector":"1"}},{"base_weights":[1.4643641E-1,7.2191083E-1,-4.8775998E-1,-4.182501E-3,4.1999826E-3,-1.3232975E0,4.7338894E-3,-4.876596E-3,-8.722232E-4],"categories":[],"categories_nodes":[],"categories_segments":[],"categories_sizes":[],"default_left":[0,0,0,0,0,0,0,0,0],"id":10,"left_children":[1,3,5,-1,-1,7,-1,-1,-1],"loss_changes":[9.360268E0,2.820269E1,2.358785E1,0E0,0E0,4.934231E0,0E0,0E0,0E0],"parents":[2147483647,0,0,1,1,2,2,5,5],"right_children":[2,4,6,-1,-1,8,-1,-1,-1],"split_conditions":[1E0,2.3436446E-1,6.0934764E-1,-4.182501E-3,4.1999826E-3,2.8123736E-1,4.7338894E-3,-4.876596E-3,-8.722232E-4],"split_indices":[11,2,2,0,0,2,0,0,0],"split_type":[0,0,0,0,0,0,0,0,0],"sum_hessian":[2.5647095E1,1.344605E1,1.2201045E1,3.7350137E0,9.711036E0,8.964033E0,3.237012E0,5.727021E0,3.237012E0],"tree_param":{"num_deleted":"0","num_feature":"12","num_nodes":"9","size_leaf_vector":"1"}},{"base_weights":[1.9368324E-2,-4.8765996E-3,1.1168119E0,4.884056E-3,8.936408E-1,6.030702E-4,1.242509E0,4.543211E-3,5.285446E-1,-2.794305E-3,3.4524892E-3],"categories":[],"categories_nodes":[],"categories_segments":[],"categories_sizes":[],"default_left":[0,0,0,0,0,0,0,0,0,0,0],"id":11,"left_children":[1,-1,3,-1,5,-1,7,-1,9,-1,-1],"loss_changes":[5.8164494E1,0E0,3.0267258E0,0E0,3.1581726E0,0E0,3.2638216E0,0E0,4.8192325E0,0E0,0E0],"parents":[2147483647,0,0,2,2,4,4,6,6,8,8],"right_children":[2,-1,4,-1,6,-1,8,-1,10,-1,-1],"split_conditions":[2.3436446E-1,-4.8765996E-3,3.9169726E-1,4.884056E-3,5.0821215E-1,6.030702E-4,7.565547E-1,4.543211E-3,8.015695E-1,-2.794305E-3,3.4524892E-3],"split_indices":[2,0,1,0,1,0,1,0,1,0,0],"split_type":[0,0,0,0,0,0,0,0,0,0,0],"sum_hessian":[2.7888103E1,1.0209038E1,1.7679066E1,3.9840147E0,1.369505E1,4.7310176E0,8.964033E0,5.229019E0,3.7350137E0,1.2450047E0,2.4900093E0],"tree_param":{"num_deleted":"0","num_feature":"12","num_nodes":"11","size_leaf_vector":"1"}},{"base_weights":[-2.519314E-1,-3.7995619E-3,1.2146201E0,4.543211E-3,2.0643151E-3],"categories":[],"categories_nodes":[],"categories_segments":[],"categories_sizes":[],"default_left":[0,0,0,0,0],"id":12,"left_children":[1,-1,3,-1,-1],"loss_changes":[4.698022E1,0E0,2.6892986E0,0E0,0E0],"parents":[2147483647,0,0,2,2],"right_children":[2,-1,4,-1,-1],"split_conditions":[3.7498313E-1,-3.7995619E-3,6.080653E-1,4.543211E-3,2.0643151E-3],"split_indices":[2,0,0,0,0],"split_type":[0,0,0,0,0],"sum_hessian":[2.6394098E1,1.4442054E1,1.19520445E1,5.229019E0,6.723025E0],"tree_param":{"num_deleted":"0","num_feature":"12","num_nodes":"5","size_leaf_vector":"1"}},{"base_weights":[3.0948865E-1,-1.1233376E0,5.082106E-3,-4.529552E-3,-8.0258306E-4],"categories":[],"categories_nodes":[],"categories_segments":[],"categories_sizes":[],"default_left":[0,0,0,0,0],"id":13,"left_children":[1,3,-1,-1,-1],"loss_changes":[5.83098E1,6.699875E0,0E0,0E0,0E0],"parents":[2147483647,0,0,1,1],"right_children":[2,4,-1,-1,-1],"split_conditions":[4.2185605E-1,1.8749157E-1,5.082106E-3,-4.529552E-3,-8.0258306E-4],"split_indices":[2,2,0,0,0],"split_type":[0,0,0,0,0],"sum_hessian":[2.465109E1,1.3197049E1,1.1454042E1,7.4700274E0,5.727021E0],"tree_param":{"num_deleted":"0","num_feature":"12","num_nodes":"5","size_leaf_vector":"1"}},{"base_weights":[-7.949133E-2,-1.1617905E0,4.4936365E-3,-4.8765973E-3,-1.7531875E-3],"categories":[],"categories_nodes":[],"categories_segments":[],"categories_sizes":[],"default_left":[0,0,0,0,0],"id":14,"left_children":[1,3,-1,-1,-1],"loss_changes":[5.2275043E1,5.8262405E0,0E0,0E0,0E0],"parents":[2147483647,0,0,1,1],"right_children":[2,4,-1,-1,-1],"split_conditions":[4.2185605E-1,1.4061868E-1,4.4936365E-3,-4.8765973E-3,-1.7531875E-3],"split_indices":[2,2,0,0,0],"split_type":[0,0,0,0,0],"sum_hessian":[2.6643099E1,1.6683062E1,9.960037E0,6.723025E0,9.960037E0],"tree_param":{"num_deleted":"0","num_feature":"12","num_nodes":"5","size_leaf_vector":"1"}},{"base_weights":[-1.468804E-1,-1.223911E0,4.2727888E-3,-4.8765964E-3,-7.151329E-1,1.2694067E-1,-3.2326947E-3,-1.9019123E-3,3.4524752E-3],"categories":[],"categories_nodes":[],"categories_segments":[],"categories_sizes":[],"default_left":[0,0,0,0,0,0,0,0,0],"id":15,"left_children":[1,3,-1,-1,5,7,-1,-1,-1],"loss_changes":[4.2363197E1,4.5789757E0,0E0,0E0,3.4569285E0,3.0980723E0,0E0,0E0,0E0],"parents":[2147483647,0,0,1,1,4,4,5,5],"right_children":[2,4,-1,-1,6,8,-1,-1,-1],"split_conditions":[4.2185605E-1,1.4061868E-1,4.2727888E-3,-4.8765964E-3,5.4802555E-1,2.8123736E-1,-3.2326947E-3,-1.9019123E-3,3.4524752E-3],"split_indices":[2,2,0,0,1,2,0,0,0],"split_type":[0,0,0,0,0,0,0,0,0],"sum_hessian":[2.191208E1,1.369505E1,8.217031E0,5.9760222E0,7.7190285E0,2.9880111E0,4.7310176E0,1.7430065E0,1.2450047E0],"tree_param":{"num_deleted":"0","num_feature":"12","num_nodes":"9","size_leaf_vector":"1"}},{"base_weights":[5.7698835E-2,-1.4202245E0,4.398989E-3,-4.876599E-3,-1.5638885E-3],"categories":[],"categories_nodes":[],"categories_segments":[],"categories_sizes":[],"default_left":[0,0,0,0,0],"id":16,"left_children":[1,3,-1,-1,-1],"loss_changes":[6.997295E1,5.718813E0,0E0,0E0,0E0],"parents":[2147483647,0,0,1,1],"right_children":[2,4,-1,-1,-1],"split_conditions":[3.7498313E-1,1.8749157E-1,4.398989E-3,-4.876599E-3,-1.5638885E-3],"split_indices":[2,2,0,0,0],"split_type":[0,0,0,0,0],"sum_hessian":[2.8884108E1,1.5189056E1,1.369505E1,9.711036E0,5.47802E0],"tree_param":{"num_deleted":"0","num_feature":"12","num_nodes":"5","size_leaf_vector":"1"}},{"base_weights":[2.978367E-1,-2.9836227E-3,1.5727177E0,2.2469694E-3,5.198922E-3],"categories":[],"categories_nodes":[],"categories_segments":[],"categories_sizes":[],"default_left":[0,0,0,0,0],"id":17,"left_children":[1,-1,3,-1,-1],"loss_changes":[4.3230057E1,0E0,3.803156E0,0E0,0E0],"parents":[2147483647,0,0,2,2],"right_children":[2,-1,4,-1,-1],"split_conditions":[3.7498313E-1,-2.9836227E-3,5.156018E-1,2.2469694E-3,5.198922E-3],"split_indices":[2,0,2,0,0],"split_type":[0,0,0,0,0],"sum_hessian":[2.3406086E1,1.095604E1,1.2450047E1,4.7310176E0,7.7190285E0],"tree_param":{"num_deleted":"0","num_feature":"12","num_nodes":"5","size_leaf_vector":"1"}},{"base_weights":[2.3451376E-1,1.0640179E0,-6.896374E-2,-4.876565E-3,4.285407E-3,-1.4794773E0,3.3037658E-3,-4.5611025E-3,-4.1458025E-4],"categories":[],"categories_nodes":[],"categories_segments":[],"categories_sizes":[],"default_left":[0,0,0,0,0,0,0,0,0],"id":18,"left_children":[1,3,5,-1,-1,7,-1,-1,-1],"loss_changes":[7.020438E0,1.2958401E1,3.8688377E1,0E0,0E0,3.6787605E0,0E0,0E0,0E0],"parents":[2147483647,0,0,1,1,2,2,5,5],"right_children":[2,4,6,-1,-1,8,-1,-1,-1],"split_conditions":[4.1330963E-1,9.374578E-2,3.7498313E-1,-4.876565E-3,4.285407E-3,1E0,3.3037658E-3,-4.5611025E-3,-4.1458025E-4],"split_indices":[1,2,2,0,0,9,0,0,0],"split_type":[0,0,0,0,0,0,0,0,0],"sum_hessian":[2.7888103E1,7.4700274E0,2.0418076E1,1.2450047E0,6.2250233E0,9.960037E0,1.0458038E1,8.217031E0,1.7430065E0],"tree_param":{"num_deleted":"0","num_feature":"12","num_nodes":"9","size_leaf_vector":"1"}},{"base_weights":[-2.5992596E-1,-1.3628829E0,3.0980702E-3,-4.8765983E-3,-7.732069E-1,-4.8765764E-3,-1.0906445E-3],"categories":[],"categories_nodes":[],"categories_segments":[],"categories_sizes":[],"default_left":[0,0,0,0,0,0,0],"id":19,"left_children":[1,3,-1,-1,5,-1,-1],"loss_changes":[4.355506E1,4.7173862E0,0E0,0E0,2.820016E0,0E0,0E0],"parents":[2147483647,0,0,1,1,4,4],"right_children":[2,4,-1,-1,6,-1,-1],"split_conditions":[4.2185605E-1,1.8749157E-1,3.0980702E-3,-4.8765983E-3,2.345584E-1,-4.8765764E-3,-1.0906445E-3],"split_indices":[2,2,0,0,1,0,0],"split_type":[0,0,0,0,0,0,0],"sum_hessian":[2.71411E1,1.5438057E1,1.1703043E1,8.217031E0,7.221027E0,1.7430065E0,5.47802E0],"tree_param":{"num_deleted":"0","num_feature":"12","num_nodes":"7","size_leaf_vector":"1"}},{"base_weights":[-1.5991953E-1,3.2380602E-1,-6.1677134E-1,-4.3286276E-3,3.907996E-3,-4.587394E-3,4.3779495E-3],"categories":[],"categories_nodes":[],"categories_segments":[],"categories_sizes":[],"default_left":[0,0,0,0,0,0,0],"id":20,"left_children":[1,3,5,-1,-1,-1,-1],"loss_changes":[5.7778316E0,2.996503E1,3.573535E1,0E0,0E0,0E0,0E0],"parents":[2147483647,0,0,1,1,2,2],"right_children":[2,4,6,-1,-1,-1,-1],"split_conditions":[5.62579E-1,2.8123736E-1,4.2185605E-1,-4.3286276E-3,3.907996E-3,-4.587394E-3,4.3779495E-3],"split_indices":[1,2,2,0,0,0,0],"split_type":[0,0,0,0,0,0,0],"sum_hessian":[2.6145098E1,1.2699047E1,1.344605E1,4.7310176E0,7.9680295E0,8.964033E0,4.4820166E0],"tree_param":{"num_deleted":"0","num_feature":"12","num_nodes":"7","size_leaf_vector":"1"}},{"base_weights":[-1.4939255E-1,-4.7788543E-1,8.992569E-1,-1.3174267E0,3.5325852E-3,-4.8765717E-3,4.4936324E-3,-4.368728E-3,-3.7506416E-1,-4.876565E-3,3.0948767E-1,3.7995237E-3,-2.794305E-3],"categories":[],"categories_nodes":[],"categories_segments":[],"categories_sizes":[],"default_left":[0,0,0,0,0,0,0,0,0,0,0,0,0],"id":21,"left_children":[1,3,5,7,-1,-1,-1,-1,9,-1,11,-1,-1],"loss_changes":[9.349408E0,3.193485E1,1.5013788E1,4.918661E0,0E0,0E0,0E0,0E0,4.1072884E0,0E0,4.3932824E0,0E0,0E0],"parents":[2147483647,0,0,1,1,2,2,3,3,8,8,10,10],"right_children":[2,4,6,8,-1,-1,-1,-1,10,-1,12,-1,-1],"split_conditions":[7.0909154E-1,4.2185605E-1,1.8749157E-1,2.3436446E-1,3.5325852E-3,-4.8765717E-3,4.4936324E-3,-4.368728E-3,4.9591413E-1,-4.876565E-3,3.2811025E-1,3.7995237E-3,-2.794305E-3],"split_indices":[1,2,2,2,0,0,0,0,0,0,2,0,0],"split_type":[0,0,0,0,0,0,0,0,0,0,0,0,0],"sum_hessian":[2.71411E1,2.0667076E1,6.474024E0,1.4193052E1,6.474024E0,1.4940056E0,4.9800186E0,1.0209038E1,3.9840147E0,1.2450047E0,2.73901E0,1.4940056E0,1.2450047E0],"tree_param":{"num_deleted":"0","num_feature":"12","num_nodes":"13","size_leaf_vector":"1"}},{"base_weights":[-7.232852E-2,-4.687303E-3,1.1837956E0,5.034451E-1,4.351664E-3,2.3312734E-3,-3.1413527E-3],"categories":[],"categories_nodes":[],"categories_segments":[],"categories_sizes":[],"default_left":[0,0,0,0,0,0,0],"id":22,"left_children":[1,-1,3,5,-1,-1,-1],"loss_changes":[7.111945E1,0E0,6.370537E0,5.409418E0,0E0,0E0,0E0],"parents":[2147483647,0,0,2,2,3,3],"right_children":[2,-1,4,6,-1,-1,-1],"split_conditions":[2.8123736E-1,-4.687303E-3,5.624747E-1,6.6765964E-1,4.351664E-3,2.3312734E-3,-3.1413527E-3],"split_indices":[2,0,2,1,0,0,0],"split_type":[0,0,0,0,0,0,0],"sum_hessian":[3.261912E1,1.369505E1,1.892407E1,7.9680295E0,1.095604E1,6.474024E0,1.4940056E0],"tree_param":{"num_deleted":"0","num_feature":"12","num_nodes":"7","size_leaf_vector":"1"}},{"base_weights":[9.347398E-2,-3.9712633E-3,1.1038173E0,6.1537886E-1,4.1278317E-3,-2.794305E-3,2.2812195E-3],"categories":[],"categories_nodes":[],"categories_segments":[],"categories_sizes":[],"default_left":[0,0,0,0,0,0,0],"id":23,"left_children":[1,-1,3,5,-1,-1,-1],"loss_changes":[4.9067543E1,0E0,4.3959312E0,4.127289E0,0E0,0E0,0E0],"parents":[2147483647,0,0,2,2,3,3],"right_children":[2,-1,4,6,-1,-1,-1],"split_conditions":[2.8123736E-1,-3.9712633E-3,5.624747E-1,2.7161184E-1,4.1278317E-3,-2.794305E-3,2.2812195E-3],"split_indices":[2,0,2,0,0,0,0],"split_type":[0,0,0,0,0,0,0],"sum_hessian":[2.988011E1,1.1454042E1,1.8426067E1,9.213034E0,9.213034E0,1.2450047E0,7.9680295E0],"tree_param":{"num_deleted":"0","num_feature":"12","num_nodes":"7","size_leaf_vector":"1"}},{"base_weights":[-1.5418231E-1,-1.6579685E0,1.6111319E0,-4.8766E-3,-1.753182E-3,5.903296E-1,5.219277E-3,-9.7233045E-4,5.5347355E-3],"categories":[],"categories_nodes":[],"categories_segments":[],"categories_sizes":[],"default_left":[0,0,0,0,0,0,0,0,0],"id":24,"left_children":[1,3,5,-1,-1,7,-1,-1,-1],"loss_changes":[6.610122E1,2.9450912E0,4.7018585E0,0E0,0E0,4.826939E0,0E0,0E0,0E0],"parents":[2147483647,0,0,1,1,2,2,5,5],"right_children":[2,4,6,-1,-1,8,-1,-1,-1],"split_conditions":[3.2811025E-1,2.3436446E-1,2.9297793E-1,-4.8766E-3,-1.753182E-3,6.0934764E-1,5.219277E-3,-9.7233045E-4,5.5347355E-3],"split_indices":[2,2,1,0,0,2,0,0,0],"split_type":[0,0,0,0,0,0,0,0,0],"sum_hessian":[2.4900093E1,1.344605E1,1.1454042E1,1.095604E1,2.4900093E0,3.237012E0,8.217031E0,1.9920074E0,1.2450047E0],"tree_param":{"num_deleted":"0","num_feature":"12","num_nodes":"9","size_leaf_vector":"1"}},{"base_weights":[-2.4200551E-2,-4.616315E-3,1.3014451E0,2.3036574E-3,4.6671564E-3],"categories":[],"categories_nodes":[],"categories_segments":[],"categories_sizes":[],"default_left":[0,0,0,0,0],"id":25,"left_children":[1,-1,3,-1,-1],"loss_changes":[5.3920635E1,0E0,2.717842E0,0E0,0E0],"parents":[2147483647,0,0,2,2],"right_children":[2,-1,4,-1,-1],"split_conditions":[2.3436446E-1,-4.616315E-3,5.624747E-1,2.3036574E-3,4.6671564E-3],"split_indices":[2,0,2,0,0],"split_type":[0,0,0,0,0],"sum_hessian":[2.3157085E1,9.960037E0,1.3197049E1,7.221027E0,5.9760222E0],"tree_param":{"num_deleted":"0","num_feature":"12","num_nodes":"5","size_leaf_vector":"1"}},{"base_weights":[1.4536327E-1,1.6746148E-5,4.3779397E-3],"categories":[],"categories_nodes":[],"categories_segments":[],"categories_sizes":[],"default_left":[0,0,0],"id":26,"left_children":[1,-1,-1],"loss_changes":[5.818495E0,0E0,0E0],"parents":[2147483647,0,0],"right_children":[2,-1,-1],"split_conditions":[1E0,1.6746148E-5,4.3779397E-3],"split_indices":[10,0,0],"split_type":[0,0,0],"sum_hessian":[2.71411E1,2.4900093E1,2.2410083E0],"tree_param":{"num_deleted":"0","num_feature":"12","num_nodes":"3","size_leaf_vector":"1"}},{"base_weights":[-9.969688E-3,-4.8765973E-3,8.632163E-1,6.2166013E-2,4.457734E-3,-4.8765764E-3,1.630508E-3],"categories":[],"categories_nodes":[],"categories_segments":[],"categories_sizes":[],"default_left":[0,0,0,0,0,0,0],"id":27,"left_children":[1,-1,3,5,-1,-1,-1],"loss_changes":[3.5800606E1,0E0,1.0247902E1,8.501678E0,0E0,0E0,0E0],"parents":[2147483647,0,0,2,2,3,3],"right_children":[2,-1,4,6,-1,-1,-1],"split_conditions":[1.8749157E-1,-4.8765973E-3,4.2185605E-1,3.2631567E-1,4.457734E-3,-4.8765764E-3,1.630508E-3],"split_indices":[2,0,2,1,0,0,0],"split_type":[0,0,0,0,0,0,0],"sum_hessian":[2.191208E1,6.972026E0,1.4940055E1,7.7190285E0,7.221027E0,1.7430065E0,5.9760222E0],"tree_param":{"num_deleted":"0","num_feature":"12","num_nodes":"7","size_leaf_vector":"1"}},{"base_weights":[1.2694104E-1,-1.103783E0,4.8249085E-3,-4.8765973E-3,-1.2019968E-3],"categories":[],"categories_nodes":[],"categories_segments":[],"categories_sizes":[],"default_left":[0,0,0,0,0],"id":28,"left_children":[1,3,-1,-1,-1],"loss_changes":[5.6333588E1,7.681528E0,0E0,0E0,0E0],"parents":[2147483647,0,0,1,1],"right_children":[2,4,-1,-1,-1],"split_conditions":[4.6872893E-1,1.4061868E-1,4.8249085E-3,-4.8765973E-3,-1.2019968E-3],"split_indices":[2,2,0,0,0],"split_type":[0,0,0,0,0],"sum_hessian":[2.6394098E1,1.5438057E1,1.095604E1,6.972026E0,8.466031E0],"tree_param":{"num_deleted":"0","num_feature":"12","num_nodes":"5","size_leaf_vector":"1"}},{"base_weights":[-1.4867009E-1,-4.1053877E-3,1.465623E0,2.0643137E-3,4.840681E-3],"categories":[],"categories_nodes":[],"categories_segments":[],"categories_sizes":[],"default_left":[0,0,0,0,0],"id":29,"left_children":[1,-1,3,-1,-1],"loss_changes":[5.8832016E1,0E0,3.21282E0,0E0,0E0],"parents":[2147483647,0,0,2,2],"right_children":[2,-1,4,-1,-1],"split_conditions":[3.2811025E-1,-4.1053877E-3,5.624747E-1,2.0643137E-3,4.840681E-3],"split_indices":[2,0,2,0,0],"split_type":[0,0,0,0,0],"sum_hessian":[2.5398094E1,1.344605E1,1.19520445E1,4.4820166E0,7.4700274E0],"tree_param":{"num_deleted":"0","num_feature":"12","num_nodes":"5","size_leaf_vector":"1"}},{"base_weights":[1.9068785E-1,-4.356031E-3,1.0609056E0,1.248305E0,-1.4061368E-3,9.537692E-4,4.333463E-3],"categories":[],"categories_nodes":[],"categories_segments":[],"categories_sizes":[],"default_left":[0,0,0,0,0,0,0],"id":30,"left_children":[1,-1,3,5,-1,-1,-1],"loss_changes":[5.1081768E1,0E0,6.434044E0,7.144781E0,0E0,0E0,0E0],"parents":[2147483647,0,0,2,2,3,3],"right_children":[2,-1,4,6,-1,-1,-1],"split_conditions":[2.3436446E-1,-4.356031E-3,1E0,4.6872893E-1,-1.4061368E-3,9.537692E-4,4.333463E-3],"split_indices":[2,0,7,2,0,0,0],"split_type":[0,0,0,0,0,0,0],"sum_hessian":[3.1374117E1,9.960037E0,2.141408E1,1.917307E1,2.2410083E0,6.2250233E0,1.2948048E1],"tree_param":{"num_deleted":"0","num_feature":"12","num_nodes":"7","size_leaf_vector":"1"}},{"base_weights":[1.6216953E-1,-4.8765983E-3,9.946056E-1,1.3973229E0,3.779437E-1,1.2477363E-3,4.884062E-3,-4.9286266E-4,1.2081815E0,5.5347476E-3,3.2908548E-4],"categories":[],"categories_nodes":[],"categories_segments":[],"categories_sizes":[],"default_left":[0,0,0,0,0,0,0,0,0,0,0],"id":31,"left_children":[1,-1,3,5,7,-1,-1,-1,9,-1,-1],"loss_changes":[4.8281277E1,0E0,5.008793E0,5.4388847E0,3.75792E0,0E0,0E0,0E0,3.243701E0,0E0,0E0],"parents":[2147483647,0,0,2,2,3,3,4,4,8,8],"right_children":[2,-1,4,6,8,-1,-1,-1,10,-1,-1],"split_conditions":[1.8749157E-1,-4.8765983E-3,5.4170936E-1,3.7498313E-1,6.0934764E-1,1.2477363E-3,4.884062E-3,-4.9286266E-4,1E0,5.5347476E-3,3.2908548E-4],"split_indices":[2,0,1,2,2,0,0,0,11,0,0],"split_type":[0,0,0,0,0,0,0,0,0,0,0],"sum_hessian":[2.8386105E1,8.217031E0,2.0169075E1,1.2201045E1,7.9680295E0,4.2330155E0,7.9680295E0,4.7310176E0,3.237012E0,1.7430065E0,1.4940056E0],"tree_param":{"num_deleted":"0","num_feature":"12","num_nodes":"11","size_leaf_vector":"1"}},{"base_weights":[-6.1847545E-2,3.318413E-1,-3.4553513E-1,-4.8765866E-3,9.7242415E-1,-4.551243E-3,9.078386E-1,3.2908676E-4,3.7995428E-3,-1.4415654E-4,3.4524975E-3],"categories":[],"categories_nodes":[],"categories_segments":[],"categories_sizes":[],"default_left":[0,0,0,0,0,0,0,0,0,0,0],"id":32,"left_children":[1,3,5,-1,7,-1,9,-1,-1,-1,-1],"loss_changes":[3.253723E0,1.7295715E1,2.9924288E1,0E0,3.9455805E0,0E0,3.661087E0,0E0,0E0,0E0,0E0],"parents":[2147483647,0,0,1,1,2,2,4,4,6,6],"right_children":[2,4,6,-1,8,-1,10,-1,-1,-1,-1],"split_conditions":[4.8482555E-1,1.8749157E-1,3.2811025E-1,-4.8765866E-3,4.2185605E-1,-4.551243E-3,5.77701E-1,3.2908676E-4,3.7995428E-3,-1.4415654E-4,3.4524975E-3],"split_indices":[1,2,2,0,2,0,1,0,0,0,0],"split_type":[0,0,0,0,0,0,0,0,0,0,0],"sum_hessian":[2.9133108E1,1.2201045E1,1.6932062E1,2.73901E0,9.462035E0,7.9680295E0,8.964033E0,3.486013E0,5.9760222E0,2.73901E0,6.2250233E0],"tree_param":{"num_deleted":"0","num_feature":"12","num_nodes":"11","size_leaf_vector":"1"}},{"base_weights":[1.8121196E-1,4.9709346E-2,5.5347476E-3,-1.0910404E0,4.32415E-3,-3.3341746E-3,1.0727518E-3],"categories":[],"categories_nodes":[],"categories_segments":[],"categories_sizes":[],"default_left":[0,0,0,0,0,0,0],"id":33,"left_children":[1,3,-1,5,-1,-1,-1],"loss_changes":[7.101099E0,4.7805367E1,0E0,4.458788E0,0E0,0E0,0E0],"parents":[2147483647,0,0,1,1,3,3],"right_children":[2,4,-1,6,-1,-1,-1],"split_conditions":[8.721848E-1,4.6872893E-1,5.5347476E-3,1E0,4.32415E-3,-3.3341746E-3,1.0727518E-3],"split_indices":[1,2,0,4,0,0,0],"split_type":[0,0,0,0,0,0,0],"sum_hessian":[2.7639103E1,2.5896095E1,1.7430065E0,1.5189056E1,1.070704E1,1.344605E1,1.7430065E0],"tree_param":{"num_deleted":"0","num_feature":"12","num_nodes":"7","size_leaf_vector":"1"}},{"base_weights":[8.024281E-2,-3.2991199E-3,1.4974967E0,9.126883E-1,1.8337603E0,5.534743E-3,4.8129725E-1,1.0727518E-3,5.534773E-3,-1.9019123E-3,3.4524892E-3],"categories":[],"categories_nodes":[],"categories_segments":[],"categories_sizes":[],"default_left":[0,0,0,0,0,0,0,0,0,0,0],"id":34,"left_children":[1,-1,3,5,7,-1,9,-1,-1,-1,-1],"loss_changes":[6.158613E1,0E0,3.0848465E0,3.019701E0,4.2598724E0,0E0,4.3737607E0,0E0,0E0,0E0,0E0],"parents":[2147483647,0,0,2,2,3,3,4,4,6,6],"right_children":[2,-1,4,6,8,-1,10,-1,-1,-1,-1],"split_conditions":[3.7498313E-1,-3.2991199E-3,5.3322023E-1,2.9297793E-1,4.6872893E-1,5.534743E-3,5.624747E-1,1.0727518E-3,5.534773E-3,-1.9019123E-3,3.4524892E-3],"split_indices":[2,0,1,1,2,0,2,0,0,0,0],"split_type":[0,0,0,0,0,0,0,0,0,0,0],"sum_hessian":[3.212112E1,1.6434061E1,1.5687058E1,5.727021E0,9.960037E0,1.4940056E0,4.2330155E0,1.7430065E0,8.217031E0,1.7430065E0,2.4900093E0],"tree_param":{"num_deleted":"0","num_feature":"12","num_nodes":"11","size_leaf_vector":"1"}},{"base_weights":[-1.8357813E-1,-8.7707E-1,9.783922E-2,-4.8765936E-3,9.3014723E-1,-1.0542487E0,1.2170103E0,-7.12045E-4,5.5347355E-3,-4.8765894E-3,-1.4061404E-3,4.8406743E-3,7.2934705E-1,1.2694073E-1,5.534743E-3,-2.794305E-3,2.0643093E-3],"categories":[],"categories_nodes":[],"categories_segments":[],"categories_sizes":[],"default_left":[0,0,0,0,0,0,0,0,0,0,0,0,0,0,0,0,0],"id":35,"left_children":[1,3,5,-1,7,9,11,-1,-1,-1,-1,-1,13,15,-1,-1,-1],"loss_changes":[4.713735E0,1.265052E1,2.2153004E1,0E0,3.6144066E0,3.5829191E0,2.7633991E0,0E0,0E0,0E0,0E0,0E0,4.216812E0,2.8112168E0,0E0,0E0,0E0],"parents":[2147483647,0,0,1,1,2,2,4,4,5,5,6,6,12,12,13,13],"right_children":[2,4,6,-1,8,10,12,-1,-1,-1,-1,-1,14,16,-1,-1,-1],"split_conditions":[3.4493604E-1,3.7498313E-1,3.7498313E-1,-4.8765936E-3,1.8733111E-1,1.4061868E-1,5.0350773E-1,-7.12045E-4,5.5347355E-3,-4.8765894E-3,-1.4061404E-3,4.8406743E-3,7.968392E-1,5.7920444E-1,5.534743E-3,-2.794305E-3,2.0643093E-3],"split_indices":[1,2,2,0,1,2,1,0,0,0,0,0,2,1,0,0,0],"split_type":[0,0,0,0,0,0,0,0,0,0,0,0,0,0,0,0,0],"sum_hessian":[2.415309E1,6.972026E0,1.7181063E1,4.4820166E0,2.4900093E0,8.466031E0,8.715033E0,1.2450047E0,1.2450047E0,3.237012E0,5.229019E0,3.7350137E0,4.9800186E0,3.486013E0,1.4940056E0,1.2450047E0,2.2410083E0],"tree_param":{"num_deleted":"0","num_feature":"12","num_nodes":"17","size_leaf_vector":"1"}},{"base_weights":[2.3451376E-1,-4.150225E-3,1.3783181E0,4.023447E-3,-4.1458025E-4],"categories":[],"categories_nodes":[],"categories_segments":[],"categories_sizes":[],"default_left":[0,0,0,0,0],"id":36,"left_children":[1,-1,3,-1,-1],"loss_changes":[5.8546814E1,0E0,4.589901E0,0E0,0E0],"parents":[2147483647,0,0,2,2],"right_children":[2,-1,4,-1,-1],"split_conditions":[2.8123736E-1,-4.150225E-3,1E0,4.023447E-3,-4.1458025E-4],"split_indices":[2,0,10,0,0],"split_type":[0,0,0,0,0],"sum_hessian":[2.7888103E1,1.070704E1,1.7181063E1,1.5438057E1,1.7430065E0],"tree_param":{"num_deleted":"0","num_feature":"12","num_nodes":"5","size_leaf_vector":"1"}},{"base_weights":[2.7151877E-1,-4.13293E-3,1.2156286E0,9.2257285E-1,4.4936356E-3,4.667149E-3,1.7257351E-3],"categories":[],"categories_nodes":[],"categories_segments":[],"categories_sizes":[],"default_left":[0,0,0,0,0,0,0],"id":37,"left_children":[1,-1,3,5,-1,-1,-1],"loss_changes":[5.48258E1,0E0,3.1356716E0,2.9756603E0,0E0,0E0,0E0],"parents":[2147483647,0,0,2,2,3,3],"right_children":[2,-1,4,6,-1,-1,-1],"split_conditions":[2.3436446E-1,-4.13293E-3,6.0934764E-1,3.83763E-1,4.4936356E-3,4.667149E-3,1.7257351E-3],"split_indices":[2,0,2,0,0,0,0],"split_type":[0,0,0,0,0,0,0],"sum_hessian":[3.1125114E1,1.0458038E1,2.0667076E1,1.3197049E1,7.4700274E0,2.9880111E0,1.0209038E1],"tree_param":{"num_deleted":"0","num_feature":"12","num_nodes":"7","size_leaf_vector":"1"}},{"base_weights":[-1.0655011E-1],"categories":[],"categories_nodes":[],"categories_segments":[],"categories_sizes":[],"default_left":[0],"id":38,"left_children":[-1],"loss_changes":[0E0],"parents":[2147483647],"right_children":[-1],"split_conditions":[-2.762252E-4],"split_indices":[0],"split_type":[0],"sum_hessian":[2.141408E1],"tree_param":{"num_deleted":"0","num_feature":"12","num_nodes":"1","size_leaf_vector":"1"}},{"base_weights":[1.8904486E-1,7.070365E-1,-2.5921732E-1,-4.876588E-3,4.2727888E-3,-4.182507E-3,4.115038E-3],"categories":[],"categories_nodes":[],"categories_segments":[],"categories_sizes":[],"default_left":[0,0,0,0,0,0,0],"id":39,"left_children":[1,3,5,-1,-1,-1,-1],"loss_changes":[5.608257E0,2.7292852E1,3.2375957E1,0E0,0E0,0E0,0E0],"parents":[2147483647,0,0,1,1,2,2],"right_children":[2,4,6,-1,-1,-1,-1],"split_conditions":[1E0,2.3436446E-1,3.2811025E-1,-4.876588E-3,4.2727888E-3,-4.182507E-3,4.115038E-3],"split_indices":[11,2,2,0,0,0,0],"split_type":[0,0,0,0,0,0,0],"sum_hessian":[2.415309E1,1.1205042E1,1.2948048E1,2.9880111E0,8.217031E0,7.4700274E0,5.47802E0],"tree_param":{"num_deleted":"0","num_feature":"12","num_nodes":"7","size_leaf_vector":"1"}},{"base_weights":[1.8542717E-1,-7.85796E-1,4.4921646E-1,-4.26416E-3,5.5347355E-3,-4.8765945E-3,1.2132487E0,3.2908688E-4,4.1465913E-3],"categories":[],"categories_nodes":[],"categories_segments":[],"categories_sizes":[],"default_left":[0,0,0,0,0,0,0,0,0],"id":40,"left_children":[1,3,5,-1,-1,-1,7,-1,-1],"loss_changes":[6.5707474E0,1.3744701E1,3.59095E1,0E0,0E0,0E0,6.3729973E0,0E0,0E0],"parents":[2147483647,0,0,1,1,2,2,6,6],"right_children":[2,4,6,-1,-1,-1,8,-1,-1],"split_conditions":[2.8070077E-1,6.0934764E-1,1.4061868E-1,-4.26416E-3,5.5347355E-3,-4.8765945E-3,3.2811025E-1,3.2908688E-4,4.1465913E-3],"split_indices":[1,2,2,0,0,0,2,0,0],"split_type":[0,0,0,0,0,0,0,0,0],"sum_hessian":[2.5647095E1,5.47802E0,2.0169075E1,4.2330155E0,1.2450047E0,4.9800186E0,1.5189056E1,3.9840147E0,1.1205042E1],"tree_param":{"num_deleted":"0","num_feature":"12","num_nodes":"9","size_leaf_vector":"1"}},{"base_weights":[2.1255564E-2,2.5733218E-1,-9.88626E-1,1.2694101E-1,4.047416E-3,-4.8765866E-3,1.0727518E-3,4.482247E-1,-6.7626745E-1,-1.9019123E-3,6.4062124E-1,-4.8765824E-3,8.023295E-4,-4.8765866E-3,3.907996E-3],"categories":[],"categories_nodes":[],"categories_segments":[],"categories_sizes":[],"default_left":[0,0,0,0,0,0,0,0,0,0,0,0,0,0,0],"id":41,"left_children":[1,3,5,7,-1,-1,-1,9,11,-1,13,-1,-1,-1,-1],"loss_changes":[5.6396008E0,3.2597566E0,5.6096926E0,4.497969E0,0E0,0E0,0E0,2.830974E0,5.9145136E0,0E0,2.3404526E1,0E0,0E0,0E0,0E0],"parents":[2147483647,0,0,1,1,2,2,3,3,7,7,8,8,10,10],"right_children":[2,4,6,8,-1,-1,-1,10,12,-1,14,-1,-1,-1,-1],"split_conditions":[8.323676E-1,7.9223305E-1,2.8123736E-1,5.662238E-1,4.047416E-3,-4.8765866E-3,1.0727518E-3,1.5533912E-1,2.3436446E-1,-1.9019123E-3,1.8749157E-1,-4.8765824E-3,8.023295E-4,-4.8765866E-3,3.907996E-3],"split_indices":[0,1,2,1,0,0,0,1,2,0,2,0,0,0,0],"split_type":[0,0,0,0,0,0,0,0,0,0,0,0,0,0,0],"sum_hessian":[2.3655088E1,1.917307E1,4.4820166E0,1.7430065E1,1.7430065E0,2.73901E0,1.7430065E0,1.2450047E1,4.9800186E0,1.7430065E0,1.070704E1,2.2410083E0,2.73901E0,2.73901E0,7.9680295E0],"tree_param":{"num_deleted":"0","num_feature":"12","num_nodes":"15","size_leaf_vector":"1"}},{"base_weights":[1.2694104E-1,2.753391E-2,4.047416E-3,-1.6408307E-4,3.7995237E-3],"categories":[],"categories_nodes":[],"categories_segments":[],"categories_sizes":[],"default_left":[0,0,0,0,0],"id":42,"left_children":[1,3,-1,-1,-1],"loss_changes":[3.8342524E0,3.2848797E0,0E0,0E0,0E0],"parents":[2147483647,0,0,1,1],"right_children":[2,4,-1,-1,-1],"split_conditions":[8.9515656E-1,9.4451874E-1,4.047416E-3,-1.6408307E-4,3.7995237E-3],"split_indices":[1,0,0,0,0],"split_type":[0,0,0,0,0],"sum_hessian":[2.68921E1,2.5149094E1,1.7430065E0,2.3655088E1,1.4940056E0],"tree_param":{"num_deleted":"0","num_feature":"12","num_nodes":"5","size_leaf_vector":"1"}},{"base_weights":[-2.4607943E-2,-1.8541823E-1,8.7994814E-1,-1.5159869E0,1.0872998E0,-4.876565E-3,5.5347597E-3,-4.8765983E-3,-1.4061383E-3,4.920356E-1,4.2333496E-3,-6.9272122E-3,4.047416E-3,2.0643093E-3,-3.1413527E-3],"categories":[],"categories_nodes":[],"categories_segments":[],"categories_sizes":[],"default_left":[0,0,0,0,0,0,0,0,0,0,0,0,0,0,0],"id":43,"left_children":[1,3,5,7,9,-1,-1,-1,-1,11,-1,13,-1,-1,-1],"loss_changes":[3.8393395E0,3.7950134E1,1.3805098E1,3.8943348E0,3.7203846E0,0E0,0E0,0E0,0E0,2.92248E0,0E0,3.6144238E0,0E0,0E0,0E0],"parents":[2147483647,0,0,1,1,2,2,3,3,4,4,9,9,11,11],"right_children":[2,4,6,8,10,-1,-1,-1,-1,12,-1,14,-1,-1,-1],"split_conditions":[1E0,2.8123736E-1,1.4061868E-1,1.8749157E-1,5.156018E-1,-4.876565E-3,5.5347597E-3,-4.8765983E-3,-1.4061383E-3,6.6765964E-1,4.2333496E-3,4.5790854E-1,4.047416E-3,2.0643093E-3,-3.1413527E-3],"split_indices":[7,2,2,2,2,0,0,0,0,1,0,1,0,0,0],"split_type":[0,0,0,0,0,0,0,0,0,0,0,0,0,0,0],"sum_hessian":[2.6394098E1,2.2410084E1,3.9840147E0,1.095604E1,1.1454042E1,1.2450047E0,2.73901E0,7.9680295E0,2.9880111E0,5.47802E0,5.9760222E0,3.7350137E0,1.7430065E0,2.2410083E0,1.4940056E0],"tree_param":{"num_deleted":"0","num_feature":"12","num_nodes":"15","size_leaf_vector":"1"}},{"base_weights":[3.0948865E-1,-3.9005324E-3,1.3460981E0,1.2477363E-3,4.466941E-3],"categories":[],"categories_nodes":[],"categories_segments":[],"categories_sizes":[],"default_left":[0,0,0,0,0],"id":44,"left_children":[1,-1,3,-1,-1],"loss_changes":[4.1205215E1,0E0,4.5457325E0,0E0,0E0],"parents":[2147483647,0,0,2,2],"right_children":[2,-1,4,-1,-1],"split_conditions":[2.8123736E-1,-3.9005324E-3,4.6872893E-1,1.2477363E-3,4.466941E-3],"split_indices":[2,0,2,0,0],"split_type":[0,0,0,0,0],"sum_hessian":[2.191208E1,7.9680295E0,1.3944052E1,4.2330155E0,9.711036E0],"tree_param":{"num_deleted":"0","num_feature":"12","num_nodes":"5","size_leaf_vector":"1"}},{"base_weights":[2.3849793E-1,-1.1671183E0,1.2425096E0,-4.460142E-3,-4.754654E-1,1.4425426E0,-2.794305E-3,2.0643047E-3,-2.6455862E-3,2.0643137E-3,4.4936365E-3],"categories":[],"categories_nodes":[],"categories_segments":[],"categories_sizes":[],"default_left":[0,0,0,0,0,0,0,0,0,0,0],"id":45,"left_children":[1,3,5,-1,7,9,-1,-1,-1,-1,-1],"loss_changes":[3.7951645E1,4.288229E0,7.281189E0,0E0,3.4518757E0,2.714281E0,0E0,0E0,0E0,0E0,0E0],"parents":[2147483647,0,0,1,1,2,2,4,4,5,5],"right_children":[2,4,6,-1,8,10,-1,-1,-1,-1,-1],"split_conditions":[2.8123736E-1,1.8749157E-1,1E0,-4.460142E-3,3.83763E-1,5.156018E-1,-2.794305E-3,2.0643047E-3,-2.6455862E-3,2.0643137E-3,4.4936365E-3],"split_indices":[2,2,9,0,0,2,0,0,0,0,0],"split_type":[0,0,0,0,0,0,0,0,0,0,0],"sum_hessian":[2.68921E1,1.1205042E1,1.5687058E1,6.2250233E0,4.9800186E0,1.4442054E1,1.2450047E0,1.4940056E0,3.486013E0,4.4820166E0,9.960037E0],"tree_param":{"num_deleted":"0","num_feature":"12","num_nodes":"11","size_leaf_vector":"1"}},{"base_weights":[-5.199179E-2,-1.4794775E0,3.4933293E-3,-4.8765987E-3,-1.6230427E-3],"categories":[],"categories_nodes":[],"categories_segments":[],"categories_sizes":[],"default_left":[0,0,0,0,0],"id":46,"left_children":[1,3,-1,-1,-1],"loss_changes":[5.0241905E1,4.2670345E0,0E0,0E0,0E0],"parents":[2147483647,0,0,1,1],"right_children":[2,4,-1,-1,-1],"split_conditions":[3.7498313E-1,2.3436446E-1,3.4933293E-3,-4.8765987E-3,-1.6230427E-3],"split_indices":[2,2,0,0,0],"split_type":[0,0,0,0,0],"sum_hessian":[2.5149094E1,1.2450047E1,1.2699047E1,8.466031E0,3.9840147E0],"tree_param":{"num_deleted":"0","num_feature":"12","num_nodes":"5","size_leaf_vector":"1"}},{"base_weights":[-2.0405191E-1,9.3014723E-1,-3.440769E-1,5.5347355E-3,-7.12045E-4,-4.595211E-3,8.571311E-1,5.034451E-1,4.667149E-3,-5.8956246E-4,1.3317524E0,1.0727518E-3,5.5347523E-3],"categories":[],"categories_nodes":[],"categories_segments":[],"categories_sizes":[],"default_left":[0,0,0,0,0,0,0,0,0,0,0,0,0],"id":47,"left_children":[1,3,5,-1,-1,-1,7,9,-1,-1,11,-1,-1],"loss_changes":[3.5986352E0,3.6144066E0,3.460777E1,0E0,0E0,0E0,3.654729E0,4.8236732E0,0E0,0E0,2.7538323E0,0E0,0E0],"parents":[2147483647,0,0,1,1,2,2,6,6,7,7,10,10],"right_children":[2,4,6,-1,-1,-1,8,10,-1,-1,12,-1,-1],"split_conditions":[1.11186035E-1,4.9591413E-1,2.8123736E-1,5.5347355E-3,-7.12045E-4,-4.595211E-3,7.2021645E-1,5.156018E-1,4.667149E-3,-5.8956246E-4,5.0604844E-1,1.0727518E-3,5.5347523E-3],"split_indices":[1,0,2,0,0,0,0,2,0,0,1,0,0],"split_type":[0,0,0,0,0,0,0,0,0,0,0,0,0],"sum_hessian":[2.2659084E1,2.4900093E0,2.0169075E1,1.2450047E0,1.2450047E0,9.213034E0,1.095604E1,7.9680295E0,2.9880111E0,4.2330155E0,3.7350137E0,1.7430065E0,1.9920074E0],"tree_param":{"num_deleted":"0","num_feature":"12","num_nodes":"13","size_leaf_vector":"1"}},{"base_weights":[1.2694104E-1,-2.4200551E-2,4.3779397E-3,-1.5942215E0,1.268758E0,-4.8765983E-3,-1.4061368E-3,3.29086E-4,1.481189E0,1.1966991E-3,4.8630713E-3],"categories":[],"categories_nodes":[],"categories_segments":[],"categories_sizes":[],"default_left":[0,0,0,0,0,0,0,0,0,0,0],"id":48,"left_children":[1,3,-1,5,7,-1,-1,-1,9,-1,-1],"loss_changes":[5.9952574E0,4.700828E1,0E0,3.1554546E0,3.080246E0,0E0,0E0,0E0,4.308525E0,0E0,0E0],"parents":[2147483647,0,0,1,1,3,3,4,4,8,8],"right_children":[2,4,-1,6,8,-1,-1,-1,10,-1,-1],"split_conditions":[9.4451874E-1,2.8123736E-1,4.3779397E-3,2.3436446E-1,2.4867626E-1,-4.8765983E-3,-1.4061368E-3,3.29086E-4,4.2185605E-1,1.1966991E-3,4.8630713E-3],"split_indices":[0,2,0,2,1,0,0,0,2,0,0],"split_type":[0,0,0,0,0,0,0,0,0,0,0],"sum_hessian":[2.5398094E1,2.3157085E1,2.2410083E0,1.0458038E1,1.2699047E1,8.217031E0,2.2410083E0,1.9920074E0,1.070704E1,2.9880111E0,7.7190285E0],"tree_param":{"num_deleted":"0","num_feature":"12","num_nodes":"11","size_leaf_vector":"1"}},{"base_weights":[1.7932428E-1,-3.6517328E-3,1.4447064E0,1.1510367E-3,4.840683E-3],"categories":[],"categories_nodes":[],"categories_segments":[],"categories_sizes":[],"default_left":[0,0,0,0,0],"id":49,"left_children":[1,-1,3,-1,-1],"loss_changes":[5.7537674E1,0E0,6.7380905E0,0E0,0E0],"parents":[2147483647,0,0,2,2],"right_children":[2,-1,4,-1,-1],"split_conditions":[3.2811025E-1,-3.6517328E-3,4.6872893E-1,1.1510367E-3,4.840683E-3],"split_indices":[2,0,2,0,0],"split_type":[0,0,0,0,0],"sum_hessian":[2.8635105E1,1.2699047E1,1.5936059E1,4.7310176E0,1.1205042E1],"tree_param":{"num_deleted":"0","num_feature":"12","num_nodes":"5","size_leaf_vector":"1"}},{"base_weights":[1.2694103E-1,-4.5611025E-3,1.147412E0,-2.4932146E-4,3.5325878E-3],"categories":[],"categories_nodes":[],"categories_segments":[],"categories_sizes":[],"default_left":[0,0,0,0,0],"id":50,"left_children":[1,-1,3,-1,-1],"loss_changes":[4.5055325E1,0E0,4.0655613E0,0E0,0E0],"parents":[2147483647,0,0,2,2],"right_children":[2,-1,4,-1,-1],"split_conditions":[2.3436446E-1,-4.5611025E-3,3.2811025E-1,-2.4932146E-4,3.5325878E-3],"split_indices":[2,0,2,0,0],"split_type":[0,0,0,0,0],"sum_hessian":[2.3406086E1,8.217031E0,1.5189056E1,2.2410083E0,1.2948048E1],"tree_param":{"num_deleted":"0","num_feature":"12","num_nodes":"5","size_leaf_vector":"1"}},{"base_weights":[-1.1578713E-1,-1.5532416E0,4.0474352E-3,-4.8765987E-3,-2.1002297E-3],"categories":[],"categories_nodes":[],"categories_segments":[],"categories_sizes":[],"default_left":[0,0,0,0,0],"id":51,"left_children":[1,3,-1,-1,-1],"loss_changes":[5.462327E1,2.9724045E0,0E0,0E0,0E0],"parents":[2147483647,0,0,1,1],"right_children":[2,4,-1,-1,-1],"split_conditions":[3.2811025E-1,1.8749157E-1,4.0474352E-3,-4.8765987E-3,-2.1002297E-3],"split_indices":[2,2,0,0,0],"split_type":[0,0,0,0,0],"sum_hessian":[2.2659084E1,1.2201045E1,1.0458038E1,8.466031E0,3.7350137E0],"tree_param":{"num_deleted":"0","num_feature":"12","num_nodes":"5","size_leaf_vector":"1"}},{"base_weights":[2.3434646E-2,-2.958008E-1,1.1787614E0,-4.5407475E-3,1.8329526E-3,-4.1458025E-4,4.791096E-3],"categories":[],"categories_nodes":[],"categories_segments":[],"categories_sizes":[],"default_left":[0,0,0,0,0,0,0],"id":52,"left_children":[1,3,5,-1,-1,-1,-1],"loss_changes":[8.908179E0,2.762654E1,4.68537E0,0E0,0E0,0E0,0E0],"parents":[2147483647,0,0,1,1,2,2],"right_children":[2,4,6,-1,-1,-1,-1],"split_conditions":[7.0909154E-1,1.8749157E-1,2.8123736E-1,-4.5407475E-3,1.8329526E-3,-4.1458025E-4,4.791096E-3],"split_indices":[1,2,2,0,0,0,0],"split_type":[0,0,0,0,0,0,0],"sum_hessian":[2.415309E1,1.892407E1,5.229019E0,7.7190285E0,1.1205042E1,1.7430065E0,3.486013E0],"tree_param":{"num_deleted":"0","num_feature":"12","num_nodes":"7","size_leaf_vector":"1"}},{"base_weights":[9.2319936E-2,-4.1975975E-3,1.217011E0,9.074959E-4,3.9330255E-3],"categories":[],"categories_nodes":[],"categories_segments":[],"categories_sizes":[],"default_left":[0,0,0,0,0],"id":53,"left_children":[1,-1,3,-1,-1],"loss_changes":[5.5598854E1,0E0,4.5348415E0,0E0,0E0],"parents":[2147483647,0,0,2,2],"right_children":[2,-1,4,-1,-1],"split_conditions":[2.8123736E-1,-4.1975975E-3,4.6872893E-1,9.074959E-4,3.9330255E-3],"split_indices":[2,0,2,0,0],"split_type":[0,0,0,0,0],"sum_hessian":[2.8884108E1,1.1454042E1,1.7430065E1,4.4820166E0,1.2948048E1],"tree_param":{"num_deleted":"0","num_feature":"12","num_nodes":"5","size_leaf_vector":"1"}},{"base_weights":[-3.3644912E-1,-4.0908367E-3,9.5377403E-1,2.1424614E-1,4.0474334E-3,3.7995237E-3,-5.8956246E-4],"categories":[],"categories_nodes":[],"categories_segments":[],"categories_sizes":[],"default_left":[0,0,0,0,0,0,0],"id":54,"left_children":[1,-1,3,5,-1,-1,-1],"loss_changes":[4.1481888E1,0E0,5.704916E0,3.165228E0,0E0,0E0,0E0],"parents":[2147483647,0,0,2,2,3,3],"right_children":[2,-1,4,6,-1,-1,-1],"split_conditions":[2.8123736E-1,-4.0908367E-3,4.6872893E-1,2.5823176E-1,4.0474334E-3,3.7995237E-3,-5.8956246E-4],"split_indices":[2,0,2,1,0,0,0],"split_type":[0,0,0,0,0,0,0],"sum_hessian":[2.5896095E1,1.3197049E1,1.2699047E1,5.727021E0,6.972026E0,1.4940056E0,4.2330155E0],"tree_param":{"num_deleted":"0","num_feature":"12","num_nodes":"7","size_leaf_vector":"1"}},{"base_weights":[6.729676E-2,-4.1975975E-3,1.477793E0,7.2934705E-1,4.939838E-3,-2.4932146E-4,3.6417875E-3],"categories":[],"categories_nodes":[],"categories_segments":[],"categories_sizes":[],"default_left":[0,0,0,0,0,0,0],"id":55,"left_children":[1,-1,3,5,-1,-1,-1],"loss_changes":[5.9823437E1,0E0,4.3837337E0,2.7767394E0,0E0,0E0,0E0],"parents":[2147483647,0,0,2,2,3,3],"right_children":[2,-1,4,6,-1,-1,-1],"split_conditions":[2.8123736E-1,-4.1975975E-3,5.624747E-1,1E0,4.939838E-3,-2.4932146E-4,3.6417875E-3],"split_indices":[2,0,2,11,0,0,0],"split_type":[0,0,0,0,0,0,0],"sum_hessian":[2.5149094E1,1.1454042E1,1.369505E1,4.9800186E0,8.715033E0,2.2410083E0,2.73901E0],"tree_param":{"num_deleted":"0","num_feature":"12","num_nodes":"7","size_leaf_vector":"1"}},{"base_weights":[4.555268E-1,-4.587394E-3,1.5379847E0,6.2894624E-1,5.11832E-3,3.2908688E-4,4.2333356E-3],"categories":[],"categories_nodes":[],"categories_segments":[],"categories_sizes":[],"default_left":[0,0,0,0,0,0,0],"id":56,"left_children":[1,-1,3,5,-1,-1,-1],"loss_changes":[6.596978E1,0E0,7.308651E0,3.0120146E0,0E0,0E0,0E0],"parents":[2147483647,0,0,2,2,3,3],"right_children":[2,-1,4,6,-1,-1,-1],"split_conditions":[1.8749157E-1,-4.587394E-3,3.7498313E-1,6.943578E-1,5.11832E-3,3.2908688E-4,4.2333356E-3],"split_indices":[2,0,2,1,0,0,0],"split_type":[0,0,0,0,0,0,0],"sum_hessian":[2.73901E1,8.964033E0,1.8426067E1,5.9760222E0,1.2450047E1,3.9840147E0,1.9920074E0],"tree_param":{"num_deleted":"0","num_feature":"12","num_nodes":"7","size_leaf_vector":"1"}},{"base_weights":[4.662008E-2,-1.5942215E0,1.234816E0,-4.8765987E-3,-9.7233045E-4,4.8630713E-3,4.987968E-1,-7.120488E-4,3.7995363E-3],"categories":[],"categories_nodes":[],"categories_segments":[],"categories_sizes":[],"default_left":[0,0,0,0,0,0,0,0,0],"id":57,"left_children":[1,3,5,-1,-1,-1,7,-1,-1],"loss_changes":[4.8546284E1,3.6574593E0,6.8140926E0,0E0,0E0,0E0,5.027479E0,0E0,0E0],"parents":[2147483647,0,0,1,1,2,2,6,6],"right_children":[2,4,6,-1,-1,-1,8,-1,-1],"split_conditions":[2.8123736E-1,1.8749157E-1,5.30714E-1,-4.8765987E-3,-9.7233045E-4,4.8630713E-3,6.0934764E-1,-7.120488E-4,3.7995363E-3],"split_indices":[2,2,1,0,0,0,2,0,0],"split_type":[0,0,0,0,0,0,0,0,0],"sum_hessian":[2.4900093E1,1.0458038E1,1.4442054E1,8.466031E0,1.9920074E0,7.7190285E0,6.723025E0,3.7350137E0,2.9880111E0],"tree_param":{"num_deleted":"0","num_feature":"12","num_nodes":"9","size_leaf_vector":"1"}},{"base_weights":[-2.6715714E-1,-9.886268E-1,-2.3660759E-2,-4.876594E-3,2.9319192E-3,-4.1585723E-3,8.750281E-1,4.9563586E-3,3.0948842E-1,-7.120496E-4,5.5347523E-3],"categories":[],"categories_nodes":[],"categories_segments":[],"categories_sizes":[],"default_left":[0,0,0,0,0,0,0,0,0,0,0],"id":58,"left_children":[1,3,5,-1,-1,-1,7,-1,9,-1,-1],"loss_changes":[4.680534E0,1.2717452E1,2.8293192E1,0E0,0E0,0E0,7.446247E0,0E0,8.762245E0,0E0,0E0],"parents":[2147483647,0,0,1,1,2,2,6,6,8,8],"right_children":[2,4,6,-1,-1,-1,8,-1,10,-1,-1],"split_conditions":[3.031606E-1,4.6872893E-1,2.3436446E-1,-4.876594E-3,2.9319192E-3,-4.1585723E-3,4.9591413E-1,4.9563586E-3,6.0934764E-1,-7.120496E-4,5.5347523E-3],"split_indices":[1,2,2,0,0,0,0,0,2,0,0],"split_type":[0,0,0,0,0,0,0,0,0,0,0],"sum_hessian":[2.6643099E1,6.723025E0,1.9920074E1,4.7310176E0,1.9920074E0,7.221027E0,1.2699047E1,4.4820166E0,8.217031E0,6.2250233E0,1.9920074E0],"tree_param":{"num_deleted":"0","num_feature":"12","num_nodes":"11","size_leaf_vector":"1"}},{"base_weights":[2.5589672E-1,1.8399198E-2,7.580337E-1,-4.3138224E-3,1.7007965E0,-4.8765847E-3,4.7018616E-3,1.3702206E-3,5.5347714E-3],"categories":[],"categories_nodes":[],"categories_segments":[],"categories_sizes":[],"default_left":[0,0,0,0,0,0,0,0,0],"id":59,"left_children":[1,3,5,-1,7,-1,-1,-1,-1],"loss_changes":[3.2367482E0,5.2154316E1,2.4279825E1,0E0,4.6889896E0,0E0,0E0,0E0,0E0],"parents":[2147483647,0,0,1,1,2,2,4,4],"right_children":[2,4,6,-1,8,-1,-1,-1,-1],"split_conditions":[6.559753E-1,3.7498313E-1,1.8749157E-1,-4.3138224E-3,3.83763E-1,-4.8765847E-3,4.7018616E-3,1.3702206E-3,5.5347714E-3],"split_indices":[1,2,2,0,0,0,0,0,0],"split_type":[0,0,0,0,0,0,0,0,0],"sum_hessian":[2.71411E1,1.8426067E1,8.715033E0,9.213034E0,9.213034E0,2.4900093E0,6.2250233E0,2.4900093E0,6.723025E0],"tree_param":{"num_deleted":"0","num_feature":"12","num_nodes":"9","size_leaf_vector":"1"}},{"base_weights":[-1.0475404E-1,-4.5175846E-3,5.2854574E-1,7.962822E-1,-2.2737507E-3,6.553682E-1,5.534743E-3,1.2694089E-1,1.0985645E0,-7.1204925E-4,3.7995237E-3,3.5325852E-3,-7.12045E-4],"categories":[],"categories_nodes":[],"categories_segments":[],"categories_sizes":[],"default_left":[0,0,0,0,0,0,0,0,0,0,0,0,0],"id":60,"left_children":[1,-1,3,5,-1,7,-1,9,11,-1,-1,-1,-1],"loss_changes":[2.6860628E1,0E0,7.0280757E0,2.9591513E0,0E0,3.3239717E0,0E0,3.4805543E0,2.7992697E0,0E0,0E0,0E0,0E0],"parents":[2147483647,0,0,2,2,3,3,5,5,7,7,8,8],"right_children":[2,-1,4,6,-1,8,-1,10,12,-1,-1,-1,-1],"split_conditions":[1.8749157E-1,-4.5175846E-3,1E0,9.4451874E-1,-2.2737507E-3,4.6872893E-1,5.534743E-3,6.080653E-1,6.080653E-1,-7.1204925E-4,3.7995237E-3,3.5325852E-3,-7.12045E-4],"split_indices":[2,0,9,0,0,2,0,0,0,0,0,0,0],"split_type":[0,0,0,0,0,0,0,0,0,0,0,0,0],"sum_hessian":[2.5896095E1,7.221027E0,1.867507E1,1.5687058E1,2.9880111E0,1.4193052E1,1.4940056E0,6.474024E0,7.7190285E0,4.9800186E0,1.4940056E0,6.474024E0,1.2450047E0],"tree_param":{"num_deleted":"0","num_feature":"12","num_nodes":"13","size_leaf_vector":"1"}},{"base_weights":[-8.820439E-2,-2.9150376E-3,4.0820246E-3],"categories":[],"categories_nodes":[],"categories_segments":[],"categories_sizes":[],"default_left":[0,0,0],"id":61,"left_children":[1,-1,-1],"loss_changes":[4.8052227E1,0E0,0E0],"parents":[2147483647,0,0],"right_children":[2,-1,-1],"split_conditions":[4.6872893E-1,-2.9150376E-3,4.0820246E-3],"split_indices":[2,0,0],"split_type":[0,0,0],"sum_hessian":[2.7888103E1,1.7181063E1,1.070704E1],"tree_param":{"num_deleted":"0","num_feature":"12","num_nodes":"3","size_leaf_vector":"1"}},{"base_weights":[-4.8099282E-1,-1.5890062E0,1.6787103E-3,-4.8765996E-3,-8.1013495E-1,1.0727518E-3,-4.8765796E-3],"categories":[],"categories_nodes":[],"categories_segments":[],"categories_sizes":[],"default_left":[0,0,0,0,0,0,0],"id":62,"left_children":[1,3,-1,-1,5,-1,-1],"loss_changes":[3.393804E1,3.1154633E0,0E0,0E0,4.8957253E0,0E0,0E0],"parents":[2147483647,0,0,1,1,4,4],"right_children":[2,4,-1,-1,6,-1,-1],"split_conditions":[2.8123736E-1,1.8749157E-1,1.6787103E-3,-4.8765996E-3,6.018959E-1,1.0727518E-3,-4.8765796E-3],"split_indices":[2,2,0,0,1,0,0],"split_type":[0,0,0,0,0,0,0],"sum_hessian":[2.71411E1,1.369505E1,1.344605E1,9.960037E0,3.7350137E0,1.7430065E0,1.9920074E0],"tree_param":{"num_deleted":"0","num_feature":"12","num_nodes":"7","size_leaf_vector":"1"}},{"base_weights":[5.0686955E-2],"categories":[],"categories_nodes":[],"categories_segments":[],"categories_sizes":[],"default_left":[0],"id":63,"left_children":[-1],"loss_changes":[0E0],"parents":[2147483647],"right_children":[-1],"split_conditions":[1.314031E-4],"split_indices":[0],"split_type":[0],"sum_hessian":[1.9671072E1],"tree_param":{"num_deleted":"0","num_feature":"12","num_nodes":"1","size_leaf_vector":"1"}},{"base_weights":[1.0437896E-1,-4.1585723E-3,9.301504E-1,4.6620023E-2,4.047435E-3,3.2211244E-3,-1.6230427E-3],"categories":[],"categories_nodes":[],"categories_segments":[],"categories_sizes":[],"default_left":[0,0,0,0,0,0,0],"id":64,"left_children":[1,-1,3,5,-1,-1,-1],"loss_changes":[3.1265404E1,0E0,8.330417E0,5.0077715E0,0E0,0E0,0E0],"parents":[2147483647,0,0,2,2,3,3],"right_children":[2,-1,4,6,-1,-1,-1],"split_conditions":[2.3436446E-1,-4.1585723E-3,5.156018E-1,3.9742687E-1,4.047435E-3,3.2211244E-3,-1.6230427E-3],"split_indices":[2,0,2,1,0,0,0],"split_type":[0,0,0,0,0,0,0],"sum_hessian":[2.2161081E1,7.221027E0,1.4940055E1,6.2250233E0,8.715033E0,2.2410083E0,3.9840147E0],"tree_param":{"num_deleted":"0","num_feature":"12","num_nodes":"7","size_leaf_vector":"1"}},{"base_weights":[-4.6802905E-1,-4.4516465E-3,5.6938684E-1,-2.1926978E-1,3.4524985E-3,1.2694088E-1,-4.876565E-3,-2.273747E-3,1.6305066E-3],"categories":[],"categories_nodes":[],"categories_segments":[],"categories_sizes":[],"default_left":[0,0,0,0,0,0,0,0,0],"id":65,"left_children":[1,-1,3,5,-1,7,-1,-1,-1],"loss_changes":[3.4848694E1,0E0,8.832949E0,4.154499E0,0E0,3.0120256E0,0E0,0E0,0E0],"parents":[2147483647,0,0,2,2,3,3,5,5],"right_children":[2,-1,4,6,-1,8,-1,-1,-1],"split_conditions":[2.3436446E-1,-4.4516465E-3,5.156018E-1,1E0,3.4524985E-3,3.83763E-1,-4.876565E-3,-2.273747E-3,1.6305066E-3],"split_indices":[2,0,2,8,0,0,0,0,0],"split_type":[0,0,0,0,0,0,0,0,0],"sum_hessian":[2.68921E1,1.2201045E1,1.4691054E1,7.221027E0,7.4700274E0,5.9760222E0,1.2450047E0,1.9920074E0,3.9840147E0],"tree_param":{"num_deleted":"0","num_feature":"12","num_nodes":"9","size_leaf_vector":"1"}},{"base_weights":[1.2694104E-1,-4.616315E-3,1.2830758E0,3.277429E-1,4.4031036E-3,-4.1458142E-4,3.7995237E-3],"categories":[],"categories_nodes":[],"categories_segments":[],"categories_sizes":[],"default_left":[0,0,0,0,0,0,0],"id":66,"left_children":[1,-1,3,5,-1,-1,-1],"loss_changes":[5.8211376E1,0E0,6.5211735E0,2.763404E0,0E0,0E0,0E0],"parents":[2147483647,0,0,2,2,3,3],"right_children":[2,-1,4,6,-1,-1,-1],"split_conditions":[2.3436446E-1,-4.616315E-3,4.2185605E-1,6.080653E-1,4.4031036E-3,-4.1458142E-4,3.7995237E-3],"split_indices":[2,0,2,0,0,0,0],"split_type":[0,0,0,0,0,0,0],"sum_hessian":[2.6394098E1,9.960037E0,1.6434061E1,4.9800186E0,1.1454042E1,3.486013E0,1.4940056E0],"tree_param":{"num_deleted":"0","num_feature":"12","num_nodes":"7","size_leaf_vector":"1"}},{"base_weights":[-1.8804312E-1,-3.1413669E-3,3.1320844E-2,-1.5267246E0,1.0907921E0,-4.8765964E-3,-1.4061368E-3,6.624135E-1,4.4936324E-3,1.2694086E-1,5.5347523E-3,2.5600912E-3,-3.5751634E-3],"categories":[],"categories_nodes":[],"categories_segments":[],"categories_sizes":[],"default_left":[0,0,0,0,0,0,0,0,0,0,0,0,0],"id":67,"left_children":[1,-1,3,5,7,-1,-1,9,-1,11,-1,-1,-1],"loss_changes":[5.7034516E0,0E0,3.452629E1,2.952961E0,3.4270048E0,0E0,0E0,5.8901644E0,0E0,7.0997734E0,0E0,0E0,0E0],"parents":[2147483647,0,0,2,2,3,3,4,4,7,7,9,9],"right_children":[2,-1,4,6,8,-1,-1,10,-1,12,-1,-1,-1],"split_conditions":[2.5522164E-1,-3.1413669E-3,2.8123736E-1,7.16782E-1,6.562205E-1,-4.8765964E-3,-1.4061368E-3,6.813734E-1,4.4936324E-3,6.080653E-1,5.5347523E-3,2.5600912E-3,-3.5751634E-3],"split_indices":[1,0,2,1,2,0,0,1,0,0,0,0,0],"split_type":[0,0,0,0,0,0,0,0,0,0,0,0,0],"sum_hessian":[2.5398094E1,4.4820166E0,2.0916077E1,8.466031E0,1.2450047E1,6.2250233E0,2.2410083E0,7.4700274E0,4.9800186E0,5.47802E0,1.9920074E0,3.486013E0,1.9920074E0],"tree_param":{"num_deleted":"0","num_feature":"12","num_nodes":"13","size_leaf_vector":"1"}},{"base_weights":[3.7512374E-1,-1.362882E0,3.3806982E-3,-4.8765945E-3,-1.0906425E-3],"categories":[],"categories_nodes":[],"categories_segments":[],"categories_sizes":[],"default_left":[0,0,0,0,0],"id":68,"left_children":[1,3,-1,-1,-1],"loss_changes":[3.5778954E1,3.7687073E0,0E0,0E0,0E0],"parents":[2147483647,0,0,1,1],"right_children":[2,4,-1,-1,-1],"split_conditions":[2.8123736E-1,1.4061868E-1,3.3806982E-3,-4.8765945E-3,-1.0906425E-3],"split_indices":[2,2,0,0,0],"split_type":[0,0,0,0,0],"sum_hessian":[2.2161081E1,7.7190285E0,1.4442054E1,4.9800186E0,2.73901E0],"tree_param":{"num_deleted":"0","num_feature":"12","num_nodes":"5","size_leaf_vector":"1"}},{"base_weights":[-3.1291184E-1,-2.5779856E-3,4.0474334E-3],"categories":[],"categories_nodes":[],"categories_segments":[],"categories_sizes":[],"default_left":[0,0,0],"id":69,"left_children":[1,-1,-1],"loss_changes":[3.3394028E1,0E0,0E0],"parents":[2147483647,0,0],"right_children":[2,-1,-1],"split_conditions":[4.6872893E-1,-2.5779856E-3,4.0474334E-3],"split_indices":[2,0,0],"split_type":[0,0,0],"sum_hessian":[2.6145098E1,1.917307E1,6.972026E0],"tree_param":{"num_deleted":"0","num_feature":"12","num_nodes":"3","size_leaf_vector":"1"}},{"base_weights":[2.2033748E-1,6.4062124E-1,-1.9994648E-1,-4.8765903E-3,4.8167463E-3,-4.3084309E-1,2.560084E-3,-4.423928E-3,4.7338894E-3],"categories":[],"categories_nodes":[],"categories_segments":[],"categories_sizes":[],"default_left":[0,0,0,0,0,0,0,0,0],"id":70,"left_children":[1,3,5,-1,-1,7,-1,-1,-1],"loss_changes":[3.7825546E0,3.286906E1,2.935678E0,0E0,0E0,2.5806902E1,0E0,0E0,0E0],"parents":[2147483647,0,0,1,1,2,2,5,5],"right_children":[2,4,6,-1,-1,8,-1,-1,-1],"split_conditions":[4.5000315E-1,2.3436446E-1,1E0,-4.8765903E-3,4.8167463E-3,2.8123736E-1,2.560084E-3,-4.423928E-3,4.7338894E-3],"split_indices":[1,2,7,0,0,2,0,0,0],"split_type":[0,0,0,0,0,0,0,0,0],"sum_hessian":[2.141408E1,1.070704E1,1.070704E1,3.486013E0,7.221027E0,8.964033E0,1.7430065E0,5.727021E0,3.237012E0],"tree_param":{"num_deleted":"0","num_feature":"12","num_nodes":"9","size_leaf_vector":"1"}},{"base_weights":[-1.1254806E-1,-3.2942802E-1,7.9628116E-1,-4.609641E-3,8.236021E-1,-3.3892444E-3,4.791096E-3,1.2694092E-1,4.9868017E-3,7.175349E-1,-6.453741E-1,-2.4932146E-4,4.2333356E-3,3.29086E-4,-4.876565E-3],"categories":[],"categories_nodes":[],"categories_segments":[],"categories_sizes":[],"default_left":[0,0,0,0,0,0,0,0,0,0,0,0,0,0,0],"id":71,"left_children":[1,3,5,-1,7,-1,-1,9,-1,11,13,-1,-1,-1,-1],"loss_changes":[5.3497014E0,3.6601303E1,1.1570003E1,0E0,9.349903E0,0E0,0E0,3.4072728E0,0E0,3.1531029E0,3.0892375E0,0E0,0E0,0E0,0E0],"parents":[2147483647,0,0,1,1,2,2,4,4,7,7,9,9,10,10],"right_children":[2,4,6,-1,8,-1,-1,10,-1,12,14,-1,-1,-1,-1],"split_conditions":[7.336072E-1,2.8123736E-1,3.2811025E-1,-4.609641E-3,6.0934764E-1,-3.3892444E-3,4.791096E-3,4.9591413E-1,4.9868017E-3,3.7498313E-1,4.270111E-1,-2.4932146E-4,4.2333356E-3,3.29086E-4,-4.876565E-3],"split_indices":[1,2,2,0,2,0,0,0,0,2,1,0,0,0,0],"split_type":[0,0,0,0,0,0,0,0,0,0,0,0,0,0,0],"sum_hessian":[2.71411E1,2.191208E1,5.229019E0,9.711036E0,1.2201045E1,1.7430065E0,3.486013E0,7.4700274E0,4.7310176E0,4.2330155E0,3.237012E0,2.2410083E0,1.9920074E0,1.9920074E0,1.2450047E0],"tree_param":{"num_deleted":"0","num_feature":"12","num_nodes":"15","size_leaf_vector":"1"}},{"base_weights":[-1.2406196E-1,-4.876599E-3,1.07811E0,2.1397613E-3,5.5347597E-3],"categories":[],"categories_nodes":[],"categories_segments":[],"categories_sizes":[],"default_left":[0,0,0,0,0],"id":72,"left_children":[1,-1,3,-1,-1],"loss_changes":[5.049121E1,0E0,3.7908554E0,0E0,0E0],"parents":[2147483647,0,0,2,2],"right_children":[2,-1,4,-1,-1],"split_conditions":[2.3436446E-1,-4.876599E-3,7.9223305E-1,2.1397613E-3,5.5347597E-3],"split_indices":[2,0,1,0,0],"split_type":[0,0,0,0,0],"sum_hessian":[2.3904089E1,9.711036E0,1.4193052E1,1.1454042E1,2.73901E0],"tree_param":{"num_deleted":"0","num_feature":"12","num_nodes":"5","size_leaf_vector":"1"}},{"base_weights":[1.6631405E-1,-1.5318606E0,4.0474366E-3,-4.8765983E-3,-7.336388E-1,3.29086E-4,-4.8765717E-3],"categories":[],"categories_nodes":[],"categories_segments":[],"categories_sizes":[],"default_left":[0,0,0,0,0,0,0],"id":73,"left_children":[1,3,-1,-1,5,-1,-1],"loss_changes":[6.016391E1,3.1928635E0,0E0,0E0,3.442298E0,0E0,0E0],"parents":[2147483647,0,0,1,1,4,4],"right_children":[2,4,-1,-1,6,-1,-1],"split_conditions":[3.2811025E-1,1.8749157E-1,4.0474366E-3,-4.8765983E-3,6.080653E-1,3.29086E-4,-4.8765717E-3],"split_indices":[2,2,0,0,0,0,0],"split_type":[0,0,0,0,0,0,0],"sum_hessian":[2.5398094E1,1.1454042E1,1.3944052E1,7.9680295E0,3.486013E0,1.9920074E0,1.4940056E0],"tree_param":{"num_deleted":"0","num_feature":"12","num_nodes":"7","size_leaf_vector":"1"}},{"base_weights":[-1.9914834E-1,-4.4138725E-3,7.405038E-1,1.269409E-1,2.9319313E-3,2.5600912E-3,-1.9019177E-3],"categories":[],"categories_nodes":[],"categories_segments":[],"categories_sizes":[],"default_left":[0,0,0,0,0,0,0],"id":74,"left_children":[1,-1,3,5,-1,-1,-1],"loss_changes":[4.115675E1,0E0,4.2949343E0,5.163478E0,0E0,0E0,0E0],"parents":[2147483647,0,0,2,2,3,3],"right_children":[2,-1,4,6,-1,-1,-1],"split_conditions":[2.3436446E-1,-4.4138725E-3,4.6872893E-1,3.2811025E-1,2.9319313E-3,2.5600912E-3,-1.9019177E-3],"split_indices":[2,0,2,2,0,0,0],"split_type":[0,0,0,0,0,0,0],"sum_hessian":[2.9133108E1,1.1205042E1,1.7928066E1,6.972026E0,1.095604E1,3.486013E0,3.486013E0],"tree_param":{"num_deleted":"0","num_feature":"12","num_nodes":"7","size_leaf_vector":"1"}},{"base_weights":[-1.693248E-1,-1.2920624E0,4.205663E-3,-4.876599E-3,-7.48351E-1,-3.8850366E-3,3.2908694E-4],"categories":[],"categories_nodes":[],"categories_segments":[],"categories_sizes":[],"default_left":[0,0,0,0,0,0,0],"id":75,"left_children":[1,3,-1,-1,5,-1,-1],"loss_changes":[6.1105587E1,5.9807987E0,0E0,0E0,6.377118E0,0E0,0E0],"parents":[2147483647,0,0,1,1,4,4],"right_children":[2,4,-1,-1,6,-1,-1],"split_conditions":[4.2185605E-1,1.4061868E-1,4.205663E-3,-4.876599E-3,5.3507006E-1,-3.8850366E-3,3.2908694E-4],"split_indices":[2,2,0,0,1,0,0],"split_type":[0,0,0,0,0,0,0],"sum_hessian":[3.0378113E1,1.867507E1,1.1703043E1,8.964033E0,9.711036E0,5.229019E0,4.4820166E0],"tree_param":{"num_deleted":"0","num_feature":"12","num_nodes":"7","size_leaf_vector":"1"}},{"base_weights":[1.09479964E-1,-4.0266924E-3,3.4840505E-3],"categories":[],"categories_nodes":[],"categories_segments":[],"categories_sizes":[],"default_left":[0,0,0],"id":76,"left_children":[1,-1,-1],"loss_changes":[5.8774696E1,0E0,0E0],"parents":[2147483647,0,0],"right_children":[2,-1,-1],"split_conditions":[2.8123736E-1,-4.0266924E-3,3.4840505E-3],"split_indices":[2,0,0],"split_type":[0,0,0],"sum_hessian":[2.8635105E1,1.2201045E1,1.6434061E1],"tree_param":{"num_deleted":"0","num_feature":"12","num_nodes":"3","size_leaf_vector":"1"}},{"base_weights":[-9.6172735E-2,-1.1798679E0,4.667159E-3,-4.609641E-3,-2.0772935E-1,-3.1413632E-3,2.0643114E-3],"categories":[],"categories_nodes":[],"categories_segments":[],"categories_sizes":[],"default_left":[0,0,0,0,0,0,0],"id":77,"left_children":[1,3,-1,-1,5,-1,-1],"loss_changes":[5.0662735E1,9.123135E0,0E0,0E0,6.024054E0,0E0,0E0],"parents":[2147483647,0,0,1,1,4,4],"right_children":[2,4,-1,-1,6,-1,-1],"split_conditions":[4.6872893E-1,1.8749157E-1,4.667159E-3,-4.609641E-3,1E0,-3.1413632E-3,2.0643114E-3],"split_indices":[2,2,0,0,11,0,0],"split_type":[0,0,0,0,0,0,0],"sum_hessian":[2.465109E1,1.5687058E1,8.964033E0,9.711036E0,5.9760222E0,2.9880111E0,2.9880111E0],"tree_param":{"num_deleted":"0","num_feature":"12","num_nodes":"7","size_leaf_vector":"1"}},{"base_weights":[1.472241E-1,-1.4029812E0,1.2894808E0,-4.2816633E-3,-4.1458025E-4,2.1882604E-3,4.457734E-3],"categories":[],"categories_nodes":[],"categories_segments":[],"categories_sizes":[],"default_left":[0,0,0,0,0,0,0],"id":78,"left_children":[1,3,5,-1,-1,-1,-1],"loss_changes":[4.3650524E1,3.2319584E0,2.7183876E0,0E0,0E0,0E0,0E0],"parents":[2147483647,0,0,1,1,2,2],"right_children":[2,4,6,-1,-1,-1,-1],"split_conditions":[3.2811025E-1,7.4528015E-1,6.562205E-1,-4.2816633E-3,-4.1458025E-4,2.1882604E-3,4.457734E-3],"split_indices":[2,1,2,0,0,0,0],"split_type":[0,0,0,0,0,0,0],"sum_hessian":[2.465109E1,1.0458038E1,1.4193052E1,8.715033E0,1.7430065E0,6.972026E0,7.221027E0],"tree_param":{"num_deleted":"0","num_feature":"12","num_nodes":"7","size_leaf_vector":"1"}},{"base_weights":[3.648951E-2,-4.442793E-3,1.3700031E0,2.379812E-3,4.840681E-3],"categories":[],"categories_nodes":[],"categories_segments":[],"categories_sizes":[],"default_left":[0,0,0,0,0],"id":79,"left_children":[1,-1,3,-1,-1],"loss_changes":[6.450871E1,0E0,3.525755E0,0E0,0E0],"parents":[2147483647,0,0,2,2],"right_children":[2,-1,4,-1,-1],"split_conditions":[2.8123736E-1,-4.442793E-3,6.562205E-1,2.379812E-3,4.840681E-3],"split_indices":[2,0,2,0,0],"split_type":[0,0,0,0,0],"sum_hessian":[2.7639103E1,1.19520445E1,1.5687058E1,8.217031E0,7.4700274E0],"tree_param":{"num_deleted":"0","num_feature":"12","num_nodes":"5","size_leaf_vector":"1"}},{"base_weights":[2.3965444E-2,-1.6639981E0,1.5472498E0,-4.8765983E-3,-7.12045E-4,2.2812164E-3,5.118316E-3],"categories":[],"categories_nodes":[],"categories_segments":[],"categories_sizes":[],"default_left":[0,0,0,0,0,0,0],"id":80,"left_children":[1,3,5,-1,-1,-1,-1],"loss_changes":[4.9939022E1,2.7786636E0,2.9094105E0,0E0,0E0,0E0,0E0],"parents":[2147483647,0,0,1,1,2,2],"right_children":[2,4,6,-1,-1,-1,-1],"split_conditions":[2.8123736E-1,2.3436446E-1,4.6872893E-1,-4.8765983E-3,-7.12045E-4,2.2812164E-3,5.118316E-3],"split_indices":[2,2,2,0,0,0,0],"split_type":[0,0,0,0,0,0,0],"sum_hessian":[1.9422071E1,9.213034E0,1.0209038E1,7.9680295E0,1.2450047E0,3.9840147E0,6.2250233E0],"tree_param":{"num_deleted":"0","num_feature":"12","num_nodes":"7","size_leaf_vector":"1"}},{"base_weights":[-9.196183E-3,-1.288551E0,1.3599378E0,-4.8765983E-3,-1.6454828E-3,6.2894624E-1,4.9037808E-3,4.5882734E-3,-8.722232E-4],"categories":[],"categories_nodes":[],"categories_segments":[],"categories_sizes":[],"default_left":[0,0,0,0,0,0,0,0,0],"id":81,"left_children":[1,3,5,-1,-1,7,-1,-1,-1],"loss_changes":[5.1465973E1,5.884432E0,5.515642E0,0E0,0E0,6.582221E0,0E0,0E0,0E0],"parents":[2147483647,0,0,1,1,2,2,5,5],"right_children":[2,4,6,-1,-1,8,-1,-1,-1],"split_conditions":[3.2811025E-1,1.4061868E-1,5.624747E-1,-4.8765983E-3,-1.6454828E-3,4.0902928E-1,4.9037808E-3,4.5882734E-3,-8.722232E-4],"split_indices":[2,2,2,0,0,1,0,0,0],"split_type":[0,0,0,0,0,0,0,0,0],"sum_hessian":[2.9382109E1,1.5189056E1,1.4193052E1,7.9680295E0,7.221027E0,5.9760222E0,8.217031E0,2.73901E0,3.237012E0],"tree_param":{"num_deleted":"0","num_feature":"12","num_nodes":"9","size_leaf_vector":"1"}},{"base_weights":[-1.4441356E-1,-4.616315E-3,7.7742755E-1,1.7591713E-1,4.1465894E-3,4.3118674E-1,-2.273747E-3,-3.1413527E-3,7.9628146E-1,4.5882734E-3,3.2908688E-4],"categories":[],"categories_nodes":[],"categories_segments":[],"categories_sizes":[],"default_left":[0,0,0,0,0,0,0,0,0,0,0],"id":82,"left_children":[1,-1,3,5,-1,7,-1,-1,9,-1,-1],"loss_changes":[4.169025E1,0E0,8.741936E0,2.7441428E0,0E0,4.9287686E0,0E0,0E0,4.3811207E0,0E0,0E0],"parents":[2147483647,0,0,2,2,3,3,5,5,8,8],"right_children":[2,-1,4,6,-1,8,-1,-1,10,-1,-1],"split_conditions":[2.3436446E-1,-4.616315E-3,5.624747E-1,1E0,4.1465894E-3,2.07716E-1,-2.273747E-3,-3.1413527E-3,5.049331E-1,4.5882734E-3,3.2908688E-4],"split_indices":[2,0,2,8,0,1,0,0,1,0,0],"split_type":[0,0,0,0,0,0,0,0,0,0,0],"sum_hessian":[2.7639103E1,9.960037E0,1.7679066E1,1.0209038E1,7.4700274E0,8.217031E0,1.9920074E0,1.4940056E0,6.723025E0,2.73901E0,3.9840147E0],"tree_param":{"num_deleted":"0","num_feature":"12","num_nodes":"11","size_leaf_vector":"1"}},{"base_weights":[2.9086137E-1,-1.3790761E0,3.7397111E-3,-4.8765955E-3,-1.9845488E-3],"categories":[],"categories_nodes":[],"categories_segments":[],"categories_sizes":[],"default_left":[0,0,0,0,0],"id":83,"left_children":[1,3,-1,-1,-1],"loss_changes":[4.6931004E1,3.0677948E0,0E0,0E0,0E0],"parents":[2147483647,0,0,1,1],"right_children":[2,4,-1,-1,-1],"split_conditions":[3.2811025E-1,1.4061868E-1,3.7397111E-3,-4.8765955E-3,-1.9845488E-3],"split_indices":[2,2,0,0,0],"split_type":[0,0,0,0,0],"sum_hessian":[2.440209E1,9.960037E0,1.4442054E1,5.47802E0,4.4820166E0],"tree_param":{"num_deleted":"0","num_feature":"12","num_nodes":"5","size_leaf_vector":"1"}},{"base_weights":[-8.603121E-2,-1.5214366E0,1.3935405E0,-4.5112898E-3,-7.1204785E-4,1.4607572E-3,4.7911047E-3],"categories":[],"categories_nodes":[],"categories_segments":[],"categories_sizes":[],"default_left":[0,0,0,0,0,0,0],"id":84,"left_children":[1,3,5,-1,-1,-1,-1],"loss_changes":[6.980487E1,4.549618E0,6.106947E0,0E0,0E0,0E0,0E0],"parents":[2147483647,0,0,1,1,2,2],"right_children":[2,4,6,-1,-1,-1,-1],"split_conditions":[3.2811025E-1,2.3436446E-1,4.6872893E-1,-4.5112898E-3,-7.1204785E-4,1.4607572E-3,4.7911047E-3],"split_indices":[2,2,2,0,0,0,0],"split_type":[0,0,0,0,0,0,0],"sum_hessian":[3.2868122E1,1.6683062E1,1.618506E1,1.4193052E1,2.4900093E0,5.727021E0,1.0458038E1],"tree_param":{"num_deleted":"0","num_feature":"12","num_nodes":"7","size_leaf_vector":"1"}},{"base_weights":[-5.8674626E-2,-1.5835973E0,1.2081845E0,-4.8765996E-3,-7.336388E-1,8.0233096E-4,1.6679817E0,-4.8765717E-3,3.29086E-4,2.3312697E-3,5.1877266E-3],"categories":[],"categories_nodes":[],"categories_segments":[],"categories_sizes":[],"default_left":[0,0,0,0,0,0,0,0,0,0,0],"id":85,"left_children":[1,3,5,-1,7,-1,9,-1,-1,-1,-1],"loss_changes":[5.7243256E1,3.3998146E0,6.6879616E0,0E0,3.442298E0,0E0,2.741764E0,0E0,0E0,0E0,0E0],"parents":[2147483647,0,0,1,1,2,2,4,4,6,6],"right_children":[2,4,6,-1,8,-1,10,-1,-1,-1,-1],"split_conditions":[2.8123736E-1,1.8749157E-1,4.6872893E-1,-4.8765996E-3,6.080653E-1,8.0233096E-4,3.355214E-1,-4.8765717E-3,3.29086E-4,2.3312697E-3,5.1877266E-3],"split_indices":[2,2,2,0,0,0,1,0,0,0,0],"split_type":[0,0,0,0,0,0,0,0,0,0,0],"sum_hessian":[2.963111E1,1.344605E1,1.618506E1,9.960037E0,3.486013E0,5.47802E0,1.070704E1,1.4940056E0,1.9920074E0,3.237012E0,7.4700274E0],"tree_param":{"num_deleted":"0","num_feature":"12","num_nodes":"11","size_leaf_vector":"1"}},{"base_weights":[2.3434646E-2,-2.9836227E-3,2.5881596E-3],"categories":[],"categories_nodes":[],"categories_segments":[],"categories_sizes":[],"default_left":[0,0,0],"id":86,"left_children":[1,-1,-1],"loss_changes":[2.7652065E1,0E0,0E0],"parents":[2147483647,0,0],"right_children":[2,-1,-1],"split_conditions":[3.7498313E-1,-2.9836227E-3,2.5881596E-3],"split_indices":[2,0,0],"split_type":[0,0,0],"sum_hessian":[2.415309E1,1.095604E1,1.3197049E1],"tree_param":{"num_deleted":"0","num_feature":"12","num_nodes":"3","size_leaf_vector":"1"}},{"base_weights":[1.4471117E-1,-4.595211E-3,2.7949403E-3],"categories":[],"categories_nodes":[],"categories_segments":[],"categories_sizes":[],"default_left":[0,0,0],"id":87,"left_children":[1,-1,-1],"loss_changes":[5.0353077E1,0E0,0E0],"parents":[2147483647,0,0],"right_children":[2,-1,-1],"split_conditions":[2.8123736E-1,-4.595211E-3,2.7949403E-3],"split_indices":[2,0,0],"split_type":[0,0,0],"sum_hessian":[2.8137104E1,9.213034E0,1.892407E1],"tree_param":{"num_deleted":"0","num_feature":"12","num_nodes":"3","size_leaf_vector":"1"}},{"base_weights":[-7.570358E-2,-1.494924E0,1.2190238E0,-4.4033555E-3,-9.7233045E-4,-2.794305E-3,1.4398792E0,3.2908676E-4,4.986807E-3],"categories":[],"categories_nodes":[],"categories_segments":[],"categories_sizes":[],"default_left":[0,0,0,0,0,0,0,0,0],"id":88,"left_children":[1,3,5,-1,-1,-1,7,-1,-1],"loss_changes":[4.9871902E1,2.9523506E0,7.199875E0,0E0,0E0,0E0,8.223133E0,0E0,0E0],"parents":[2147483647,0,0,1,1,2,2,6,6],"right_children":[2,4,6,-1,-1,-1,8,-1,-1],"split_conditions":[3.2811025E-1,2.8123736E-1,3.031606E-1,-4.4033555E-3,-9.7233045E-4,-2.794305E-3,4.2185605E-1,3.2908676E-4,4.986807E-3],"split_indices":[2,2,1,0,0,0,2,0,0],"split_type":[0,0,0,0,0,0,0,0,0],"sum_hessian":[2.71411E1,1.2948048E1,1.4193052E1,1.095604E1,1.9920074E0,1.2450047E0,1.2948048E1,3.486013E0,9.462035E0],"tree_param":{"num_deleted":"0","num_feature":"12","num_nodes":"9","size_leaf_vector":"1"}},{"base_weights":[-2.4347115E-1,-3.968913E-1,1.0396758E0,-6.762684E-1,4.920356E-1,3.2908548E-4,5.5347355E-3,-4.8765983E-3,3.9829534E-1,-1.9019123E-3,2.7584033E-3,-2.273747E-3,7.5012016E-1,8.0233096E-4,5.5347476E-3],"categories":[],"categories_nodes":[],"categories_segments":[],"categories_sizes":[],"default_left":[0,0,0,0,0,0,0,0,0,0,0,0,0,0,0],"id":89,"left_children":[1,3,5,7,9,-1,-1,-1,11,-1,-1,-1,13,-1,-1],"loss_changes":[5.048908E0,5.689133E0,2.7381804E0,2.2565826E1,3.8404422E0,0E0,0E0,0E0,4.133937E0,0E0,0E0,0E0,4.406283E0,0E0,0E0],"parents":[2147483647,0,0,1,1,2,2,3,3,4,4,8,8,12,12],"right_children":[2,4,6,8,10,-1,-1,-1,12,-1,-1,-1,14,-1,-1],"split_conditions":[1E0,7.2021645E-1,3.2811025E-1,1.8749157E-1,2.8123736E-1,3.2908548E-4,5.5347355E-3,-4.8765983E-3,2.9297793E-1,-1.9019123E-3,2.7584033E-3,-2.273747E-3,6.0934764E-1,8.0233096E-4,5.5347476E-3],"split_indices":[9,0,2,2,2,0,0,0,1,0,0,0,2,0,0],"split_type":[0,0,0,0,0,0,0,0,0,0,0,0,0,0,0],"sum_hessian":[2.5647095E1,2.2908085E1,2.73901E0,1.7430065E1,5.47802E0,1.4940056E0,1.2450047E0,8.217031E0,9.213034E0,1.7430065E0,3.7350137E0,1.9920074E0,7.221027E0,5.47802E0,1.7430065E0],"tree_param":{"num_deleted":"0","num_feature":"12","num_nodes":"15","size_leaf_vector":"1"}},{"base_weights":[3.809042E-2,-3.951145E-3,1.0718933E0,1.3181413E0,-1.4061368E-3,1.4656231E0,-7.12045E-4,8.4982866E-1,5.175759E-3,9.074959E-4,5.5347476E-3],"categories":[],"categories_nodes":[],"categories_segments":[],"categories_sizes":[],"default_left":[0,0,0,0,0,0,0,0,0,0,0],"id":90,"left_children":[1,-1,3,5,-1,7,-1,9,-1,-1,-1],"loss_changes":[4.544137E1,0E0,6.7307777E0,3.4510765E0,0E0,4.3954697E0,0E0,3.9981618E0,0E0,0E0,0E0],"parents":[2147483647,0,0,2,2,3,3,5,5,7,7],"right_children":[2,-1,4,6,-1,8,-1,10,-1,-1,-1],"split_conditions":[2.8123736E-1,-3.951145E-3,1E0,1E0,-1.4061368E-3,6.0934764E-1,-7.12045E-4,5.7920444E-1,5.175759E-3,9.074959E-4,5.5347476E-3],"split_indices":[2,0,8,9,0,2,0,1,0,0,0],"split_type":[0,0,0,0,0,0,0,0,0,0,0],"sum_hessian":[2.8137104E1,1.1205042E1,1.6932062E1,1.4691054E1,2.2410083E0,1.344605E1,1.2450047E0,6.2250233E0,7.221027E0,4.4820166E0,1.7430065E0],"tree_param":{"num_deleted":"0","num_feature":"12","num_nodes":"11","size_leaf_vector":"1"}},{"base_weights":[6.9568925E-2,-4.5611025E-3,9.078391E-1,1.8035343E-4,4.40922E-3],"categories":[],"categories_nodes":[],"categories_segments":[],"categories_sizes":[],"default_left":[0,0,0,0,0],"id":91,"left_children":[1,-1,3,-1,-1],"loss_changes":[4.008454E1,0E0,1.1917015E1,0E0,0E0],"parents":[2147483647,0,0,2,2],"right_children":[2,-1,4,-1,-1],"split_conditions":[2.3436446E-1,-4.5611025E-3,5.156018E-1,1.8035343E-4,4.40922E-3],"split_indices":[2,0,2,0,0],"split_type":[0,0,0,0,0],"sum_hessian":[2.6145098E1,8.217031E0,1.7928066E1,8.715033E0,9.213034E0],"tree_param":{"num_deleted":"0","num_feature":"12","num_nodes":"5","size_leaf_vector":"1"}},{"base_weights":[3.2774344E-1,-4.5703817E-3,1.4047742E0,1.2477363E-3,4.47239E-3],"categories":[],"categories_nodes":[],"categories_segments":[],"categories_sizes":[],"default_left":[0,0,0,0,0],"id":92,"left_children":[1,-1,3,-1,-1],"loss_changes":[5.6068943E1,0E0,4.8623734E0,0E0,0E0],"parents":[2147483647,0,0,2,2],"right_children":[2,-1,4,-1,-1],"split_conditions":[2.3436446E-1,-4.5703817E-3,4.2185605E-1,1.2477363E-3,4.47239E-3],"split_indices":[2,0,2,0,0],"split_type":[0,0,0,0,0],"sum_hessian":[2.4900093E1,8.466031E0,1.6434061E1,4.2330155E0,1.2201045E1],"tree_param":{"num_deleted":"0","num_feature":"12","num_nodes":"5","size_leaf_vector":"1"}},{"base_weights":[6.609182E-2,-5.00566E-1,3.367345E-1,-3.9301077E-3,4.4936235E-3,-8.242277E-1,4.8167463E-3,-4.8765894E-3,-2.7466342E-1,3.2908702E-4,-4.876565E-3],"categories":[],"categories_nodes":[],"categories_segments":[],"categories_sizes":[],"default_left":[0,0,0,0,0,0,0,0,0,0,0],"id":93,"left_children":[1,3,5,-1,-1,7,-1,-1,9,-1,-1],"loss_changes":[3.7805393E0,1.8074453E1,2.9464409E1,0E0,0E0,5.4956183E0,0E0,0E0,4.0160146E0,0E0,0E0],"parents":[2147483647,0,0,1,1,2,2,5,5,8,8],"right_children":[2,4,6,-1,-1,8,-1,-1,10,-1,-1],"split_conditions":[3.7894937E-1,3.2811025E-1,4.2185605E-1,-3.9301077E-3,4.4936235E-3,1.4061868E-1,4.8167463E-3,-4.8765894E-3,8.323676E-1,3.2908702E-4,-4.876565E-3],"split_indices":[1,2,2,0,0,2,0,0,0,0,0],"split_type":[0,0,0,0,0,0,0,0,0,0,0],"sum_hessian":[2.465109E1,7.9680295E0,1.6683062E1,5.47802E0,2.4900093E0,9.462035E0,7.221027E0,3.237012E0,6.2250233E0,4.9800186E0,1.2450047E0],"tree_param":{"num_deleted":"0","num_feature":"12","num_nodes":"11","size_leaf_vector":"1"}},{"base_weights":[5.9254833E-2,-4.8765717E-3,1.995202E-1,-4.8765973E-3,3.2632025E-3],"categories":[],"categories_nodes":[],"categories_segments":[],"categories_sizes":[],"default_left":[0,0,0,0,0],"id":94,"left_children":[1,-1,3,-1,-1],"loss_changes":[6.031378E0,0E0,4.554626E1,0E0,0E0],"parents":[2147483647,0,0,2,2],"right_children":[2,-1,4,-1,-1],"split_conditions":[1.0201767E-1,-4.8765717E-3,1.8749157E-1,-4.8765973E-3,3.2632025E-3],"split_indices":[1,0,2,0,0],"split_type":[0,0,0,0,0],"sum_hessian":[2.2161081E1,1.4940056E0,2.0667076E1,6.972026E0,1.369505E1],"tree_param":{"num_deleted":"0","num_feature":"12","num_nodes":"5","size_leaf_vector":"1"}},{"base_weights":[-3.4624107E-2,-2.9836234E-3,4.884062E-3],"categories":[],"categories_nodes":[],"categories_segments":[],"categories_sizes":[],"default_left":[0,0,0],"id":95,"left_children":[1,-1,-1],"loss_changes":[4.639487E1,0E0,0E0],"parents":[2147483647,0,0],"right_children":[2,-1,-1],"split_conditions":[5.156018E-1,-2.9836234E-3,4.884062E-3],"split_indices":[2,0,0],"split_type":[0,0,0],"sum_hessian":[2.166308E1,1.369505E1,7.9680295E0],"tree_param":{"num_deleted":"0","num_feature":"12","num_nodes":"3","size_leaf_vector":"1"}},{"base_weights":[-1.7426257E-1,-6.260678E-1,3.4208634E-1,-3.6371504E-3,8.5713035E-1,-4.8765903E-3,1.0831423E0,9.797968E-4,5.534743E-3,4.920356E-1,4.4936324E-3,2.472602E-3,-2.794305E-3],"categories":[],"categories_nodes":[],"categories_segments":[],"categories_sizes":[],"default_left":[0,0,0,0,0,0,0,0,0,0,0,0,0],"id":96,"left_children":[1,3,5,-1,7,-1,9,-1,-1,11,-1,-1,-1],"loss_changes":[6.97071E0,1.8363407E1,2.2972715E1,0E0,3.3542738E0,0E0,4.0195036E0,0E0,0E0,3.9709315E0,0E0,0E0,0E0],"parents":[2147483647,0,0,1,1,2,2,4,4,6,6,9,9],"right_children":[2,4,6,-1,8,-1,10,-1,-1,12,-1,-1,-1],"split_conditions":[1E0,4.2185605E-1,1.8749157E-1,-3.6371504E-3,7.4996626E-1,-4.8765903E-3,5.624747E-1,9.797968E-4,5.534743E-3,4.2185605E-1,4.4936324E-3,2.472602E-3,-2.794305E-3],"split_indices":[11,2,2,0,2,0,2,0,0,2,0,0,0],"split_type":[0,0,0,0,0,0,0,0,0,0,0,0,0],"sum_hessian":[2.988011E1,1.5936059E1,1.3944052E1,1.0458038E1,5.47802E0,3.486013E0,1.0458038E1,3.9840147E0,1.4940056E0,5.47802E0,4.9800186E0,4.2330155E0,1.2450047E0],"tree_param":{"num_deleted":"0","num_feature":"12","num_nodes":"13","size_leaf_vector":"1"}},{"base_weights":[2.1618654E-1],"categories":[],"categories_nodes":[],"categories_segments":[],"categories_sizes":[],"default_left":[0],"id":97,"left_children":[-1],"loss_changes":[0E0],"parents":[2147483647],"right_children":[-1],"split_conditions":[5.6045153E-4],"split_indices":[0],"split_type":[0],"sum_hessian":[2.2410084E1],"tree_param":{"num_deleted":"0","num_feature":"12","num_nodes":"1","size_leaf_vector":"1"}},{"base_weights":[-1.8324155E-1,-4.3087075E-3,1.0128337E0,-7.386124E-2,3.7995458E-3,-1.6730964E-3,2.560084E-3],"categories":[],"categories_nodes":[],"categories_segments":[],"categories_sizes":[],"default_left":[0,0,0,0,0,0,0],"id":98,"left_children":[1,-1,3,5,-1,-1,-1],"loss_changes":[5.417133E1,0E0,8.331326E0,3.02085E0,0E0,0E0,0E0],"parents":[2147483647,0,0,2,2,3,3],"right_children":[2,-1,4,6,-1,-1,-1],"split_conditions":[2.8123736E-1,-4.3087075E-3,3.4099448E-1,5.624747E-1,3.7995458E-3,-1.6730964E-3,2.560084E-3],"split_indices":[2,0,1,2,0,0,0],"split_type":[0,0,0,0,0,0,0],"sum_hessian":[3.0627113E1,1.369505E1,1.6932062E1,4.9800186E0,1.19520445E1,3.237012E0,1.7430065E0],"tree_param":{"num_deleted":"0","num_feature":"12","num_nodes":"7","size_leaf_vector":"1"}},{"base_weights":[-8.189346E-2,-1.3073616E0,4.884064E-3,-1.4851342E0,2.0643047E-3,-4.876599E-3,-1.0025716E0,1.0727518E-3,-3.6272325E-3],"categories":[],"categories_nodes":[],"categories_segments":[],"categories_sizes":[],"default_left":[0,0,0,0,0,0,0,0,0],"id":99,"left_children":[1,3,-1,5,-1,-1,7,-1,-1],"loss_changes":[7.498332E1,7.1701584E0,0E0,3.3779182E0,0E0,0E0,4.475732E0,0E0,0E0],"parents":[2147483647,0,0,1,1,3,3,6,6],"right_children":[2,4,-1,6,-1,-1,8,-1,-1],"split_conditions":[4.6872893E-1,1E0,4.884064E-3,1.8749157E-1,2.0643047E-3,-4.876599E-3,2.7161184E-1,1.0727518E-3,-3.6272325E-3],"split_indices":[2,5,0,2,0,0,0,0,0],"split_type":[0,0,0,0,0,0,0,0,0],"sum_hessian":[3.1125114E1,1.917307E1,1.19520445E1,1.7679066E1,1.4940056E0,9.711036E0,7.9680295E0,1.7430065E0,6.2250233E0],"tree_param":{"num_deleted":"0","num_feature":"12","num_nodes":"9","size_leaf_vector":"1"}}]},"name":"gbtree"},"learner_model_param":{"base_score":"4.6839157E-1","boost_from_average":"1","num_class":"0","num_feature":"12","num_target":"1"},"objective":{"name":"binary:logistic","reg_loss_param":{"scale_pos_weight":"1"}}},"version":[2,1,1]}