{"learner":{"attributes":{"scikit_learn":"{\"_estimator_type\": \"classifier\"}"},"feature_names":["purchases","time_spent","n_visits","customer_group_2","customer_group_3","customer_group_4","customer_group_5","customer_group_6","customer_group_7","customer_group_8","customer_group_9","onboarding_True"],"feature_types":["float","float","float","float","float","float","float","float","float","float","float","float"],"gradient_booster":{"model":{"cats":{"enc":[],"feature_segments":[],"sorted_idx":[]},"gbtree_model_param":{"num_parallel_tree":"100","num_trees":"100"},"iteration_indptr":[0,100],"tree_info":[0,0,0,0,0,0,0,0,0,0,0,0,0,0,0,0,0,0,0,0,0,0,0,0,0,0,0,0,0,0,0,0,0,0,0,0,0,0,0,0,0,0,0,0,0,0,0,0,0,0,0,0,0,0,0,0,0,0,0,0,0,0,0,0,0,0,0,0,0,0,0,0,0,0,0,0,0,0,0,0,0,0,0,0,0,0,0,0,0,0,0,0,0,0,0,0,0,0,0,0],"trees":[{"base_weights":[-6.76871E-2,-4.1834933E-1,2.3535435E-1,-9.490337E-4,-2.8084928E-1,7.710518E-2,3.4415063E-1,-6.347541E-4,1.0990205E-3,4.7909703E-5,1.0990298E-3,2.5387284E-1,9.513736E-4,6.6836335E-4,-6.2363927E-4],"categories":[],"categories_nodes":[],"categories_segments":[],"categories_sizes":[],"default_left":[0,0,0,0,0,0,0,0,0,0,0,0,0,0,0],"id":0,"left_children":[1,3,5,-1,7,9,11,-1,-1,-1,-1,13,-1,-1,-1],"loss_changes":[3.209209E1,7.842598E-1,2.7891407E0,0E0,6.8144894E-1,1.617871E0,1.00595E0,0E0,0E0,0E0,0E0,2.083332E0,0E0,0E0,0E0],"parents":[2147483647,0,0,1,1,2,2,4,4,5,5,6,6,11,11],"right_children":[2,4,6,-1,8,10,12,-1,-1,-1,-1,14,-1,-1,-1],"split_conditions":[2.8123736E-1,1.8749157E-1,5.156018E-1,-9.490337E-4,9.009347E-1,1E0,5.0604844E-1,-6.347541E-4,1.0990205E-3,4.7909703E-5,1.0990298E-3,1E0,9.513736E-4,6.6836335E-4,-6.2363927E-4],"split_indices":[2,2,2,0,1,5,1,0,0,0,0,6,0,0,0],"split_type":[0,0,0,0,0,0,0,0,0,0,0,0,0,0,0],"sum_hessian":[3.02E2,1.4E2,1.62E2,1.08E2,3.2E1,6.6E1,9.6E1,3.1E1,1E0,5.9E1,7E0,5.4E1,4.2E1,4.8E1,6E0],"tree_param":{"num_deleted":"0","num_feature":"12","num_nodes":"15","size_leaf_vector":"1"}},{"base_weights":[3.3322886E-2,-3.538455E-1,3.3522207E-1,-9.206525E-4,-3.5740912E-4,1.1346881E-1,9.160928E-4,1.287102E-4,1.0990296E-3],"categories":[],"categories_nodes":[],"categories_segments":[],"categories_sizes":[],"default_left":[0,0,0,0,0,0,0,0,0],"id":1,"left_children":[1,3,5,-1,-1,7,-1,-1,-1],"loss_changes":[3.4948864E1,2.1693306E0,4.0209923E0,0E0,0E0,1.1777339E0,0E0,0E0,0E0],"parents":[2147483647,0,0,1,1,2,2,5,5],"right_children":[2,4,6,-1,-1,8,-1,-1,-1],"split_conditions":[3.2811025E-1,1.8749157E-1,5.156018E-1,-9.206525E-4,-3.5740912E-4,1E0,9.160928E-4,1.287102E-4,1.0990296E-3],"split_indices":[2,2,2,0,0,6,0,0,0],"split_type":[0,0,0,0,0,0,0,0,0],"sum_hessian":[2.99E2,1.31E2,1.68E2,8.7E1,4.4E1,5.5E1,1.13E2,4.9E1,6E0],"tree_param":{"num_deleted":"0","num_feature":"12","num_nodes":"9","size_leaf_vector":"1"}},{"base_weights":[5.334857E-3,-2.8924486E-1,3.043779E-1,-9.681744E-4,-1.3501601E-1,2.0352562E-1,8.254305E-4,-8.5016005E-2,-7.9590676E-4,1.1988592E-1,1.0990306E-3,-4.3470194E-4,1.01069854E-4,1.7538614E-4,1.0990287E-3],"categories":[],"categories_nodes":[],"categories_segments":[],"categories_sizes":[],"default_left":[0,0,0,0,0,0,0,0,0,0,0,0,0,0,0],"id":2,"left_children":[1,3,5,-1,7,9,-1,11,-1,13,-1,-1,-1,-1,-1],"loss_changes":[2.3432478E1,3.7014914E0,1.2636194E0,0E0,8.9999866E-1,1.7564316E0,0E0,1.0064698E0,0E0,7.359172E-1,0E0,0E0,0E0,0E0,0E0],"parents":[2147483647,0,0,1,1,2,2,4,4,5,5,7,7,9,9],"right_children":[2,4,6,-1,8,10,-1,12,-1,14,-1,-1,-1,-1,-1],"split_conditions":[3.7498313E-1,1.4061868E-1,6.0934764E-1,-9.681744E-4,1E0,7.2107476E-1,8.254305E-4,2.3436446E-1,-7.9590676E-4,1E0,1.0990306E-3,-4.3470194E-4,1.01069854E-4,1.7538614E-4,1.0990287E-3],"split_indices":[2,2,2,0,6,1,0,2,0,5,0,0,0,0,0],"split_type":[0,0,0,0,0,0,0,0,0,0,0,0,0,0,0],"sum_hessian":[2.66E2,1.34E2,1.32E2,6.2E1,7.2E1,6.4E1,6.8E1,6E1,1.2E1,5.1E1,1.3E1,3.1E1,2.9E1,4.7E1,4E0],"tree_param":{"num_deleted":"0","num_feature":"12","num_nodes":"15","size_leaf_vector":"1"}},{"base_weights":[-1.0650725E-1,-3.9692077E-1,1.9165064E-1,-9.6817454E-4,-4.8436032E-4,9.600708E-2,3.8879344E-1,1.3433525E-4,7.231751E-4,8.7433495E-4,-2.79105E-4],"categories":[],"categories_nodes":[],"categories_segments":[],"categories_sizes":[],"default_left":[0,0,0,0,0,0,0,0,0,0,0],"id":3,"left_children":[1,3,5,-1,-1,7,9,-1,-1,-1,-1],"loss_changes":[2.6323082E1,1.7887535E0,2.8283162E0,0E0,0E0,7.953184E-1,8.7681055E-1,0E0,0E0,0E0,0E0],"parents":[2147483647,0,0,1,1,2,2,5,5,6,6],"right_children":[2,4,6,-1,-1,8,10,-1,-1,-1,-1],"split_conditions":[3.2811025E-1,1.8749157E-1,6.562205E-1,-9.6817454E-4,-4.8436032E-4,1E0,1E0,1.3433525E-4,7.231751E-4,8.7433495E-4,-2.79105E-4],"split_indices":[2,2,2,0,0,6,10,0,0,0,0],"split_type":[0,0,0,0,0,0,0,0,0,0,0],"sum_hessian":[3.04E2,1.54E2,1.5E2,1.07E2,4.7E1,1.01E2,4.9E1,9E1,1.1E1,4.6E1,3E0],"tree_param":{"num_deleted":"0","num_feature":"12","num_nodes":"11","size_leaf_vector":"1"}},{"base_weights":[-7.123744E-2,-3.3543795E-1,2.7954978E-1,-9.123041E-4,-1.7647864E-4,2.403885E-1,1.0990307E-3,2.5335618E-4,6.7858264E-4],"categories":[],"categories_nodes":[],"categories_segments":[],"categories_sizes":[],"default_left":[0,0,0,0,0,0,0,0,0],"id":4,"left_children":[1,3,5,-1,-1,7,-1,-1,-1],"loss_changes":[2.5671852E1,4.1835613E0,1.1748362E0,0E0,0E0,1.0664492E0,0E0,0E0,0E0],"parents":[2147483647,0,0,1,1,2,2,5,5],"right_children":[2,4,6,-1,-1,8,-1,-1,-1],"split_conditions":[3.7498313E-1,1.8749157E-1,7.875693E-1,-9.123041E-4,-1.7647864E-4,5.624747E-1,1.0990307E-3,2.5335618E-4,6.7858264E-4],"split_indices":[2,2,1,0,0,2,0,0,0],"split_type":[0,0,0,0,0,0,0,0,0],"sum_hessian":[2.77E2,1.58E2,1.19E2,1.11E2,4.7E1,1.03E2,1.6E1,4.4E1,5.9E1],"tree_param":{"num_deleted":"0","num_feature":"12","num_nodes":"9","size_leaf_vector":"1"}},{"base_weights":[3.3357132E-2,-3.857047E-1,3.2816225E-1,-9.237185E-4,-1.8263501E-1,1.21814564E-1,9.127966E-4,-6.086602E-4,3.3165E-1,4.2288937E-2,8.0371567E-4,-9.6816494E-4,1.0990287E-3,-3.3009965E-5,1.0990292E-3],"categories":[],"categories_nodes":[],"categories_segments":[],"categories_sizes":[],"default_left":[0,0,0,0,0,0,0,0,0,0,0,0,0,0,0],"id":5,"left_children":[1,3,5,-1,7,9,-1,-1,11,13,-1,-1,-1,-1,-1],"loss_changes":[3.619769E1,1.5022755E0,4.0247097E0,0E0,1.6099365E0,1.2951305E0,0E0,0E0,7.999961E-1,1.3399162E0,0E0,0E0,0E0,0E0,0E0],"parents":[2147483647,0,0,1,1,2,2,4,4,5,5,8,8,9,9],"right_children":[2,4,6,-1,8,10,-1,-1,12,14,-1,-1,-1,-1,-1],"split_conditions":[2.8123736E-1,1.8749157E-1,4.6872893E-1,-9.237185E-4,1E0,6.3896585E-1,9.127966E-4,-6.086602E-4,1.11186035E-1,1E0,8.0371567E-4,-9.6816494E-4,1.0990287E-3,-3.3009965E-5,1.0990292E-3],"split_indices":[2,2,2,0,8,1,0,0,1,3,0,0,0,0,0],"split_type":[0,0,0,0,0,0,0,0,0,0,0,0,0,0,0],"sum_hessian":[2.93E2,1.21E2,1.72E2,9.3E1,2.8E1,6.1E1,1.11E2,2.3E1,5E0,4.7E1,1.4E1,1E0,4E0,4.2E1,5E0],"tree_param":{"num_deleted":"0","num_feature":"12","num_nodes":"15","size_leaf_vector":"1"}},{"base_weights":[1.541688E-2],"categories":[],"categories_nodes":[],"categories_segments":[],"categories_sizes":[],"default_left":[0],"id":6,"left_children":[-1],"loss_changes":[0E0],"parents":[2147483647],"right_children":[-1],"split_conditions":[3.1869866E-5],"split_indices":[0],"split_type":[0],"sum_hessian":[3.08E2],"tree_param":{"num_deleted":"0","num_feature":"12","num_nodes":"1","size_leaf_vector":"1"}},{"base_weights":[1.6992666E-2,5.822296E-4,2.4410246E-3,-3.698645E-1,3.1152484E-1,-9.681745E-4,-4.5137302E-4,1.1498395E-1,7.6290034E-4,1.3002855E-4,1.0990287E-3],"categories":[],"categories_nodes":[],"categories_segments":[],"categories_sizes":[],"default_left":[0,0,0,0,0,0,0,0,0,0,0],"id":7,"left_children":[1,-1,3,5,7,-1,-1,9,-1,-1,-1],"loss_changes":[1.1823201E0,0E0,3.3486423E1,1.969696E0,1.7976313E0,0E0,0E0,7.8124726E-1,0E0,0E0,0E0],"parents":[2147483647,0,0,2,2,3,3,4,4,7,7],"right_children":[2,-1,4,6,8,-1,-1,10,-1,-1,-1],"split_conditions":[1.4820045E-1,5.822296E-4,3.2811025E-1,1.4061868E-1,4.2185605E-1,-9.681745E-4,-4.5137302E-4,8.015695E-1,7.6290034E-4,1.3002855E-4,1.0990287E-3],"split_indices":[1,0,2,2,2,0,0,1,0,0,0],"split_type":[0,0,0,0,0,0,0,0,0,0,0],"sum_hessian":[3.07E2,1.6E1,2.91E2,1.32E2,1.59E2,8E1,5.2E1,3.6E1,1.23E2,3.2E1,4E0],"tree_param":{"num_deleted":"0","num_feature":"12","num_nodes":"11","size_leaf_vector":"1"}},{"base_weights":[-1.3803898E-2,-4.1049808E-1,2.7710518E-1,-8.9434575E-4,-1.3501588E-1,1.2348736E-1,3.4199545E-1,1.3165039E-1,-9.681722E-4,1.7450775E-1,-3.7754377E-4,2.316506E-1,8.7978214E-4,-9.681697E-4,1.0990277E-3,-5.087949E-4,5.978904E-4,7.298872E-4,1.5939224E-4],"categories":[],"categories_nodes":[],"categories_segments":[],"categories_sizes":[],"default_left":[0,0,0,0,0,0,0,0,0,0,0,0,0,0,0,0,0,0,0],"id":8,"left_children":[1,3,5,-1,7,9,11,13,-1,15,-1,17,-1,-1,-1,-1,-1,-1,-1],"loss_changes":[3.300496E1,7.378979E-1,1.6447706E0,0E0,7.9999787E-1,7.6530564E-1,1.0700102E0,1.1999952E0,0E0,2.0266945E0,0E0,9.3831086E-1,0E0,0E0,0E0,0E0,0E0,0E0,0E0],"parents":[2147483647,0,0,1,1,2,2,4,4,5,5,6,6,7,7,9,9,11,11],"right_children":[2,4,6,-1,8,10,12,14,-1,16,-1,18,-1,-1,-1,-1,-1,-1,-1],"split_conditions":[2.8123736E-1,8.819215E-1,4.0336952E-1,-8.9434575E-4,9.9074274E-1,1E0,5.624747E-1,1.4061868E-1,-9.681722E-4,3.7498313E-1,-3.7754377E-4,1E0,8.7978214E-4,-9.681697E-4,1.0990277E-3,-5.087949E-4,5.978904E-4,7.298872E-4,1.5939224E-4],"split_indices":[2,1,1,0,1,5,2,2,0,2,0,11,0,0,0,0,0,0,0],"split_type":[0,0,0,0,0,0,0,0,0,0,0,0,0,0,0,0,0,0,0],"sum_hessian":[2.86E2,1.21E2,1.65E2,1.12E2,9E0,4.9E1,1.16E2,5E0,4E0,4.2E1,7E0,5E1,6.6E1,2E0,3E0,9E0,3.3E1,2.8E1,2.2E1],"tree_param":{"num_deleted":"0","num_feature":"12","num_nodes":"19","size_leaf_vector":"1"}},{"base_weights":[8.843629E-3,-3.498308E-1,3.3165064E-1,2.8164995E-1,-3.691127E-1,1.9831727E-1,8.2758005E-4,-9.6816494E-4,1.0990277E-3,-9.681745E-4,-5.2027986E-4,1.0990296E-3,1.5387283E-1,1.9794155E-4,1.0990296E-3],"categories":[],"categories_nodes":[],"categories_segments":[],"categories_sizes":[],"default_left":[0,0,0,0,0,0,0,0,0,0,0,0,0,0,0],"id":9,"left_children":[1,3,5,7,9,11,-1,-1,-1,-1,-1,-1,13,-1,-1],"loss_changes":[3.299805E1,1.6437798E0,1.3737373E0,7.499958E-1,1.5265903E0,7.5555277E-1,0E0,0E0,0E0,0E0,0E0,0E0,9.880316E-1,0E0,0E0],"parents":[2147483647,0,0,1,1,2,2,3,3,4,4,5,5,12,12],"right_children":[2,4,6,8,10,12,-1,-1,-1,-1,-1,-1,14,-1,-1],"split_conditions":[3.2811025E-1,3.4238912E-2,5.156018E-1,1.5946066E-1,1.4061868E-1,2.1373187E-1,8.2758005E-4,-9.6816494E-4,1.0990277E-3,-9.681745E-4,-5.2027986E-4,1.0990296E-3,1E0,1.9794155E-4,1.0990296E-3],"split_indices":[2,1,2,0,2,1,0,0,0,0,0,0,3,0,0],"split_type":[0,0,0,0,0,0,0,0,0,0,0,0,0,0,0],"sum_hessian":[2.85E2,1.35E2,1.5E2,4E0,1.31E2,5.1E1,9.9E1,1E0,3E0,7.1E1,6E1,6E0,4.5E1,3.9E1,6E0],"tree_param":{"num_deleted":"0","num_feature":"12","num_nodes":"15","size_leaf_vector":"1"}},{"base_weights":[-3.9317094E-2,-3.2717288E-1,3.1022206E-1,-9.49551E-4,-7.851884E-2,3.4465876E-1,6.1062377E-2,-1.35016E-1,5.822292E-4,4.0996264E-4,9.267641E-4,-1.6834919E-1,8.0371514E-4,-3.9127978E-4,3.2382875E-4,1.0990258E-3,-7.097729E-4],"categories":[],"categories_nodes":[],"categories_segments":[],"categories_sizes":[],"default_left":[0,0,0,0,0,0,0,0,0,0,0,0,0,0,0,0,0],"id":10,"left_children":[1,3,5,-1,7,9,11,13,-1,-1,-1,15,-1,-1,-1,-1,-1],"loss_changes":[3.1191233E1,5.586872E0,1.2012339E0,0E0,1.2005641E0,1.8658524E0,1.2781496E0,8.071701E-1,0E0,0E0,0E0,1.2249963E0,0E0,0E0,0E0,0E0,0E0],"parents":[2147483647,0,0,1,1,2,2,4,4,5,5,6,6,7,7,11,11],"right_children":[2,4,6,-1,8,10,12,14,-1,-1,-1,16,-1,-1,-1,-1,-1],"split_conditions":[3.7498313E-1,2.3436446E-1,1E0,-9.49551E-4,1E0,5.624747E-1,6.562205E-1,1E0,5.822292E-4,4.0996264E-4,9.267641E-4,4.2185605E-1,8.0371514E-4,-3.9127978E-4,3.2382875E-4,1.0990258E-3,-7.097729E-4],"split_indices":[2,2,9,0,9,2,2,7,0,0,0,2,0,0,0,0,0],"split_type":[0,0,0,0,0,0,0,0,0,0,0,0,0,0,0,0,0],"sum_hessian":[3.1E2,1.7E2,1.4E2,1.11E2,5.9E1,1.23E2,1.7E1,5.1E1,8E0,5.1E1,7.2E1,1E1,7E0,4.3E1,8E0,2E0,8E0],"tree_param":{"num_deleted":"0","num_feature":"12","num_nodes":"17","size_leaf_vector":"1"}},{"base_weights":[-5.049221E-2,-3.595058E-1,2.9104912E-1,-9.681745E-4,-4.2595656E-4,3.5621202E-1,-9.992825E-2,1.4276168E-1,8.1909716E-4,-5.252015E-4,6.855888E-4,-9.681697E-4,4.5302924E-4],"categories":[],"categories_nodes":[],"categories_segments":[],"categories_sizes":[],"default_left":[0,0,0,0,0,0,0,0,0,0,0,0,0],"id":11,"left_children":[1,3,5,-1,-1,7,9,11,-1,-1,-1,-1,-1],"loss_changes":[2.9551456E1,2.455225E0,3.3884726E0,0E0,0E0,9.7386646E-1,1.2639083E0,8.402754E-1,0E0,0E0,0E0,0E0,0E0],"parents":[2147483647,0,0,1,1,2,2,5,5,6,6,7,7],"right_children":[2,4,6,-1,-1,8,10,12,-1,-1,-1,-1,-1],"split_conditions":[3.2811025E-1,1.4061868E-1,1E0,-9.681745E-4,-4.2595656E-4,4.2185605E-1,7.030934E-1,1.9727957E-1,8.1909716E-4,-5.252015E-4,6.855888E-4,-9.681697E-4,4.5302924E-4],"split_indices":[2,2,10,0,0,2,2,1,0,0,0,0,0],"split_type":[0,0,0,0,0,0,0,0,0,0,0,0,0],"sum_hessian":[2.8E2,1.47E2,1.33E2,8.6E1,6.1E1,1.14E2,1.9E1,1.8E1,9.6E1,1.4E1,5E0,2E0,1.6E1],"tree_param":{"num_deleted":"0","num_feature":"12","num_nodes":"13","size_leaf_vector":"1"}},{"base_weights":[4.9133163E-2,-2.9187876E-1,3.583173E-1,-8.9606264E-4,-4.8349347E-2,8.720617E-2,4.1782948E-1,-9.681727E-4,-1.6826864E-3,1.0990287E-3,9.911512E-3,1.0568433E-3,3.5597494E-1,-1.4129216E-4,1.0990292E-3,4.099624E-4,-4.0439077E-4,-9.6816494E-4,7.592166E-4],"categories":[],"categories_nodes":[],"categories_segments":[],"categories_sizes":[],"default_left":[0,0,0,0,0,0,0,0,0,0,0,0,0,0,0,0,0,0,0],"id":12,"left_children":[1,3,5,-1,7,9,11,-1,13,-1,15,-1,17,-1,-1,-1,-1,-1,-1],"loss_changes":[3.0154547E1,4.689357E0,2.420164E0,0E0,9.7999793E-1,9.2753357E-1,7.1069336E-1,0E0,1.5999973E0,0E0,8.906449E-1,0E0,6.88817E-1,0E0,0E0,0E0,0E0,0E0,0E0],"parents":[2147483647,0,0,1,1,2,2,4,4,5,5,6,6,8,8,10,10,12,12],"right_children":[2,4,6,-1,8,10,12,-1,14,-1,16,-1,18,-1,-1,-1,-1,-1,-1],"split_conditions":[3.2811025E-1,1.8749157E-1,4.2185605E-1,-8.9606264E-4,2.7161184E-1,2.7161184E-1,4.5790854E-1,-9.681727E-4,1E0,1.0990287E-3,4.103081E-1,1.0568433E-3,4.6380314E-1,-1.4129216E-4,1.0990292E-3,4.099624E-4,-4.0439077E-4,-9.6816494E-4,7.592166E-4],"split_indices":[2,2,2,0,0,0,1,0,5,0,1,0,1,0,0,0,0,0,0],"split_type":[0,0,0,0,0,0,0,0,0,0,0,0,0,0,0,0,0,0,0],"sum_hessian":[2.86E2,1.36E2,1.5E2,8.6E1,5E1,2.7E1,1.23E2,5E0,4.5E1,4E0,2.3E1,4.9E1,7.4E1,4E1,5E0,1.2E1,1.1E1,1E0,7.3E1],"tree_param":{"num_deleted":"0","num_feature":"12","num_nodes":"19","size_leaf_vector":"1"}},{"base_weights":[5.031056E-4,-2.742317E-1,7.162154E-4,-9.014904E-4,-7.873896E-2,-3.963941E-4,9.831728E-2,5.8222946E-4,-4.9416347E-5],"categories":[],"categories_nodes":[],"categories_segments":[],"categories_sizes":[],"default_left":[0,0,0,0,0,0,0,0,0],"id":13,"left_children":[1,3,-1,-1,5,-1,7,-1,-1],"loss_changes":[2.8989609E1,5.379203E0,0E0,0E0,1.5407658E0,0E0,6.722216E-1,0E0,0E0],"parents":[2147483647,0,0,1,1,4,4,6,6],"right_children":[2,4,-1,-1,6,-1,8,-1,-1],"split_conditions":[3.7498313E-1,1.8749157E-1,7.162154E-4,-9.014904E-4,5.2635086E-1,-3.963941E-4,4.9591413E-1,5.8222946E-4,-4.9416347E-5],"split_indices":[2,2,0,0,1,0,0,0,0],"split_type":[0,0,0,0,0,0,0,0,0],"sum_hessian":[3.05E2,1.7E2,1.35E2,9.3E1,7.7E1,4.7E1,3E1,1.2E1,1.8E1],"tree_param":{"num_deleted":"0","num_feature":"12","num_nodes":"9","size_leaf_vector":"1"}},{"base_weights":[-5.8513287E-2,-3.0689102E-1,7.5144804E-4,-8.8345294E-4,-9.692077E-2,-1.6189772E-1,4.0665016E-1,-4.2417296E-4,6.855888E-4,-9.6816494E-4,1.0990298E-3],"categories":[],"categories_nodes":[],"categories_segments":[],"categories_sizes":[],"default_left":[0,0,0,0,0,0,0,0,0,0,0],"id":14,"left_children":[1,3,-1,-1,5,7,9,-1,-1,-1,-1],"loss_changes":[3.1970388E1,4.8568535E0,0E0,0E0,2.2904363E0,1.3247865E0,8.7499666E-1,0E0,0E0,0E0,0E0],"parents":[2147483647,0,0,1,1,4,4,5,5,6,6],"right_children":[2,4,-1,-1,6,8,10,-1,-1,-1,-1],"split_conditions":[4.2185605E-1,2.3436446E-1,7.5144804E-4,-8.8345294E-4,1E0,1E0,2.8123736E-1,-4.2417296E-4,6.855888E-4,-9.6816494E-4,1.0990298E-3],"split_indices":[2,2,0,0,10,4,2,0,0,0,0],"split_type":[0,0,0,0,0,0,0,0,0,0,0],"sum_hessian":[3.05E2,1.92E2,1.13E2,1.22E2,7E1,6.2E1,8E0,5.7E1,5E0,1E0,7E0],"tree_param":{"num_deleted":"0","num_feature":"12","num_nodes":"11","size_leaf_vector":"1"}},{"base_weights":[-2.0636935E-2,-3.7624407E-1,3.3035192E-1,-9.4790774E-4,-4.3070095E-4,2.7741334E-1,1.0416087E-3,3.0735156E-1,-1.3803887E-2,8.0371613E-4,4.504961E-4,-2.7910562E-4,1.0990258E-3],"categories":[],"categories_nodes":[],"categories_segments":[],"categories_sizes":[],"default_left":[0,0,0,0,0,0,0,0,0,0,0,0,0],"id":15,"left_children":[1,3,5,-1,-1,7,-1,9,11,-1,-1,-1,-1],"loss_changes":[3.819313E1,2.1003284E0,1.4146347E0,0E0,0E0,1.0287867E0,0E0,7.7928543E-1,7.272698E-1,0E0,0E0,0E0,0E0],"parents":[2147483647,0,0,1,1,2,2,5,5,7,7,8,8],"right_children":[2,4,6,-1,-1,8,-1,10,12,-1,-1,-1,-1],"split_conditions":[3.2811025E-1,1.8749157E-1,7.968392E-1,-9.4790774E-4,-4.3070095E-4,1E0,1.0416087E-3,4.8290476E-1,7.2107476E-1,8.0371613E-4,4.504961E-4,-2.7910562E-4,1.0990258E-3],"split_indices":[2,2,2,0,0,10,0,1,1,0,0,0,0],"split_type":[0,0,0,0,0,0,0,0,0,0,0,0,0],"sum_hessian":[3.06E2,1.52E2,1.54E2,1.02E2,5E1,1.18E2,3.6E1,1.07E2,1.1E1,5.6E1,5.1E1,9E0,2E0],"tree_param":{"num_deleted":"0","num_feature":"12","num_nodes":"13","size_leaf_vector":"1"}},{"base_weights":[3.3311777E-2,-3.8214242E-1,2.938128E-1,-9.681745E-4,-8.373394E-2,5.2483972E-2,3.7836596E-1,-1.3803893E-2,-9.681722E-4,2.1308594E-4,-6.2363927E-4,5.305496E-4,8.8591734E-4,-2.7910576E-4,1.0990287E-3],"categories":[],"categories_nodes":[],"categories_segments":[],"categories_sizes":[],"default_left":[0,0,0,0,0,0,0,0,0,0,0,0,0,0,0],"id":16,"left_children":[1,3,5,-1,7,9,11,13,-1,-1,-1,-1,-1,-1,-1],"loss_changes":[3.2576103E1,2.9840832E0,3.7749453E0,0E0,6.992986E-1,8.601181E-1,8.369503E-1,1.4545426E0,0E0,0E0,0E0,0E0,0E0,0E0,0E0],"parents":[2147483647,0,0,1,1,2,2,4,4,5,5,6,6,7,7],"right_children":[2,4,6,-1,8,10,12,14,-1,-1,-1,-1,-1,-1,-1],"split_conditions":[2.8123736E-1,1.8749157E-1,4.2185605E-1,-9.681745E-4,8.015695E-1,1E0,5.624747E-1,7.3094946E-1,-9.681722E-4,2.1308594E-4,-6.2363927E-4,5.305496E-4,8.8591734E-4,-2.7910576E-4,1.0990287E-3],"split_indices":[2,2,2,0,1,10,2,1,0,0,0,0,0,0,0],"split_type":[0,0,0,0,0,0,0,0,0,0,0,0,0,0,0],"sum_hessian":[3.01E2,1.16E2,1.85E2,9E1,2.6E1,4.8E1,1.37E2,2.2E1,4E0,4.2E1,6E0,4E1,9.7E1,1.8E1,4E0],"tree_param":{"num_deleted":"0","num_feature":"12","num_nodes":"15","size_leaf_vector":"1"}},{"base_weights":[9.638068E-3,-8.78296E-4,2.5578856E-1,1.3793502E-2,3.4797716E-1,-3.69768E-2,1.0990292E-3,5.8222987E-4,8.661067E-4,4.2459444E-5,-9.6817303E-4],"categories":[],"categories_nodes":[],"categories_segments":[],"categories_sizes":[],"default_left":[0,0,0,0,0,0,0,0,0,0,0],"id":17,"left_children":[1,-1,3,5,7,9,-1,-1,-1,-1,-1],"loss_changes":[3.4011578E1,0E0,4.528764E0,1.4723363E0,6.922245E-1,1.2653575E0,0E0,0E0,0E0,0E0,0E0],"parents":[2147483647,0,0,2,2,3,3,4,4,5,5],"right_children":[2,-1,4,6,8,10,-1,-1,-1,-1,-1],"split_conditions":[2.3436446E-1,-8.78296E-4,4.2185605E-1,1E0,6.562205E-1,8.279318E-1,1.0990292E-3,5.8222987E-4,8.661067E-4,4.2459444E-5,-9.6817303E-4],"split_indices":[2,0,2,7,2,1,0,0,0,0,0],"split_type":[0,0,0,0,0,0,0,0,0,0,0],"sum_hessian":[3.18E2,1.15E2,2.03E2,5.6E1,1.47E2,5.1E1,5E0,7.6E1,7.1E1,4.5E1,6E0],"tree_param":{"num_deleted":"0","num_feature":"12","num_nodes":"11","size_leaf_vector":"1"}},{"base_weights":[2.6074437E-2,2.6989344E-4,2.3165058E-1,-2.578229E-1,2.2559738E-2,-3.5723785E-1,1.0005926E-3,-9.681737E-4,6.542832E-5,-2.649595E-1,3.5518003E-1,1.0990205E-3,-9.681734E-4,-8.321741E-4,-3.3009965E-5,3.2382907E-4,9.2184223E-4],"categories":[],"categories_nodes":[],"categories_segments":[],"categories_sizes":[],"default_left":[0,0,0,0,0,0,0,0,0,0,0,0,0,0,0,0,0],"id":18,"left_children":[1,3,5,7,9,11,-1,-1,-1,13,15,-1,-1,-1,-1,-1,-1],"loss_changes":[1.4269909E0,1.3749309E0,4.458727E0,1.1578935E0,2.1039644E1,8.8888526E-1,0E0,0E0,0E0,4.0428295E0,1.8378134E0,0E0,0E0,0E0,0E0,0E0,0E0],"parents":[2147483647,0,0,1,1,2,2,3,3,4,4,5,5,9,9,10,10],"right_children":[2,4,6,8,10,12,-1,-1,-1,14,16,-1,-1,-1,-1,-1,-1],"split_conditions":[1E0,2.7161184E-1,2.3436446E-1,3.7498313E-1,4.2185605E-1,4.2829838E-1,1.0005926E-3,-9.681737E-4,6.542832E-5,2.3436446E-1,5.624747E-1,1.0990205E-3,-9.681734E-4,-8.321741E-4,-3.3009965E-5,3.2382907E-4,9.2184223E-4],"split_indices":[3,0,2,2,2,1,0,0,0,2,2,0,0,0,0,0,0],"split_type":[0,0,0,0,0,0,0,0,0,0,0,0,0,0,0,0,0],"sum_hessian":[2.69E2,2.39E2,3E1,1.9E1,2.2E2,9E0,2.1E1,1.1E1,8E0,1.18E2,1.02E2,1E0,8E0,7.6E1,4.2E1,3.2E1,7E1],"tree_param":{"num_deleted":"0","num_feature":"12","num_nodes":"17","size_leaf_vector":"1"}},{"base_weights":[-1.5646651E-2,-8.399757E-4,2.8614166E-1,8.267104E-2,3.706337E-1,1.7870942E-1,-2.7910573E-4,7.809996E-4,-9.6816494E-4,-1.40795055E-5,6.0683925E-4],"categories":[],"categories_nodes":[],"categories_segments":[],"categories_sizes":[],"default_left":[0,0,0,0,0,0,0,0,0,0,0],"id":19,"left_children":[1,-1,3,5,7,9,-1,-1,-1,-1,-1],"loss_changes":[3.489983E1,0E0,2.871004E0,1.0244094E0,7.099056E-1,7.2441244E-1,0E0,0E0,0E0,0E0,0E0],"parents":[2147483647,0,0,2,2,3,3,4,4,5,5],"right_children":[2,-1,4,6,8,10,-1,-1,-1,-1,-1],"split_conditions":[2.8123736E-1,-8.399757E-4,4.6872893E-1,5.611271E-1,1E0,3.4099448E-1,-2.7910573E-4,7.809996E-4,-9.6816494E-4,-1.40795055E-5,6.0683925E-4],"split_indices":[2,0,2,1,0,1,0,0,0,0,0],"split_type":[0,0,0,0,0,0,0,0,0,0,0],"sum_hessian":[2.96E2,1.29E2,1.67E2,4.9E1,1.18E2,3.4E1,1.5E1,1.17E2,1E0,1.3E1,2.1E1],"tree_param":{"num_deleted":"0","num_feature":"12","num_nodes":"11","size_leaf_vector":"1"}},{"base_weights":[-3.253854E-2,-8.848195E-4,2.5258088E-1,2.0107213E-1,3.7478784E-1,-8.8512454E-5,3.5597494E-1,1.7870937E-1,9.774307E-4,8.4460597E-4,-4.9416314E-5,5.477761E-4,-9.681697E-4],"categories":[],"categories_nodes":[],"categories_segments":[],"categories_sizes":[],"default_left":[0,0,0,0,0,0,0,0,0,0,0,0,0],"id":20,"left_children":[1,-1,3,5,7,-1,9,11,-1,-1,-1,-1,-1],"loss_changes":[3.3377365E1,0E0,1.0826931E0,4.5712805E0,9.80391E-1,0E0,1.4786091E0,9.4901717E-1,0E0,0E0,0E0,0E0,0E0],"parents":[2147483647,0,0,2,2,3,3,4,4,6,6,7,7],"right_children":[2,-1,4,6,8,-1,10,12,-1,-1,-1,-1,-1],"split_conditions":[2.3436446E-1,-8.848195E-4,6.410719E-1,4.2185605E-1,4.6872893E-1,-8.8512454E-5,5.4519725E-1,8.43206E-1,9.774307E-4,8.4460597E-4,-4.9416314E-5,5.477761E-4,-9.681697E-4],"split_indices":[2,0,1,2,2,0,1,1,0,0,0,0,0],"split_type":[0,0,0,0,0,0,0,0,0,0,0,0,0],"sum_hessian":[2.96E2,1.24E2,1.72E2,1.21E2,5.1E1,4.7E1,7.4E1,1.7E1,3.4E1,6.5E1,9E0,1.5E1,2E0],"tree_param":{"num_deleted":"0","num_feature":"12","num_nodes":"13","size_leaf_vector":"1"}},{"base_weights":[-3.9530685E-3,-4.2289478E-1,2.8557733E-1,-9.5050613E-4,-2.7910573E-4,1.4623398E-1,8.814307E-4,2.4132803E-1,-2.7172877E-2,4.099627E-4,1.09903E-3,6.542839E-5,-9.681722E-4],"categories":[],"categories_nodes":[],"categories_segments":[],"categories_sizes":[],"default_left":[0,0,0,0,0,0,0,0,0,0,0,0,0],"id":21,"left_children":[1,3,5,-1,-1,7,-1,9,11,-1,-1,-1,-1],"loss_changes":[3.9178726E1,1.4024868E0,3.7476034E0,0E0,0E0,1.5830364E0,0E0,7.7419114E-1,8.823508E-1,0E0,0E0,0E0,0E0],"parents":[2147483647,0,0,1,1,2,2,5,5,7,7,8,8],"right_children":[2,4,6,-1,-1,8,-1,10,12,-1,-1,-1,-1],"split_conditions":[2.8123736E-1,2.3436446E-1,5.624747E-1,-9.5050613E-4,-2.7910573E-4,6.0422087E-1,8.814307E-4,1E0,9.5746696E-1,4.099627E-4,1.09903E-3,6.542839E-5,-9.681722E-4],"split_indices":[2,2,2,0,0,1,0,6,1,0,0,0,0],"split_type":[0,0,0,0,0,0,0,0,0,0,0,0,0],"sum_hessian":[3.23E2,1.32E2,1.91E2,1.17E2,1.5E1,9.6E1,9.5E1,6.2E1,3.4E1,5.4E1,8E0,3E1,4E0],"tree_param":{"num_deleted":"0","num_feature":"12","num_nodes":"13","size_leaf_vector":"1"}},{"base_weights":[2.8545057E-2,4.0665016E-1,1.8911794E-2,-9.6816494E-4,1.0990298E-3,-3.0051481E-2,1.6456202E-1,-6.992697E-4,6.376014E-4,-7.8841724E-4,3.8879344E-1,5.424757E-4,1.0301241E-3],"categories":[],"categories_nodes":[],"categories_segments":[],"categories_sizes":[],"default_left":[0,0,0,0,0,0,0,0,0,0,0,0,0],"id":22,"left_children":[1,3,5,-1,-1,7,9,-1,-1,-1,11,-1,-1],"loss_changes":[1.1728483E0,8.7499666E-1,2.2392948E0,0E0,0E0,2.4516977E1,9.671198E0,0E0,0E0,0E0,7.750912E-1,0E0,0E0],"parents":[2147483647,0,0,1,1,2,2,5,5,6,6,10,10],"right_children":[2,4,6,-1,-1,8,10,-1,-1,-1,12,-1,-1],"split_conditions":[2.0933054E-2,1.4061868E-1,7.2021645E-1,-9.6816494E-4,1.0990298E-3,3.7498313E-1,2.8123736E-1,-6.992697E-4,6.376014E-4,-7.8841724E-4,5.156018E-1,5.424757E-4,1.0301241E-3],"split_indices":[1,2,0,0,0,2,2,0,0,0,2,0,0],"split_type":[0,0,0,0,0,0,0,0,0,0,0,0,0],"sum_hessian":[3.22E2,8E0,3.14E2,1E0,7E0,2.35E2,7.9E1,1.23E2,1.12E2,2.3E1,5.6E1,2.6E1,3E1],"tree_param":{"num_deleted":"0","num_feature":"12","num_nodes":"13","size_leaf_vector":"1"}},{"base_weights":[-1.902503E-2,-3.5650724E-1,3.3720618E-1,-9.681745E-4,-3.6226932E-4,1.8619607E-1,8.89988E-4,-5.087949E-4,2.7078104E-1,6.542835E-5,7.3423015E-4],"categories":[],"categories_nodes":[],"categories_segments":[],"categories_sizes":[],"default_left":[0,0,0,0,0,0,0,0,0,0,0],"id":23,"left_children":[1,3,5,-1,-1,7,-1,-1,9,-1,-1],"loss_changes":[3.5585625E1,3.0814419E0,2.0293045E0,0E0,0E0,2.011242E0,0E0,0E0,9.283881E-1,0E0,0E0],"parents":[2147483647,0,0,1,1,2,2,5,5,8,8],"right_children":[2,4,6,-1,-1,8,-1,-1,10,-1,-1],"split_conditions":[3.2811025E-1,1.8749157E-1,5.624747E-1,-9.681745E-4,-3.6226932E-4,2.5100005E-1,8.89988E-4,-5.087949E-4,3.83763E-1,6.542835E-5,7.3423015E-4],"split_indices":[2,2,2,0,0,1,0,0,0,0,0],"split_type":[0,0,0,0,0,0,0,0,0,0,0],"sum_hessian":[2.96E2,1.52E2,1.44E2,9.4E1,5.8E1,5.5E1,8.9E1,9E0,4.6E1,1.2E1,3.4E1],"tree_param":{"num_deleted":"0","num_feature":"12","num_nodes":"11","size_leaf_vector":"1"}},{"base_weights":[9.64726E-4,-3.265583E-1,3.078744E-1,-9.681745E-4,-3.6391433E-4,1.5876926E-1,8.5293537E-4,8.7206185E-2,8.0371567E-4,1.0990287E-3,9.063821E-5],"categories":[],"categories_nodes":[],"categories_segments":[],"categories_sizes":[],"default_left":[0,0,0,0,0,0,0,0,0,0,0],"id":24,"left_children":[1,3,5,-1,-1,7,-1,9,-1,-1,-1],"loss_changes":[2.7844038E1,2.8598146E0,2.2330275E0,0E0,0E0,9.7121227E-1,0E0,8.67206E-1,0E0,0E0,0E0],"parents":[2147483647,0,0,1,1,2,2,5,5,7,7],"right_children":[2,4,6,-1,-1,8,-1,10,-1,-1,-1],"split_conditions":[3.2811025E-1,1.4061868E-1,5.624747E-1,-9.681745E-4,-3.6391433E-4,7.2107476E-1,8.5293537E-4,1.4820045E-1,8.0371567E-4,1.0990287E-3,9.063821E-5],"split_indices":[2,2,2,0,0,1,0,1,0,0,0],"split_type":[0,0,0,0,0,0,0,0,0,0,0],"sum_hessian":[2.77E2,1.34E2,1.43E2,6.9E1,6.5E1,5.9E1,8.4E1,4.5E1,1.4E1,4E0,4.1E1],"tree_param":{"num_deleted":"0","num_feature":"12","num_nodes":"11","size_leaf_vector":"1"}},{"base_weights":[-1.5387681E-2,-3.5207027E-1,2.5949875E-1,-9.681745E-4,-1.8533045E-1,2.1308592E-4,3.0400836E-1,-3.3198556E-1,-8.125255E-2,9.047415E-2,7.970799E-4,4.099614E-4,-8.5937383E-4,1.0990277E-3,-3.0371544E-4,4.4128383E-4,-2.7910568E-4],"categories":[],"categories_nodes":[],"categories_segments":[],"categories_sizes":[],"default_left":[0,0,0,0,0,0,0,0,0,0,0,0,0,0,0,0,0],"id":25,"left_children":[1,3,5,-1,7,-1,9,11,13,15,-1,-1,-1,-1,-1,-1,-1],"loss_changes":[2.6561697E1,2.5010986E0,1.1000233E0,0E0,8.0896866E-1,0E0,2.14254E0,9.768729E-1,1.247693E0,9.4295853E-1,0E0,0E0,0E0,0E0,0E0,0E0,0E0],"parents":[2147483647,0,0,1,1,2,2,4,4,6,6,7,7,8,8,9,9],"right_children":[2,4,6,-1,8,-1,10,12,14,16,-1,-1,-1,-1,-1,-1,-1],"split_conditions":[2.8123736E-1,1.4061868E-1,3.281602E-1,-9.681745E-4,5.285867E-1,2.1308592E-4,4.6872893E-1,7.95321E-2,2.7161184E-1,6.080653E-1,7.970799E-4,4.099614E-4,-8.5937383E-4,1.0990277E-3,-3.0371544E-4,4.4128383E-4,-2.7910568E-4],"split_indices":[2,2,1,0,1,0,2,1,0,0,0,0,0,0,0,0,0],"split_type":[0,0,0,0,0,0,0,0,0,0,0,0,0,0,0,0,0],"sum_hessian":[2.87E2,1.29E2,1.58E2,7.6E1,5.3E1,3.5E1,1.23E2,2.2E1,3.1E1,3.4E1,8.9E1,3E0,1.9E1,3E0,2.8E1,2.2E1,1.2E1],"tree_param":{"num_deleted":"0","num_feature":"12","num_nodes":"17","size_leaf_vector":"1"}},{"base_weights":[3.5122868E-2,-8.8710757E-4,2.8971514E-1,3.1213844E-1,1.2255969E-1,1.3439035E-1,9.400155E-4,1.0990298E-3,-6.834931E-2,1.9071359E-4,1.0990298E-3,-5.547328E-4,6.855888E-4],"categories":[],"categories_nodes":[],"categories_segments":[],"categories_sizes":[],"default_left":[0,0,0,0,0,0,0,0,0,0,0,0,0],"id":26,"left_children":[1,-1,3,5,7,9,-1,-1,11,-1,-1,-1,-1],"loss_changes":[3.4040485E1,0E0,6.9715977E-1,4.1565695E0,1.7181792E0,1.2218736E0,0E0,0E0,1.1999984E0,0E0,0E0,0E0,0E0],"parents":[2147483647,0,0,2,2,3,3,4,4,5,5,8,8],"right_children":[2,-1,4,6,8,10,-1,-1,12,-1,-1,-1,-1],"split_conditions":[2.3436446E-1,-8.8710757E-4,1E0,5.624747E-1,1E0,8.323676E-1,9.400155E-4,1.0990298E-3,6.562205E-1,1.9071359E-4,1.0990298E-3,-5.547328E-4,6.855888E-4],"split_indices":[2,0,8,2,11,0,0,0,2,0,0,0,0],"split_type":[0,0,0,0,0,0,0,0,0,0,0,0,0],"sum_hessian":[2.88E2,1.02E2,1.86E2,1.64E2,2.2E1,7.3E1,9.1E1,7E0,1.5E1,6.6E1,7E0,1E1,5E0],"tree_param":{"num_deleted":"0","num_feature":"12","num_nodes":"13","size_leaf_vector":"1"}},{"base_weights":[3.6805287E-2,-3.112065E-1,3.594652E-1,-8.8113424E-4,-6.834934E-2,1.1498394E-1,8.3859597E-4,-7.384842E-4,3.872868E-3,1.0990296E-3,-2.3904897E-2,-9.6817303E-4,2.0324207E-4,1.0990258E-3,-1.9297223E-4],"categories":[],"categories_nodes":[],"categories_segments":[],"categories_sizes":[],"default_left":[0,0,0,0,0,0,0,0,0,0,0,0,0,0,0],"id":27,"left_children":[1,3,5,-1,7,9,-1,-1,11,-1,13,-1,-1,-1,-1],"loss_changes":[3.267623E1,3.9112778E0,1.7055969E0,0E0,9.388878E-1,1.3888862E0,0E0,0E0,1.6055534E0,0E0,6.944417E-1,0E0,0E0,0E0,0E0],"parents":[2147483647,0,0,1,1,2,2,4,4,5,5,8,8,10,10],"right_children":[2,4,6,-1,8,10,-1,-1,12,-1,14,-1,-1,-1,-1],"split_conditions":[3.7498313E-1,2.3436446E-1,4.6872893E-1,-8.8113424E-4,3.281602E-1,3.83763E-1,8.3859597E-4,-7.384842E-4,2.7161184E-1,1.0990296E-3,1.8733111E-1,-9.6817303E-4,2.0324207E-4,1.0990258E-3,-1.9297223E-4],"split_indices":[2,2,2,0,1,0,0,0,0,0,1,0,0,0,0],"split_type":[0,0,0,0,0,0,0,0,0,0,0,0,0,0,0],"sum_hessian":[2.91E2,1.4E2,1.51E2,9.5E1,4.5E1,2.4E1,1.27E2,9E0,3.6E1,6E0,1.8E1,6E0,3E1,2E0,1.6E1],"tree_param":{"num_deleted":"0","num_feature":"12","num_nodes":"15","size_leaf_vector":"1"}},{"base_weights":[-6.0205865E-3,-3.7205303E-1,3.087207E-1,-9.272397E-4,-2.9937256E-4,1.5502726E-1,9.439909E-4,1.1374018E-1,4.3165022E-1,4.375254E-4,-3.6017262E-4,-9.6816494E-4,1.0990301E-3],"categories":[],"categories_nodes":[],"categories_segments":[],"categories_sizes":[],"default_left":[0,0,0,0,0,0,0,0,0,0,0,0,0],"id":28,"left_children":[1,3,5,-1,-1,7,-1,9,11,-1,-1,-1,-1],"loss_changes":[3.364001E1,2.3465767E0,3.5695305E0,0E0,0E0,8.79413E-1,0E0,1.8890953E0,8.999969E-1,0E0,0E0,0E0,0E0],"parents":[2147483647,0,0,1,1,2,2,5,5,7,7,8,8],"right_children":[2,4,6,-1,-1,8,-1,10,12,-1,-1,-1,-1],"split_conditions":[2.8123736E-1,1.8749157E-1,5.624747E-1,-9.272397E-4,-2.9937256E-4,7.9223305E-1,9.439909E-4,4.9965042E-1,3.2811025E-1,4.375254E-4,-3.6017262E-4,-9.6816494E-4,1.0990301E-3],"split_indices":[2,2,2,0,0,1,0,1,2,0,0,0,0],"split_type":[0,0,0,0,0,0,0,0,0,0,0,0,0],"sum_hessian":[2.92E2,1.35E2,1.57E2,1.01E2,3.4E1,7.7E1,8E1,6.7E1,1E1,5E1,1.7E1,1E0,9E0],"tree_param":{"num_deleted":"0","num_feature":"12","num_nodes":"13","size_leaf_vector":"1"}},{"base_weights":[2.7006684E-2,-4.0852028E-1,2.743691E-1,-9.681745E-4,-2.7390483E-1,2.3028077E-1,7.8895036E-4,-6.549614E-4,4.099614E-4,2.3453923E-2,3.7870944E-1,1.0106987E-4,-9.681714E-4,-9.6816494E-4,8.037162E-4],"categories":[],"categories_nodes":[],"categories_segments":[],"categories_sizes":[],"default_left":[0,0,0,0,0,0,0,0,0,0,0,0,0,0,0],"id":29,"left_children":[1,3,5,-1,7,9,-1,-1,-1,11,13,-1,-1,-1,-1],"loss_changes":[3.479776E1,9.423046E-1,9.743509E-1,0E0,7.297971E-1,4.4820595E0,0E0,0E0,0E0,7.6314086E-1,7.2604847E-1,0E0,0E0,0E0,0E0],"parents":[2147483647,0,0,1,1,2,2,4,4,5,5,9,9,10,10],"right_children":[2,4,6,-1,8,10,-1,-1,-1,12,14,-1,-1,-1,-1],"split_conditions":[2.3436446E-1,1.4061868E-1,7.2021645E-1,-9.681745E-4,8.43206E-1,5.156018E-1,7.8895036E-4,-6.549614E-4,4.099614E-4,8.12033E-1,2.0933054E-2,1.0106987E-4,-9.681714E-4,-9.6816494E-4,8.037162E-4],"split_indices":[2,2,0,0,1,2,0,0,0,1,1,0,0,0,0],"split_type":[0,0,0,0,0,0,0,0,0,0,0,0,0,0,0],"sum_hessian":[3.23E2,1.17E2,2.06E2,8.1E1,3.6E1,1.46E2,6E1,3.3E1,3E0,6.1E1,8.5E1,5.8E1,3E0,1E0,8.4E1],"tree_param":{"num_deleted":"0","num_feature":"12","num_nodes":"15","size_leaf_vector":"1"}},{"base_weights":[7.220679E-3,-4.0112245E-1,2.656932E-1,-9.681745E-4,-5.087953E-4,9.83173E-2,8.6699805E-4,1.9831727E-1,-3.245191E-2,1.3925714E-4,7.39517E-4,1.0990296E-3,-2.7910585E-4],"categories":[],"categories_nodes":[],"categories_segments":[],"categories_sizes":[],"default_left":[0,0,0,0,0,0,0,0,0,0,0,0,0],"id":30,"left_children":[1,3,5,-1,-1,7,-1,9,11,-1,-1,-1,-1],"loss_changes":[3.2402462E1,1.2399616E0,4.8368225E0,0E0,0E0,1.1769228E0,0E0,1.0646989E0,2.2564075E0,0E0,0E0,0E0,0E0],"parents":[2147483647,0,0,1,1,2,2,5,5,7,7,8,8],"right_children":[2,4,6,-1,-1,8,-1,10,12,-1,-1,-1,-1],"split_conditions":[2.3436446E-1,1.4061868E-1,5.624747E-1,-9.681745E-4,-5.087953E-4,4.9086517E-1,8.6699805E-4,3.7498313E-1,2.7161184E-1,1.3925714E-4,7.39517E-4,1.0990296E-3,-2.7910585E-4],"split_indices":[2,2,2,0,0,1,0,2,0,0,0,0,0],"split_type":[0,0,0,0,0,0,0,0,0,0,0,0,0],"sum_hessian":[3.07E2,1.19E2,1.88E2,8.3E1,3.6E1,9E1,9.8E1,5.1E1,3.9E1,2.8E1,2.3E1,6E0,3.3E1],"tree_param":{"num_deleted":"0","num_feature":"12","num_nodes":"13","size_leaf_vector":"1"}},{"base_weights":[-3.480505E-2,-5.15358E-4,8.065022E-4],"categories":[],"categories_nodes":[],"categories_segments":[],"categories_sizes":[],"default_left":[0,0,0],"id":31,"left_children":[1,-1,-1],"loss_changes":[2.8803263E1,0E0,0E0],"parents":[2147483647,0,0],"right_children":[2,-1,-1],"split_conditions":[4.6872893E-1,-5.15358E-4,8.065022E-4],"split_indices":[2,0,0],"split_type":[0,0,0],"sum_hessian":[3.16E2,2.1E2,1.06E2],"tree_param":{"num_deleted":"0","num_feature":"12","num_nodes":"3","size_leaf_vector":"1"}},{"base_weights":[3.6950998E-2,-2.4399038E-1,3.8204432E-1,-4.1153115E-1,-2.717288E-2,2.963565E-1,9.939191E-4,-9.681744E-4,-5.706348E-4,4.042257E-2,-7.8024605E-4,1.9074152E-1,1.0128975E-3,-3.0371544E-4,4.5748454E-4,4.939954E-4,-9.681714E-4],"categories":[],"categories_nodes":[],"categories_segments":[],"categories_sizes":[],"default_left":[0,0,0,0,0,0,0,0,0,0,0,0,0,0,0,0,0],"id":32,"left_children":[1,3,5,7,9,11,-1,-1,-1,13,-1,15,-1,-1,-1,-1,-1],"loss_changes":[2.7437134E1,5.6668205E0,1.0747261E0,6.7744637E-1,1.6099998E0,1.3905945E0,0E0,0E0,0E0,1.931574E0,0E0,1.3985565E0,0E0,0E0,0E0,0E0,0E0],"parents":[2147483647,0,0,1,1,2,2,3,3,4,4,5,5,9,9,11,11],"right_children":[2,4,6,8,10,12,-1,-1,-1,14,-1,16,-1,-1,-1,-1,-1],"split_conditions":[4.6872893E-1,2.3436446E-1,7.030934E-1,1.4061868E-1,1E0,6.3637584E-1,9.939191E-4,-9.681744E-4,-5.706348E-4,1E0,-7.8024605E-4,1E0,1.0128975E-3,-3.0371544E-4,4.5748454E-4,4.939954E-4,-9.681714E-4],"split_indices":[2,2,2,2,6,1,0,0,0,11,0,5,0,0,0,0,0],"split_type":[0,0,0,0,0,0,0,0,0,0,0,0,0,0,0,0,0],"sum_hessian":[2.83E2,1.56E2,1.27E2,8.8E1,6.8E1,6.8E1,5.9E1,6.2E1,2.6E1,5.7E1,1.1E1,4.4E1,2.4E1,2.8E1,2.9E1,4.1E1,3E0],"tree_param":{"num_deleted":"0","num_feature":"12","num_nodes":"17","size_leaf_vector":"1"}},{"base_weights":[1.215864E-3,-5.591552E-4,3.2278988E-1,2.9593635E-1,1.0990308E-3,6.6905253E-4,6.498394E-2,-2.1646313E-4,1.0990287E-3],"categories":[],"categories_nodes":[],"categories_segments":[],"categories_sizes":[],"default_left":[0,0,0,0,0,0,0,0,0],"id":33,"left_children":[1,-1,3,5,-1,-1,7,-1,-1],"loss_changes":[3.0143696E1,0E0,8.861618E-1,8.960962E-1,0E0,0E0,1.187876E0,0E0,0E0],"parents":[2147483647,0,0,2,2,3,3,6,6],"right_children":[2,-1,4,6,-1,-1,8,-1,-1],"split_conditions":[3.7498313E-1,-5.591552E-4,9.843308E-1,1E0,1.0990308E-3,6.6905253E-4,7.2021645E-1,-2.1646313E-4,1.0990287E-3],"split_indices":[2,0,2,9,0,0,0,0,0],"split_type":[0,0,0,0,0,0,0,0,0],"sum_hessian":[3.45E2,1.87E2,1.58E2,1.4E2,1.8E1,1.25E2,1.5E1,1.1E1,4E0],"tree_param":{"num_deleted":"0","num_feature":"12","num_nodes":"9","size_leaf_vector":"1"}},{"base_weights":[1.1846968E-3,-3.592584E-1,2.3579265E-1,-9.681745E-4,-1.8263502E-1,1.2419876E-2,3.3506942E-1,-2.8977782E-1,3.1650625E-2,-1.5016747E-1,1.3165061E-1,-1.4129191E-4,3.530792E-1,-7.2965055E-4,1.0990258E-3,6.396516E-4,-9.681727E-4,-5.087952E-4,5.822285E-4,6.5605826E-4,-6.377193E-5,7.5765786E-4,-2.79105E-4],"categories":[],"categories_nodes":[],"categories_segments":[],"categories_sizes":[],"default_left":[0,0,0,0,0,0,0,0,0,0,0,0,0,0,0,0,0,0,0,0,0,0,0],"id":34,"left_children":[1,3,5,-1,7,9,11,13,15,17,19,-1,21,-1,-1,-1,-1,-1,-1,-1,-1,-1,-1],"loss_changes":[2.359303E1,2.1194801E0,3.7476988E0,0E0,9.6428525E-1,1.0080416E0,8.5006046E-1,1.4532938E0,1.9444414E0,9.1161513E-1,9.0535635E-1,0E0,7.343817E-1,0E0,0E0,0E0,0E0,0E0,0E0,0E0,0E0,0E0,0E0],"parents":[2147483647,0,0,1,1,2,2,4,4,5,5,6,6,7,7,8,8,9,9,10,10,12,12],"right_children":[2,4,6,-1,8,10,12,14,16,18,20,-1,22,-1,-1,-1,-1,-1,-1,-1,-1,-1,-1],"split_conditions":[2.8123736E-1,1.4061868E-1,4.6872893E-1,-9.681745E-4,6.059652E-1,1E0,9.4626784E-2,9.4451874E-1,7.875693E-1,7.875693E-1,4.794251E-1,-1.4129191E-4,1E0,-7.2965055E-4,1.0990258E-3,6.396516E-4,-9.681727E-4,-5.087952E-4,5.822285E-4,6.5605826E-4,-6.377193E-5,7.5765786E-4,-2.79105E-4],"split_indices":[2,2,2,0,1,11,1,0,1,1,1,0,0,0,0,0,0,0,0,0,0,0,0],"split_type":[0,0,0,0,0,0,0,0,0,0,0,0,0,0,0,0,0,0,0,0,0,0,0],"sum_hessian":[2.79E2,1.1E2,1.69E2,6.8E1,4.2E1,5.2E1,1.17E2,2.8E1,1.4E1,2.2E1,3E1,5E0,1.12E2,2.6E1,2E0,9E0,5E0,1.8E1,4E0,1.4E1,1.6E1,1.09E2,3E0],"tree_param":{"num_deleted":"0","num_feature":"12","num_nodes":"23","size_leaf_vector":"1"}},{"base_weights":[1.8492753E-2,-7.5379765E-4,3.2455003E-1,3.9584816E-1,2.5892335E-1,6.219837E-4,1.0005928E-3,-3.0849345E-2,4.2450774E-1,2.478288E-4,-4.1691939E-4,1.0990311E-3,6.219836E-4],"categories":[],"categories_nodes":[],"categories_segments":[],"categories_sizes":[],"default_left":[0,0,0,0,0,0,0,0,0,0,0,0,0],"id":35,"left_children":[1,-1,3,5,7,-1,-1,9,11,-1,-1,-1,-1],"loss_changes":[3.564774E1,0E0,7.9076004E-1,6.783323E-1,4.2224016E0,0E0,0E0,8.2401913E-1,7.4175644E-1,0E0,0E0,0E0,0E0],"parents":[2147483647,0,0,2,2,3,3,4,4,7,7,8,8],"right_children":[2,-1,4,6,8,-1,-1,10,12,-1,-1,-1,-1],"split_conditions":[2.8123736E-1,-7.5379765E-4,4.7432706E-1,5.624747E-1,4.6872893E-1,6.219837E-4,1.0005928E-3,1E0,1E0,2.478288E-4,-4.1691939E-4,1.0990311E-3,6.219836E-4],"split_indices":[2,0,1,2,2,0,0,11,11,0,0,0,0],"split_type":[0,0,0,0,0,0,0,0,0,0,0,0,0],"sum_hessian":[3.04E2,1.35E2,1.69E2,8.1E1,8.8E1,3.9E1,4.2E1,3.2E1,5.6E1,1.7E1,1.5E1,3E1,2.6E1],"tree_param":{"num_deleted":"0","num_feature":"12","num_nodes":"13","size_leaf_vector":"1"}},{"base_weights":[4.114432E-2,-8.648142E-4,2.5387287E-1,1.4883813E-1,8.4063056E-4,1.3002858E-4,2.3477562E-1,-5.547323E-4,5.7347043E-4],"categories":[],"categories_nodes":[],"categories_segments":[],"categories_sizes":[],"default_left":[0,0,0,0,0,0,0,0,0],"id":36,"left_children":[1,-1,3,5,-1,-1,7,-1,-1],"loss_changes":[3.0888184E1,0E0,3.4661465E0,9.453125E-1,0E0,0E0,1.3729336E0,0E0,0E0],"parents":[2147483647,0,0,2,2,3,3,6,6],"right_children":[2,-1,4,6,-1,-1,8,-1,-1],"split_conditions":[2.3436446E-1,-8.648142E-4,6.0934764E-1,4.2185605E-1,8.4063056E-4,1.3002858E-4,2.2101659E-1,-5.547323E-4,5.7347043E-4],"split_indices":[2,0,2,2,0,0,1,0,0],"split_type":[0,0,0,0,0,0,0,0,0],"sum_hessian":[3.16E2,1E2,2.16E2,1.28E2,8.8E1,6.4E1,6.4E1,5E0,5.9E1],"tree_param":{"num_deleted":"0","num_feature":"12","num_nodes":"9","size_leaf_vector":"1"}},{"base_weights":[-3.877189E-2,-6.623749E-4,7.754687E-4],"categories":[],"categories_nodes":[],"categories_segments":[],"categories_sizes":[],"default_left":[0,0,0],"id":37,"left_children":[1,-1,-1],"loss_changes":[3.3107162E1,0E0,0E0],"parents":[2147483647,0,0],"right_children":[2,-1,-1],"split_conditions":[4.2185605E-1,-6.623749E-4,7.754687E-4],"split_indices":[2,0,0],"split_type":[0,0,0],"sum_hessian":[2.84E2,1.69E2,1.15E2],"tree_param":{"num_deleted":"0","num_feature":"12","num_nodes":"3","size_leaf_vector":"1"}},{"base_weights":[-3.2330744E-3,-3.838423E-1,3.3668208E-1,-9.4885484E-4,-1.540636E-1,9.047415E-2,8.3442894E-4,-4.3470194E-4,5.822285E-4,2.8165042E-1,-2.8535489E-5,-2.79105E-4,8.693409E-4],"categories":[],"categories_nodes":[],"categories_segments":[],"categories_sizes":[],"default_left":[0,0,0,0,0,0,0,0,0,0,0,0,0],"id":38,"left_children":[1,3,5,-1,7,9,-1,-1,-1,11,-1,-1,-1],"loss_changes":[3.894183E1,2.452404E0,2.621624E0,0E0,8.5737234E-1,6.778069E-1,0E0,0E0,0E0,6.944434E-1,0E0,0E0,0E0],"parents":[2147483647,0,0,1,1,2,2,4,4,5,5,9,9],"right_children":[2,4,6,-1,8,10,-1,-1,-1,12,-1,-1,-1],"split_conditions":[2.8123736E-1,1.8749157E-1,4.2185605E-1,-9.4885484E-4,1E0,3.83763E-1,8.3442894E-4,-4.3470194E-4,5.822285E-4,2.5100005E-1,-2.8535489E-5,-2.79105E-4,8.693409E-4],"split_indices":[2,2,2,0,5,0,0,0,0,1,0,0,0],"split_type":[0,0,0,0,0,0,0,0,0,0,0,0,0],"sum_hessian":[3.01E2,1.42E2,1.59E2,1.07E2,3.5E1,3.4E1,1.25E2,3.1E1,4E0,1.2E1,2.2E1,3E0,9E0],"tree_param":{"num_deleted":"0","num_feature":"12","num_nodes":"13","size_leaf_vector":"1"}},{"base_weights":[8.624331E-3,-7.224228E-4,6.7531836E-4],"categories":[],"categories_nodes":[],"categories_segments":[],"categories_sizes":[],"default_left":[0,0,0],"id":39,"left_children":[1,-1,-1],"loss_changes":[3.4623768E1,0E0,0E0],"parents":[2147483647,0,0],"right_children":[2,-1,-1],"split_conditions":[3.2811025E-1,-7.224228E-4,6.7531836E-4],"split_indices":[2,0,0],"split_type":[0,0,0],"sum_hessian":[3.04E2,1.43E2,1.61E2],"tree_param":{"num_deleted":"0","num_feature":"12","num_nodes":"3","size_leaf_vector":"1"}},{"base_weights":[6.1729397E-3,-3.4778196E-1,2.9465643E-1,-9.2641276E-4,-1.1120647E-1,1.0307921E-1,4.043779E-1,1.0990258E-3,-1.4334932E-1,3.892576E-5,4.960961E-4,1.0163429E-3,6.8559014E-4,1.3433519E-4,-5.547332E-4],"categories":[],"categories_nodes":[],"categories_segments":[],"categories_sizes":[],"default_left":[0,0,0,0,0,0,0,0,0,0,0,0,0,0,0],"id":40,"left_children":[1,3,5,-1,7,9,11,-1,13,-1,-1,-1,-1,-1,-1],"loss_changes":[3.2062584E1,3.3479023E0,3.6364832E0,0E0,8.6785424E-1,7.266479E-1,6.9817924E-1,0E0,1.0416663E0,0E0,0E0,0E0,0E0,0E0,0E0],"parents":[2147483647,0,0,1,1,2,2,4,4,5,5,6,6,8,8],"right_children":[2,4,6,-1,8,10,12,-1,14,-1,-1,-1,-1,-1,-1],"split_conditions":[2.8123736E-1,1.8749157E-1,5.156018E-1,-9.2641276E-4,1.7645764E-1,6.080653E-1,4.6163255E-1,1.0990258E-3,4.9591413E-1,3.892576E-5,4.960961E-4,1.0163429E-3,6.8559014E-4,1.3433519E-4,-5.547332E-4],"split_indices":[2,2,2,0,1,0,1,0,0,0,0,0,0,0,0],"split_type":[0,0,0,0,0,0,0,0,0,0,0,0,0,0,0],"sum_hessian":[3.14E2,1.41E2,1.73E2,9.9E1,4.2E1,6.3E1,1.1E2,2E0,4E1,3.9E1,2.4E1,5E1,6E1,1.5E1,2.5E1],"tree_param":{"num_deleted":"0","num_feature":"12","num_nodes":"15","size_leaf_vector":"1"}},{"base_weights":[3.0311178E-3,-3.7946045E-1,3.217741E-1,-9.681745E-4,-2.6495948E-1,1.3879348E-1,8.6500804E-4,-5.990305E-4,4.099614E-4,7.512889E-2,4.3165022E-1,3.5254026E-4,-5.547328E-4,1.0990301E-3,-9.6816494E-4],"categories":[],"categories_nodes":[],"categories_segments":[],"categories_sizes":[],"default_left":[0,0,0,0,0,0,0,0,0,0,0,0,0,0,0],"id":41,"left_children":[1,3,5,-1,7,9,-1,-1,-1,11,13,-1,-1,-1,-1],"loss_changes":[3.62092E1,1.374012E0,2.8655453E0,0E0,6.7836905E-1,1.0440977E0,0E0,0E0,0E0,1.507487E0,8.999969E-1,0E0,0E0,0E0,0E0],"parents":[2147483647,0,0,1,1,2,2,4,4,5,5,9,9,10,10],"right_children":[2,4,6,-1,8,10,-1,-1,-1,12,14,-1,-1,-1,-1],"split_conditions":[3.2811025E-1,1.4061868E-1,5.156018E-1,-9.681745E-4,9.244704E-1,7.0170516E-1,8.6500804E-4,-5.990305E-4,4.099614E-4,5.534961E-1,1E0,3.5254026E-4,-5.547328E-4,1.0990301E-3,-9.6816494E-4],"split_indices":[2,2,2,0,1,1,0,0,0,1,4,0,0,0,0],"split_type":[0,0,0,0,0,0,0,0,0,0,0,0,0,0,0],"sum_hessian":[2.97E2,1.35E2,1.62E2,7.6E1,5.9E1,5.6E1,1.06E2,5.6E1,3E0,4.6E1,1E1,3.6E1,1E1,9E0,1E0],"tree_param":{"num_deleted":"0","num_feature":"12","num_nodes":"15","size_leaf_vector":"1"}},{"base_weights":[9.313877E-3,-6.214174E-4,3.6253297E-1,3.281108E-1,1.099031E-3,2.3535432E-1,8.5376954E-4,7.6827814E-4,2.4363575E-4],"categories":[],"categories_nodes":[],"categories_segments":[],"categories_sizes":[],"default_left":[0,0,0,0,0,0,0,0,0],"id":42,"left_children":[1,-1,3,5,-1,7,-1,-1,-1],"loss_changes":[3.1855804E1,0E0,7.917099E-1,8.8983154E-1,0E0,8.647754E-1,0E0,0E0,0E0],"parents":[2147483647,0,0,2,2,3,3,5,5],"right_children":[2,-1,4,6,-1,8,-1,-1,-1],"split_conditions":[3.7498313E-1,-6.214174E-4,7.2107476E-1,1E0,1.099031E-3,4.9591413E-1,8.5376954E-4,7.6827814E-4,2.4363575E-4],"split_indices":[2,0,1,11,0,0,0,0,0],"split_type":[0,0,0,0,0,0,0,0,0],"sum_hessian":[2.91E2,1.55E2,1.36E2,1.13E2,2.3E1,5.4E1,5.9E1,2.5E1,2.9E1],"tree_param":{"num_deleted":"0","num_feature":"12","num_nodes":"9","size_leaf_vector":"1"}},{"base_weights":[5.8573723E-2,-3.4334934E-1,6.7498913E-4,-9.681744E-4,-4.3070095E-4],"categories":[],"categories_nodes":[],"categories_segments":[],"categories_sizes":[],"default_left":[0,0,0,0,0],"id":43,"left_children":[1,3,-1,-1,-1],"loss_changes":[2.800064E1,1.7549982E0,0E0,0E0,0E0],"parents":[2147483647,0,0,1,1],"right_children":[2,4,-1,-1,-1],"split_conditions":[2.8123736E-1,1.4061868E-1,6.7498913E-4,-9.681744E-4,-4.3070095E-4],"split_indices":[2,2,0,0,0],"split_type":[0,0,0,0,0],"sum_hessian":[2.6E2,1.04E2,1.56E2,5.4E1,5E1],"tree_param":{"num_deleted":"0","num_feature":"12","num_nodes":"5","size_leaf_vector":"1"}},{"base_weights":[8.518974E-3,-3.609113E-1,2.8790063E-1,-9.4413717E-4,-1.2549219E-1,2.9152902E-4,3.858173E-1,1.983171E-1,-4.9112685E-4,8.3513267E-4,-9.681697E-4,-4.5137198E-4,1.0990292E-3],"categories":[],"categories_nodes":[],"categories_segments":[],"categories_sizes":[],"default_left":[0,0,0,0,0,0,0,0,0,0,0,0,0],"id":44,"left_children":[1,3,5,-1,7,-1,9,11,-1,-1,-1,-1,-1],"loss_changes":[2.9002588E1,2.7292185E0,2.3010416E0,0E0,1.270329E0,0E0,1.4902449E0,1.2499973E0,0E0,0E0,0E0,0E0,0E0],"parents":[2147483647,0,0,1,1,2,2,4,4,6,6,7,7],"right_children":[2,4,6,-1,8,-1,10,12,-1,-1,-1,-1,-1],"split_conditions":[2.8123736E-1,1.8749157E-1,5.156018E-1,-9.4413717E-4,3.83763E-1,2.9152902E-4,1E0,1E0,-4.9112685E-4,8.3513267E-4,-9.681697E-4,-4.5137198E-4,1.0990292E-3],"split_indices":[2,2,2,0,0,0,9,11,0,0,0,0,0],"split_type":[0,0,0,0,0,0,0,0,0,0,0,0,0],"sum_hessian":[2.81E2,1.21E2,1.6E2,8.6E1,3.5E1,6.4E1,9.6E1,9E0,2.6E1,9.4E1,2E0,4E0,5E0],"tree_param":{"num_deleted":"0","num_feature":"12","num_nodes":"13","size_leaf_vector":"1"}},{"base_weights":[-2.549221E-2,1.5301646E-3,-5.01386E-4,-9.452055E-4,5.3997565E-4],"categories":[],"categories_nodes":[],"categories_segments":[],"categories_sizes":[],"default_left":[0,0,0,0,0],"id":45,"left_children":[1,3,-1,-1,-1],"loss_changes":[1.6422626E0,2.9664139E1,0E0,0E0,0E0],"parents":[2147483647,0,0,1,1],"right_children":[2,4,-1,-1,-1],"split_conditions":[1E0,2.3436446E-1,-5.01386E-4,-9.452055E-4,5.3997565E-4],"split_indices":[5,2,0,0,0],"split_type":[0,0,0,0,0],"sum_hessian":[2.8E2,2.49E2,3.1E1,9E1,1.59E2],"tree_param":{"num_deleted":"0","num_feature":"12","num_nodes":"5","size_leaf_vector":"1"}},{"base_weights":[3.8728688E-3,-7.3288276E-4,2.7104458E-1,2.345492E-1,9.459047E-4,1.983173E-1,8.406303E-4,2.1465898E-6,7.173933E-4],"categories":[],"categories_nodes":[],"categories_segments":[],"categories_sizes":[],"default_left":[0,0,0,0,0,0,0,0,0],"id":46,"left_children":[1,-1,3,5,-1,7,-1,-1,-1],"loss_changes":[2.7577333E1,0E0,1.1232443E0,8.6050653E-1,0E0,3.344636E0,0E0,0E0,0E0],"parents":[2147483647,0,0,2,2,3,3,5,5],"right_children":[2,-1,4,6,-1,8,-1,-1,-1],"split_conditions":[2.8123736E-1,-7.3288276E-4,7.875693E-1,7.2021645E-1,9.459047E-4,4.6872893E-1,8.406303E-4,2.1465898E-6,7.173933E-4],"split_indices":[2,0,1,0,0,2,0,0,0],"split_type":[0,0,0,0,0,0,0,0,0],"sum_hessian":[2.88E2,1.23E2,1.65E2,1.38E2,2.7E1,1.14E2,2.4E1,4.9E1,6.5E1],"tree_param":{"num_deleted":"0","num_feature":"12","num_nodes":"9","size_leaf_vector":"1"}},{"base_weights":[3.979397E-2,1.3665035E-2,2.9027125E-1,4.605394E-2,-4.366072E-4,-9.681727E-4,9.2676387E-4,6.55873E-2,-3.1042707E-4,-8.256086E-4,7.596393E-4],"categories":[],"categories_nodes":[],"categories_segments":[],"categories_sizes":[],"default_left":[0,0,0,0,0,0,0,0,0,0,0],"id":47,"left_children":[1,3,5,7,-1,-1,-1,9,-1,-1,-1],"loss_changes":[2.0092244E0,2.0247688E0,3.4770086E0,9.313859E-1,0E0,0E0,0E0,3.1021208E1,0E0,0E0,0E0],"parents":[2147483647,0,0,1,1,2,2,3,3,7,7],"right_children":[2,4,6,8,-1,-1,-1,10,-1,-1,-1],"split_conditions":[8.379747E-1,1E0,2.3436446E-1,7.483805E-1,-4.366072E-4,-9.681727E-4,9.2676387E-4,2.8123736E-1,-3.1042707E-4,-8.256086E-4,7.596393E-4],"split_indices":[1,7,2,1,0,0,0,2,0,0,0],"split_type":[0,0,0,0,0,0,0,0,0,0,0],"sum_hessian":[3.07E2,2.78E2,2.9E1,2.43E2,3.5E1,5E0,2.4E1,2.21E2,2.2E1,8.7E1,1.34E2],"tree_param":{"num_deleted":"0","num_feature":"12","num_nodes":"11","size_leaf_vector":"1"}},{"base_weights":[5.4526463E-2,-3.33011E-1,7.286072E-4,-9.217204E-4,-1.0471297E-1,-1.7887563E-1,7.544958E-4,-9.681734E-4,-2.10199E-4],"categories":[],"categories_nodes":[],"categories_segments":[],"categories_sizes":[],"default_left":[0,0,0,0,0,0,0,0,0],"id":48,"left_children":[1,3,-1,-1,5,7,-1,-1,-1],"loss_changes":[3.533087E1,3.4270382E0,0E0,0E0,1.5326937E0,8.49121E-1,0E0,0E0,0E0],"parents":[2147483647,0,0,1,1,4,4,5,5],"right_children":[2,4,-1,-1,6,8,-1,-1,-1],"split_conditions":[3.2811025E-1,1.8749157E-1,7.286072E-4,-9.217204E-4,1E0,3.83763E-1,7.544958E-4,-9.681734E-4,-2.10199E-4],"split_indices":[2,2,0,0,5,0,0,0,0],"split_type":[0,0,0,0,0,0,0,0,0],"sum_hessian":[3.06E2,1.33E2,1.73E2,8.9E1,4.4E1,3.8E1,6E0,8E0,3E1],"tree_param":{"num_deleted":"0","num_feature":"12","num_nodes":"9","size_leaf_vector":"1"}},{"base_weights":[1.1380376E-2,-3.9517862E-1,3.0043676E-1,-9.287992E-4,-1.6426106E-4,2.2388806E-3,6.882404E-4,-2.2988657E-4,1.0990277E-3],"categories":[],"categories_nodes":[],"categories_segments":[],"categories_sizes":[],"default_left":[0,0,0,0,0,0,0,0,0],"id":49,"left_children":[1,3,5,-1,-1,7,-1,-1,-1],"loss_changes":[3.478547E1,2.10178E0,1.6764069E0,0E0,0E0,1.0210055E0,0E0,0E0,0E0],"parents":[2147483647,0,0,1,1,2,2,5,5],"right_children":[2,4,6,-1,-1,8,-1,-1,-1],"split_conditions":[2.8123736E-1,2.3436446E-1,3.2811025E-1,-9.287992E-4,-1.6426106E-4,1E0,6.882404E-4,-2.2988657E-4,1.0990277E-3],"split_indices":[2,2,2,0,0,3,0,0,0],"split_type":[0,0,0,0,0,0,0,0,0],"sum_hessian":[2.96E2,1.23E2,1.73E2,1.05E2,1.8E1,1.7E1,1.56E2,1.4E1,3E0],"tree_param":{"num_deleted":"0","num_feature":"12","num_nodes":"9","size_leaf_vector":"1"}},{"base_weights":[-2.535261E-2,-4.8275005E-2,2.83029E-4,1.8887417E-3,-1.3171569E-1,-8.769742E-4,6.029019E-4,-1.8084934E-1,5.5460144E-2,-2.6897254E-4,-9.681738E-4,-3.7754406E-4,1.0990298E-3],"categories":[],"categories_nodes":[],"categories_segments":[],"categories_sizes":[],"default_left":[0,0,0,0,0,0,0,0,0,0,0,0,0],"id":50,"left_children":[1,3,-1,5,7,-1,-1,9,11,-1,-1,-1,-1],"loss_changes":[1.141897E0,1.1259525E0,0E0,2.0743542E1,9.2885995E-1,0E0,0E0,1.1669097E0,2.3809495E0,0E0,0E0,0E0,0E0],"parents":[2147483647,0,0,1,1,3,3,4,4,7,7,8,8],"right_children":[2,4,-1,6,8,-1,-1,10,12,-1,-1,-1,-1],"split_conditions":[1E0,5.9820527E-1,2.83029E-4,2.8123736E-1,8.6796635E-1,-8.769742E-4,6.029019E-4,8.065116E-1,4.2185605E-1,-2.6897254E-4,-9.681738E-4,-3.7754406E-4,1.0990298E-3],"split_indices":[9,1,0,2,1,0,0,1,2,0,0,0,0],"split_type":[0,0,0,0,0,0,0,0,0,0,0,0,0],"sum_hessian":[3.07E2,2.69E2,3.8E1,1.68E2,1.01E2,6.8E1,1E2,8E1,2.1E1,6.8E1,1.2E1,1.4E1,7E0],"tree_param":{"num_deleted":"0","num_feature":"12","num_nodes":"13","size_leaf_vector":"1"}},{"base_weights":[1.8735517E-2,-2.8924486E-1,3.199718E-1,-3.1922653E-1,-1.183493E-1,2.643239E-1,9.841863E-4,-9.38215E-4,-1.1279377E-1,-9.681736E-4,2.3165043E-1,1.0307919E-1,3.4983242E-1,-3.1271897E-4,5.822285E-4,-4.5137198E-4,1.0990296E-3,5.248072E-4,-1.16972056E-4,7.4919645E-4,-9.6816494E-4],"categories":[],"categories_nodes":[],"categories_segments":[],"categories_sizes":[],"default_left":[0,0,0,0,0,0,0,0,0,0,0,0,0,0,0,0,0,0,0,0,0],"id":51,"left_children":[1,3,5,7,9,11,-1,-1,13,-1,15,17,19,-1,-1,-1,-1,-1,-1,-1,-1],"loss_changes":[2.5141989E1,6.8658066E-1,1.1902456E0,3.168293E0,2.4499977E0,1.3925672E0,0E0,0E0,6.8306136E-1,0E0,1.3499973E0,8.4266996E-1,6.79718E-1,0E0,0E0,0E0,0E0,0E0,0E0,0E0,0E0],"parents":[2147483647,0,0,1,1,2,2,3,3,4,4,5,5,8,8,10,10,11,11,12,12],"right_children":[2,4,6,8,10,12,-1,-1,14,-1,16,18,20,-1,-1,-1,-1,-1,-1,-1,-1],"split_conditions":[3.7498313E-1,1E0,6.9836026E-1,1.8749157E-1,1.4061868E-1,5.624747E-1,9.841863E-4,-9.38215E-4,1E0,-9.681736E-4,5.2635086E-1,4.05675E-1,6.753273E-1,-3.1271897E-4,5.822285E-4,-4.5137198E-4,1.0990296E-3,5.248072E-4,-1.16972056E-4,7.4919645E-4,-9.6816494E-4],"split_indices":[2,9,1,2,2,2,0,0,10,0,1,1,1,0,0,0,0,0,0,0,0],"split_type":[0,0,0,0,0,0,0,0,0,0,0,0,0,0,0,0,0,0,0,0,0],"sum_hessian":[2.71E2,1.34E2,1.37E2,1.14E2,2E1,1.01E2,3.6E1,6.9E1,4.5E1,1E1,1E1,3.5E1,6.6E1,4.1E1,4E0,4E0,6E0,1.8E1,1.7E1,6.5E1,1E0],"tree_param":{"num_deleted":"0","num_feature":"12","num_nodes":"21","size_leaf_vector":"1"}},{"base_weights":[3.629461E-2,-3.7744024E-1,3.2222655E-1,-9.459465E-4,-1.8629803E-1,1.3165063E-1,3.8980666E-1,7.011213E-2,-6.501426E-4,3.7791298E-4,-1.8263482E-1,7.011213E-2,8.729307E-4,8.406296E-4,-9.681727E-4,1.0990258E-3,-9.681727E-4,3.4731982E-4,-9.681697E-4],"categories":[],"categories_nodes":[],"categories_segments":[],"categories_sizes":[],"default_left":[0,0,0,0,0,0,0,0,0,0,0,0,0,0,0,0,0,0,0],"id":52,"left_children":[1,3,5,-1,7,9,11,13,-1,-1,15,17,-1,-1,-1,-1,-1,-1,-1],"loss_changes":[3.8210903E1,2.0224075E0,2.459917E0,0E0,1.2820507E0,8.0398625E-1,1.4636002E0,2.3557658E0,0E0,0E0,1.4285668E0,6.853123E-1,0E0,0E0,0E0,0E0,0E0,0E0,0E0],"parents":[2147483647,0,0,1,1,2,2,4,4,5,5,6,6,7,7,10,10,11,11],"right_children":[2,4,6,-1,8,10,12,14,-1,-1,16,18,-1,-1,-1,-1,-1,-1,-1],"split_conditions":[2.8123736E-1,1.8749157E-1,4.6872893E-1,-9.459465E-4,3.83763E-1,1E0,1.6307667E-1,5.3507006E-1,-6.501426E-4,3.7791298E-4,3.2811025E-1,1E0,8.729307E-4,8.406296E-4,-9.681727E-4,1.0990258E-3,-9.681727E-4,3.4731982E-4,-9.681697E-4],"split_indices":[2,2,2,0,0,6,1,1,0,0,2,10,0,0,0,0,0,0,0],"split_type":[0,0,0,0,0,0,0,0,0,0,0,0,0,0,0,0,0,0,0],"sum_hessian":[3.23E2,1.32E2,1.91E2,9.3E1,3.9E1,5E1,1.41E2,1.3E1,2.6E1,4.3E1,7E0,1.3E1,1.28E2,8E0,5E0,2E0,5E0,1.1E1,2E0],"tree_param":{"num_deleted":"0","num_feature":"12","num_nodes":"19","size_leaf_vector":"1"}},{"base_weights":[-3.438709E-2,-1.2209003E-2,-2.2592504E-1,1.9355565E-2,-2.0005663E-1,-9.6817396E-4,2.2388806E-3,-3.9388123E-1,5.753392E-4,-9.6817425E-4,2.649838E-1,6.855888E-4,-1.350159E-1,-9.681744E-4,-5.662177E-4,1.80273E-4,1.0990296E-3,1.0990258E-3,-5.547328E-4],"categories":[],"categories_nodes":[],"categories_segments":[],"categories_sizes":[],"default_left":[0,0,0,0,0,0,0,0,0,0,0,0,0,0,0,0,0,0,0],"id":53,"left_children":[1,3,5,7,9,-1,11,13,-1,-1,15,-1,17,-1,-1,-1,-1,-1,-1],"loss_changes":[1.3508465E0,1.6898587E0,1.8253103E0,2.6111057E1,5.1154447E0,0E0,7.686262E-1,8.398342E-1,0E0,0E0,7.111089E-1,0E0,1.0666634E0,0E0,0E0,0E0,0E0,0E0,0E0],"parents":[2147483647,0,0,1,1,2,2,3,3,4,4,6,6,7,7,10,10,12,12],"right_children":[2,4,6,8,10,-1,12,14,-1,-1,16,-1,18,-1,-1,-1,-1,-1,-1],"split_conditions":[1E0,8.323676E-1,2.8123736E-1,2.3436446E-1,3.2811025E-1,-9.6817396E-4,4.428629E-1,1.4061868E-1,5.753392E-4,-9.6817425E-4,6.0934764E-1,6.855888E-4,2.7161184E-1,-9.681744E-4,-5.662177E-4,1.80273E-4,1.0990296E-3,1.0990258E-3,-5.547328E-4],"split_indices":[6,0,2,2,2,0,1,2,0,0,2,0,0,0,0,0,0,0,0],"split_type":[0,0,0,0,0,0,0,0,0,0,0,0,0,0,0,0,0,0,0],"sum_hessian":[3.18E2,2.85E2,3.3E1,2.44E2,4.1E1,1.6E1,1.7E1,9.4E1,1.5E2,2.6E1,1.5E1,5E0,1.2E1,5.8E1,3.6E1,9E0,6E0,2E0,1E1],"tree_param":{"num_deleted":"0","num_feature":"12","num_nodes":"19","size_leaf_vector":"1"}},{"base_weights":[9.313877E-3,-4.0471298E-1,2.6093242E-1,-9.2510774E-4,-1.1120642E-1,7.9269685E-2,8.6460594E-4,-9.6817303E-4,1.5665045E-1,1.3439035E-1,-5.923184E-4,-1.4129191E-4,1.0990277E-3,-2.316613E-5,5.550297E-4],"categories":[],"categories_nodes":[],"categories_segments":[],"categories_sizes":[],"default_left":[0,0,0,0,0,0,0,0,0,0,0,0,0,0,0],"id":54,"left_children":[1,3,5,-1,7,9,-1,-1,11,13,-1,-1,-1,-1,-1],"loss_changes":[3.0315458E1,1.3819256E0,5.1727076E0,0E0,1.3392835E0,1.6937075E0,0E0,0E0,6.749974E-1,1.4253162E0,0E0,0E0,0E0,0E0,0E0],"parents":[2147483647,0,0,1,1,2,2,4,4,5,5,8,8,9,9],"right_children":[2,4,6,-1,8,10,-1,-1,12,14,-1,-1,-1,-1,-1],"split_conditions":[2.3436446E-1,1.8749157E-1,5.624747E-1,-9.2510774E-4,1E0,1E0,8.6460594E-4,-9.6817303E-4,5.166207E-1,1E0,-5.923184E-4,-1.4129191E-4,1.0990277E-3,-2.316613E-5,5.550297E-4],"split_indices":[2,2,2,0,11,3,0,0,1,11,0,0,0,0,0],"split_type":[0,0,0,0,0,0,0,0,0,0,0,0,0,0,0],"sum_hessian":[2.91E2,1.1E2,1.81E2,9.6E1,1.4E1,8.4E1,9.7E1,6E0,8E0,7.3E1,1.1E1,5E0,3E0,3.5E1,3.8E1],"tree_param":{"num_deleted":"0","num_feature":"12","num_nodes":"15","size_leaf_vector":"1"}},{"base_weights":[5.6403123E-2,8.6768754E-2,-1.01002395E-1,-7.440994E-2,1.1083616E-1,-6.549614E-4,3.4415045E-1,-8.465738E-4,2.8165048E-1,-8.980997E-4,3.0942842E-1,8.234034E-4,-9.6816494E-4,9.267635E-4,-4.5137198E-4,2.0637423E-4,8.0121355E-4],"categories":[],"categories_nodes":[],"categories_segments":[],"categories_sizes":[],"default_left":[0,0,0,0,0,0,0,0,0,0,0,0,0,0,0,0,0],"id":55,"left_children":[1,3,5,7,9,-1,11,-1,13,-1,15,-1,-1,-1,-1,-1,-1],"loss_changes":[1.4482548E0,9.853052E-1,4.707829E0,3.9376094E0,2.3932049E1,0E0,7.041639E-1,0E0,1.3333318E0,0E0,2.653698E0,0E0,0E0,0E0,0E0,0E0,0E0],"parents":[2147483647,0,0,1,1,2,2,3,3,4,4,6,6,8,8,10,10],"right_children":[2,4,6,8,10,-1,12,-1,14,-1,16,-1,-1,-1,-1,-1,-1],"split_conditions":[8.323676E-1,2.2773747E-1,4.2185605E-1,2.3436446E-1,1.8749157E-1,-6.549614E-4,1E0,-8.465738E-4,1.8733111E-1,-8.980997E-4,3.7498313E-1,8.234034E-4,-9.6816494E-4,9.267635E-4,-4.5137198E-4,2.0637423E-4,8.0121355E-4],"split_indices":[0,1,2,2,2,0,10,0,1,0,2,0,0,0,0,0,0],"split_type":[0,0,0,0,0,0,0,0,0,0,0,0,0,0,0,0,0],"sum_hessian":[3.03E2,2.54E2,4.9E1,3.3E1,2.21E2,3.3E1,1.6E1,1.7E1,1.6E1,5.9E1,1.62E2,1.5E1,1E0,1.2E1,4E0,4.4E1,1.18E2],"tree_param":{"num_deleted":"0","num_feature":"12","num_nodes":"17","size_leaf_vector":"1"}},{"base_weights":[-1.2611648E-2,-2.9692078E-1,3.7011218E-1,-9.4810454E-4,-6.557157E-2,9.1390836E-4,2.9355538E-1,1.3879345E-1,-1.9562204E-1,2.316506E-1,1.0990306E-3,1.620921E-5,1.0990298E-3,-9.777202E-5,-6.374214E-4,3.7791298E-4,1.0990298E-3],"categories":[],"categories_nodes":[],"categories_segments":[],"categories_sizes":[],"default_left":[0,0,0,0,0,0,0,0,0,0,0,0,0,0,0,0,0],"id":56,"left_children":[1,3,5,-1,7,-1,9,11,13,15,-1,-1,-1,-1,-1,-1,-1],"loss_changes":[3.3187622E1,6.547409E0,7.164345E-1,0E0,1.9136E0,0E0,9.285693E-1,1.4404736E0,7.356932E-1,7.325554E-1,0E0,0E0,0E0,0E0,0E0,0E0,0E0],"parents":[2147483647,0,0,1,1,2,2,4,4,6,6,7,7,8,8,9,9],"right_children":[2,4,6,-1,8,-1,10,12,14,16,-1,-1,-1,-1,-1,-1,-1],"split_conditions":[4.2185605E-1,1.8749157E-1,1E0,-9.4810454E-4,4.270111E-1,9.1390836E-4,7.968392E-1,3.749628E-1,4.9591413E-1,1E0,1.0990306E-3,1.620921E-5,1.0990298E-3,-9.777202E-5,-6.374214E-4,3.7791298E-4,1.0990298E-3],"split_indices":[2,2,11,0,1,0,2,1,0,7,0,0,0,0,0,0,0],"split_type":[0,0,0,0,0,0,0,0,0,0,0,0,0,0,0,0,0],"sum_hessian":[3.05E2,1.75E2,1.3E2,1.03E2,7.2E1,6.7E1,6.3E1,2.8E1,4.4E1,5E1,1.3E1,2.1E1,7E0,1.9E1,2.5E1,4.3E1,7E0],"tree_param":{"num_deleted":"0","num_feature":"12","num_nodes":"17","size_leaf_vector":"1"}},{"base_weights":[-7.868254E-3,-3.1703356E-1,3.302118E-1,-8.8866655E-4,-1.4990552E-4,1.1988591E-1,8.234038E-4,-1.412921E-4,2.684926E-1,9.111028E-4,6.542832E-5],"categories":[],"categories_nodes":[],"categories_segments":[],"categories_sizes":[],"default_left":[0,0,0,0,0,0,0,0,0,0,0],"id":57,"left_children":[1,3,5,-1,-1,7,-1,-1,9,-1,-1],"loss_changes":[3.0416082E1,4.194415E0,1.991087E0,0E0,0E0,9.510831E-1,0E0,0E0,7.751186E-1,0E0,0E0],"parents":[2147483647,0,0,1,1,2,2,5,5,8,8],"right_children":[2,4,6,-1,-1,8,-1,-1,10,-1,-1],"split_conditions":[3.7498313E-1,2.3436446E-1,4.6872893E-1,-8.8866655E-4,-1.4990552E-4,1E0,8.234038E-4,-1.412921E-4,4.8290476E-1,9.111028E-4,6.542832E-5],"split_indices":[2,2,2,0,0,11,0,0,1,0,0],"split_type":[0,0,0,0,0,0,0,0,0,0,0],"sum_hessian":[2.91E2,1.52E2,1.39E2,1.04E2,4.8E1,3.4E1,1.05E2,1.5E1,1.9E1,1.1E1,8E0],"tree_param":{"num_deleted":"0","num_feature":"12","num_nodes":"11","size_leaf_vector":"1"}},{"base_weights":[2.4410246E-3,-7.5996673E-4,3.4086117E-1,1.7450774E-1,3.7842482E-1,5.3348546E-3,1.0990301E-3,3.1478316E-1,1.0486116E-3,1.9462865E-4,-9.681714E-4,7.182302E-4,-8.2229046E-5],"categories":[],"categories_nodes":[],"categories_segments":[],"categories_sizes":[],"default_left":[0,0,0,0,0,0,0,0,0,0,0,0,0],"id":58,"left_children":[1,-1,3,5,7,9,-1,11,-1,-1,-1,-1,-1],"loss_changes":[3.6444683E1,0E0,9.498253E-1,1.6917269E0,1.0167122E0,7.993399E-1,0E0,9.610472E-1,0E0,0E0,0E0,0E0,0E0],"parents":[2147483647,0,0,2,2,3,3,4,4,5,5,7,7],"right_children":[2,-1,4,6,8,10,-1,12,-1,-1,-1,-1,-1],"split_conditions":[3.2811025E-1,-7.5996673E-4,4.2185605E-1,5.8685523E-1,6.452714E-1,5.3322023E-1,1.0990301E-3,1E0,1.0486116E-3,1.9462865E-4,-9.681714E-4,7.182302E-4,-8.2229046E-5],"split_indices":[2,0,2,1,1,1,0,9,0,0,0,0,0],"split_type":[0,0,0,0,0,0,0,0,0,0,0,0,0],"sum_hessian":[2.91E2,1.39E2,1.52E2,2.8E1,1.24E2,1.9E1,9E0,8.3E1,4.1E1,1.6E1,3E0,7.6E1,7E0],"tree_param":{"num_deleted":"0","num_feature":"12","num_nodes":"13","size_leaf_vector":"1"}},{"base_weights":[1.2750302E-2,-3.8754123E-1,2.1915065E-1,-9.681745E-4,-4.670336E-4,3.8925762E-5,7.3636364E-4],"categories":[],"categories_nodes":[],"categories_segments":[],"categories_sizes":[],"default_left":[0,0,0,0,0,0,0],"id":59,"left_children":[1,3,5,-1,-1,-1,-1],"loss_changes":[2.4042513E1,1.2929287E0,5.271593E0,0E0,0E0,0E0,0E0],"parents":[2147483647,0,0,1,1,2,2],"right_children":[2,4,6,-1,-1,-1,-1],"split_conditions":[2.3436446E-1,1.4061868E-1,4.6872893E-1,-9.681745E-4,-4.670336E-4,3.8925762E-5,7.3636364E-4],"split_indices":[2,2,2,0,0,0,0],"split_type":[0,0,0,0,0,0,0],"sum_hessian":[2.91E2,9.9E1,1.92E2,6.6E1,3.3E1,7.8E1,1.14E2],"tree_param":{"num_deleted":"0","num_feature":"12","num_nodes":"7","size_leaf_vector":"1"}},{"base_weights":[-2.0730305E-2,-2.874983E-1,7.734871E-4,-9.464144E-4,-1.1351064E-1,-8.9039E-2,-9.6817303E-4,-2.9851627E-4,3.2382898E-4],"categories":[],"categories_nodes":[],"categories_segments":[],"categories_sizes":[],"default_left":[0,0,0,0,0,0,0,0,0],"id":60,"left_children":[1,3,-1,-1,5,7,-1,-1,-1],"loss_changes":[3.3184258E1,5.571269E0,0E0,0E0,8.075619E-1,1.1834626E0,0E0,0E0,0E0],"parents":[2147483647,0,0,1,1,4,4,5,5],"right_children":[2,4,-1,-1,6,8,-1,-1,-1],"split_conditions":[4.2185605E-1,1.8749157E-1,7.734871E-4,-9.464144E-4,8.605001E-1,6.943578E-1,-9.6817303E-4,-2.9851627E-4,3.2382898E-4],"split_indices":[2,2,0,0,1,1,0,0,0],"split_type":[0,0,0,0,0,0,0,0,0],"sum_hessian":[3.15E2,1.88E2,1.27E2,9.5E1,9.3E1,8.7E1,6E0,7.1E1,1.6E1],"tree_param":{"num_deleted":"0","num_feature":"12","num_nodes":"9","size_leaf_vector":"1"}},{"base_weights":[-7.440996E-2,-3.9042726E-1,2.0210518E-1,-9.312601E-4,-2.3025407E-1,1.0370999E-4,6.8559014E-4,-2.918787E-1,6.542832E-5,-7.014381E-4,4.099614E-4],"categories":[],"categories_nodes":[],"categories_segments":[],"categories_sizes":[],"default_left":[0,0,0,0,0,0,0,0,0,0,0],"id":61,"left_children":[1,3,5,-1,7,-1,-1,9,-1,-1,-1],"loss_changes":[2.8836576E1,1.4816017E0,3.4641418E0,0E0,6.77871E-1,0E0,0E0,7.906382E-1,0E0,0E0,0E0],"parents":[2147483647,0,0,1,1,2,2,4,4,7,7],"right_children":[2,4,6,-1,8,-1,-1,10,-1,-1,-1],"split_conditions":[2.8123736E-1,1.8749157E-1,5.624747E-1,-9.312601E-4,1E0,1.0370999E-4,6.8559014E-4,1E0,6.542832E-5,-7.014381E-4,4.099614E-4],"split_indices":[2,2,2,0,5,0,0,7,0,0,0],"split_type":[0,0,0,0,0,0,0,0,0,0,0],"sum_hessian":[3.3E2,1.54E2,1.76E2,1.12E2,4.2E1,8.1E1,9.5E1,3.4E1,8E0,3.1E1,3E0],"tree_param":{"num_deleted":"0","num_feature":"12","num_nodes":"11","size_leaf_vector":"1"}},{"base_weights":[-4.2232513E-2,-2.839918E-1,7.114302E-4,-9.452055E-4,-1.0879878E-1,-1.6984187E-1,7.710516E-2,-2.298867E-4,-9.681737E-4,4.0996252E-4,-9.681722E-4],"categories":[],"categories_nodes":[],"categories_segments":[],"categories_sizes":[],"default_left":[0,0,0,0,0,0,0,0,0,0,0],"id":62,"left_children":[1,3,-1,-1,5,7,9,-1,-1,-1,-1],"loss_changes":[2.7182812E1,5.43293E0,0E0,0E0,1.0099857E0,1.1727059E0,1.4545431E0,0E0,0E0,0E0,0E0],"parents":[2147483647,0,0,1,1,4,4,5,5,6,6],"right_children":[2,4,-1,-1,6,8,10,-1,-1,-1,-1],"split_conditions":[4.2185605E-1,1.8749157E-1,7.114302E-4,-9.452055E-4,6.3637584E-1,5.4802555E-1,1E0,-2.298867E-4,-9.681737E-4,4.0996252E-4,-9.681722E-4],"split_indices":[2,2,0,0,1,1,7,0,0,0,0],"split_type":[0,0,0,0,0,0,0,0,0,0,0],"sum_hessian":[2.91E2,1.79E2,1.12E2,9E1,8.9E1,6.7E1,2.2E1,5.6E1,1.1E1,1.8E1,4E0],"tree_param":{"num_deleted":"0","num_feature":"12","num_nodes":"11","size_leaf_vector":"1"}},{"base_weights":[-4.5812377E-3,-7.6145394E-4,2.752404E-1,1.5609531E-4,8.0669916E-4],"categories":[],"categories_nodes":[],"categories_segments":[],"categories_sizes":[],"default_left":[0,0,0,0,0],"id":63,"left_children":[1,-1,3,-1,-1],"loss_changes":[2.8094091E1,0E0,3.5830364E0,0E0,0E0],"parents":[2147483647,0,0,2,2],"right_children":[2,-1,4,-1,-1],"split_conditions":[2.8123736E-1,-7.6145394E-4,4.6872893E-1,1.5609531E-4,8.0669916E-4],"split_indices":[2,0,2,0,0],"split_type":[0,0,0,0,0],"sum_hessian":[2.76E2,1.2E2,1.56E2,5.7E1,9.9E1],"tree_param":{"num_deleted":"0","num_feature":"12","num_nodes":"5","size_leaf_vector":"1"}},{"base_weights":[-4.8994515E-2,-6.19634E-4,3.5408053E-1,3.1816748E-1,1.0990308E-3,7.4173644E-4,-9.334924E-2,-9.681727E-4,1.0990277E-3],"categories":[],"categories_nodes":[],"categories_segments":[],"categories_sizes":[],"default_left":[0,0,0,0,0,0,0,0,0],"id":64,"left_children":[1,-1,3,5,-1,-1,7,-1,-1],"loss_changes":[2.819885E1,0E0,6.823454E-1,1.4885731E0,0E0,0E0,1.8749951E0,0E0,0E0],"parents":[2147483647,0,0,2,2,3,3,6,6],"right_children":[2,-1,4,6,-1,-1,8,-1,-1],"split_conditions":[4.6872893E-1,-6.19634E-4,7.565547E-1,1E0,1.0990308E-3,7.4173644E-4,7.030934E-1,-9.681727E-4,1.0990277E-3],"split_indices":[2,0,1,10,0,0,2,0,0],"split_type":[0,0,0,0,0,0,0,0,0],"sum_hessian":[2.79E2,1.72E2,1.07E2,8.9E1,1.8E1,8.1E1,8E0,5E0,3E0],"tree_param":{"num_deleted":"0","num_feature":"12","num_nodes":"9","size_leaf_vector":"1"}},{"base_weights":[-2.5959287E-3,-2.8011405E-1,3.8410965E-1,-9.464144E-4,-5.5016015E-2,2.8549677E-1,1.0264977E-3,-9.153775E-2,3.6498338E-1,9.19274E-4,1.9831727E-1,6.855888E-4,-2.5757248E-4,-9.6816494E-4,1.0990292E-3,-9.681697E-4,4.7886948E-4],"categories":[],"categories_nodes":[],"categories_segments":[],"categories_sizes":[],"default_left":[0,0,0,0,0,0,0,0,0,0,0,0,0,0,0,0,0],"id":65,"left_children":[1,3,5,-1,7,9,-1,11,13,-1,15,-1,-1,-1,-1,-1,-1],"loss_changes":[3.13368E1,6.80033E0,1.3528976E0,0E0,1.1504334E0,9.021168E-1,0E0,9.653975E-1,8.333298E-1,0E0,9.333309E-1,0E0,0E0,0E0,0E0,0E0,0E0],"parents":[2147483647,0,0,1,1,2,2,4,4,5,5,7,7,8,8,10,10],"right_children":[2,4,6,-1,8,10,-1,12,14,-1,16,-1,-1,-1,-1,-1,-1],"split_conditions":[4.2185605E-1,1.8749157E-1,7.030934E-1,-9.464144E-4,1E0,4.485334E-1,1.0264977E-3,1.5946066E-1,1E0,9.19274E-4,1.5946066E-1,6.855888E-4,-2.5757248E-4,-9.6816494E-4,1.0990292E-3,-9.681697E-4,4.7886948E-4],"split_indices":[2,2,2,0,5,1,0,0,11,0,0,0,0,0,0,0,0],"split_type":[0,0,0,0,0,0,0,0,0,0,0,0,0,0,0,0,0],"sum_hessian":[2.92E2,1.7E2,1.22E2,9.5E1,7.5E1,6.5E1,5.7E1,6.9E1,6E0,2.3E1,4.2E1,5E0,6.4E1,1E0,5E0,2E0,4E1],"tree_param":{"num_deleted":"0","num_feature":"12","num_nodes":"17","size_leaf_vector":"1"}},{"base_weights":[-1.4741106E-2,-3.5146624E-1,3.6376742E-1,-9.1127894E-4,-2.7910588E-4,-1.4129191E-4,3.8013548E-1,3.205395E-1,1.049812E-3,7.32691E-4,1.5939218E-4],"categories":[],"categories_nodes":[],"categories_segments":[],"categories_sizes":[],"default_left":[0,0,0,0,0,0,0,0,0,0,0],"id":66,"left_children":[1,3,5,-1,-1,-1,7,9,-1,-1,-1],"loss_changes":[3.7088917E1,2.978672E0,9.689884E-1,0E0,0E0,0E0,1.0046158E0,7.426281E-1,0E0,0E0,0E0],"parents":[2147483647,0,0,1,1,2,2,6,6,7,7],"right_children":[2,4,6,-1,-1,-1,8,10,-1,-1,-1],"split_conditions":[3.7498313E-1,2.3436446E-1,1.5946066E-1,-9.1127894E-4,-2.7910588E-4,-1.4129191E-4,6.4348686E-1,5.9290135E-1,1.049812E-3,7.32691E-4,1.5939218E-4],"split_indices":[2,2,0,0,0,0,1,1,0,0,0],"split_type":[0,0,0,0,0,0,0,0,0,0,0],"sum_hessian":[2.91E2,1.54E2,1.37E2,1.09E2,4.5E1,5E0,1.32E2,9E1,4.2E1,7.9E1,1.1E1],"tree_param":{"num_deleted":"0","num_feature":"12","num_nodes":"11","size_leaf_vector":"1"}},{"base_weights":[-1.2793798E-2,-3.7512898E-1,2.6849273E-1,-9.444135E-4,-3.0133387E-4,4.889201E-2,6.62061E-4,1.9831721E-1,-1.9562191E-1,5.822296E-4,-9.681697E-4,-9.6817326E-4,5.822285E-4],"categories":[],"categories_nodes":[],"categories_segments":[],"categories_sizes":[],"default_left":[0,0,0,0,0,0,0,0,0,0,0,0,0],"id":67,"left_children":[1,3,5,-1,-1,7,-1,9,11,-1,-1,-1,-1],"loss_changes":[2.7518406E1,2.2118778E0,1.728241E0,0E0,0E0,1.0595604E0,0E0,9.9999756E-1,1.4318156E0,0E0,0E0,0E0,0E0],"parents":[2147483647,0,0,1,1,2,2,5,5,7,7,8,8],"right_children":[2,4,6,-1,-1,8,-1,10,12,-1,-1,-1,-1],"split_conditions":[2.8123736E-1,1.8749157E-1,3.7498313E-1,-9.444135E-4,-3.0133387E-4,4.981525E-1,6.62061E-4,8.323676E-1,6.850138E-1,5.822296E-4,-9.681697E-4,-9.6817326E-4,5.822285E-4],"split_indices":[2,2,2,0,0,1,0,0,1,0,0,0,0],"split_type":[0,0,0,0,0,0,0,0,0,0,0,0,0],"sum_hessian":[2.7E2,1.18E2,1.52E2,8.7E1,3.1E1,2.9E1,1.23E2,1.8E1,1.1E1,1.6E1,2E0,7E0,4E0],"tree_param":{"num_deleted":"0","num_feature":"12","num_nodes":"13","size_leaf_vector":"1"}},{"base_weights":[-3.877189E-2,-5.8387667E-2,1.8382448E-1,-3.0981275E-1,3.6670217E-1,-6.728585E-4,4.066504E-1,-9.2323526E-4,-1.3501601E-1,4.3219063E-4,9.111035E-4,1.0990306E-3,6.542825E-5,-3.5447278E-4,3.2382875E-4],"categories":[],"categories_nodes":[],"categories_segments":[],"categories_sizes":[],"default_left":[0,0,0,0,0,0,0,0,0,0,0,0,0,0,0],"id":68,"left_children":[1,3,5,7,9,-1,11,-1,13,-1,-1,-1,-1,-1,-1],"loss_changes":[1.2400582E0,2.7895226E1,2.6102462E0,3.921526E0,1.1320848E0,0E0,7.4999905E-1,0E0,7.656245E-1,0E0,0E0,0E0,0E0,0E0,0E0],"parents":[2147483647,0,0,1,1,2,2,3,3,4,4,6,6,8,8],"right_children":[2,4,6,8,10,-1,12,-1,14,-1,-1,-1,-1,-1,-1],"split_conditions":[8.6796635E-1,4.2185605E-1,2.3436446E-1,1.8749157E-1,5.624747E-1,-6.728585E-4,9.771636E-1,-9.2323526E-4,1E0,4.3219063E-4,9.111035E-4,1.0990306E-3,6.542825E-5,-3.5447278E-4,3.2382875E-4],"split_indices":[1,2,2,2,2,0,1,0,9,0,0,0,0,0,0],"split_type":[0,0,0,0,0,0,0,0,0,0,0,0,0,0,0],"sum_hessian":[2.84E2,2.61E2,2.3E1,1.64E2,9.7E1,7E0,1.6E1,9.2E1,7.2E1,3.1E1,6.6E1,1.2E1,4E0,6.4E1,8E0],"tree_param":{"num_deleted":"0","num_feature":"12","num_nodes":"15","size_leaf_vector":"1"}},{"base_weights":[2.6424166E-2,-1.9461913E-3,4.910295E-4,-4.1174555E-1,2.935554E-1,-9.681745E-4,-2.865311E-1,6.4983964E-2,8.152972E-4,-7.384848E-4,6.54283E-5,8.693409E-4,-4.9416358E-5],"categories":[],"categories_nodes":[],"categories_segments":[],"categories_sizes":[],"default_left":[0,0,0,0,0,0,0,0,0,0,0,0,0],"id":69,"left_children":[1,3,-1,5,7,-1,9,11,-1,-1,-1,-1,-1],"loss_changes":[1.7189093E0,3.0637384E1,0E0,7.5128365E-1,3.388235E0,0E0,7.42424E-1,1.4222206E0,0E0,0E0,0E0,0E0,0E0],"parents":[2147483647,0,0,1,1,3,3,4,4,6,6,7,7],"right_children":[2,4,-1,6,8,-1,10,12,-1,-1,-1,-1,-1],"split_conditions":[1E0,2.8123736E-1,4.910295E-4,1.4061868E-1,4.2185605E-1,-9.681745E-4,1E0,2.5522164E-1,8.152972E-4,-7.384848E-4,6.54283E-5,8.693409E-4,-4.9416358E-5],"split_indices":[7,2,0,2,2,0,5,1,0,0,0,0,0],"split_type":[0,0,0,0,0,0,0,0,0,0,0,0,0],"sum_hessian":[2.87E2,2.53E2,3.4E1,1.06E2,1.47E2,7.3E1,3.3E1,4.5E1,1.02E2,2.7E1,6E0,9E0,3.6E1],"tree_param":{"num_deleted":"0","num_feature":"12","num_nodes":"13","size_leaf_vector":"1"}},{"base_weights":[-1.673645E-2,9.752836E-3,-4.5137297E-4,-4.0412915E-1,2.8316578E-1,-9.2323526E-4,-1.742316E-1,3.3045476E-4,8.1389945E-4,-9.6817303E-4,-2.8535478E-5],"categories":[],"categories_nodes":[],"categories_segments":[],"categories_sizes":[],"default_left":[0,0,0,0,0,0,0,0,0,0,0],"id":70,"left_children":[1,3,-1,5,7,-1,9,-1,-1,-1,-1],"loss_changes":[1.6555799E0,3.1006033E1,0E0,1.0645237E0,2.2493439E0,0E0,8.0213726E-1,0E0,0E0,0E0,0E0],"parents":[2147483647,0,0,1,1,3,3,4,4,6,6],"right_children":[2,4,-1,6,8,-1,10,-1,-1,-1,-1],"split_conditions":[1E0,2.8123736E-1,-4.5137297E-4,2.3436446E-1,5.624747E-1,-9.2323526E-4,3.83763E-1,3.3045476E-4,8.1389945E-4,-9.6817303E-4,-2.8535478E-5],"split_indices":[3,2,0,2,2,0,0,0,0,0,0],"split_type":[0,0,0,0,0,0,0,0,0,0,0],"sum_hessian":[3.1E2,2.74E2,3.6E1,1.09E2,1.65E2,9.2E1,1.7E1,7.8E1,8.7E1,6E0,1.1E1],"tree_param":{"num_deleted":"0","num_feature":"12","num_nodes":"11","size_leaf_vector":"1"}},{"base_weights":[1.8493221E-3,-1.8709065E-2,2.3998389E-1,-2.808492E-1,-2.7004983E-3,-9.6817303E-4,9.841861E-4,-9.681738E-4,5.822285E-4,-4.0412915E-1,2.8328463E-1,-9.217204E-4,-4.5137288E-4,2.7214896E-4,8.499704E-4],"categories":[],"categories_nodes":[],"categories_segments":[],"categories_sizes":[],"default_left":[0,0,0,0,0,0,0,0,0,0,0,0,0,0,0],"id":71,"left_children":[1,3,5,7,9,-1,-1,-1,-1,11,13,-1,-1,-1,-1],"loss_changes":[1.4784902E0,1.1666236E0,4.013885E0,1.6874979E0,3.0078289E1,0E0,0E0,0E0,0E0,8.4540176E-1,2.9669104E0,0E0,0E0,0E0,0E0],"parents":[2147483647,0,0,1,1,2,2,3,3,4,4,9,9,10,10],"right_children":[2,4,6,8,10,-1,-1,-1,-1,12,14,-1,-1,-1,-1],"split_conditions":[8.43206E-1,1.4023352E-1,3.7498313E-1,2.3436446E-1,2.8123736E-1,-9.6817303E-4,9.841861E-4,-9.681738E-4,5.822285E-4,1.8749157E-1,5.624747E-1,-9.217204E-4,-4.5137288E-4,2.7214896E-4,8.499704E-4],"split_indices":[1,1,2,2,2,0,0,0,0,2,2,0,0,0,0],"split_type":[0,0,0,0,0,0,0,0,0,0,0,0,0,0,0],"sum_hessian":[3.02E2,2.78E2,2.4E1,1.6E1,2.62E2,6E0,1.8E1,1.2E1,4E0,1.09E2,1.53E2,8.9E1,2E1,7E1,8.3E1],"tree_param":{"num_deleted":"0","num_feature":"12","num_nodes":"15","size_leaf_vector":"1"}},{"base_weights":[5.334857E-3,-3.145032E-1,3.4246144E-1,-9.091115E-4,-5.6584638E-2,8.9569954E-4,2.7877706E-1,-2.074797E-1,6.736491E-2,1.0307917E-1,3.346809E-1,-1.9297223E-4,-9.6817326E-4,4.0996252E-4,-3.4801246E-4,6.2198343E-4,-4.5137253E-4,6.542834E-5,8.0371613E-4],"categories":[],"categories_nodes":[],"categories_segments":[],"categories_sizes":[],"default_left":[0,0,0,0,0,0,0,0,0,0,0,0,0,0,0,0,0,0,0],"id":72,"left_children":[1,3,5,-1,7,-1,9,11,13,15,17,-1,-1,-1,-1,-1,-1,-1,-1],"loss_changes":[3.2779076E1,5.0404673E0,8.560848E-1,0E0,9.5387244E-1,0E0,8.5453033E-1,6.847808E-1,8.642851E-1,1.3351637E0,1.0822496E0,0E0,0E0,0E0,0E0,0E0,0E0,0E0,0E0],"parents":[2147483647,0,0,1,1,2,2,4,4,6,6,7,7,8,8,9,9,10,10],"right_children":[2,4,6,-1,8,-1,10,12,14,16,18,-1,-1,-1,-1,-1,-1,-1,-1],"split_conditions":[3.7498313E-1,2.3436446E-1,4.9591413E-1,-9.091115E-4,1E0,8.9569954E-4,2.8750074E-1,6.0422087E-1,8.323676E-1,2.1373187E-1,4.2185605E-1,-1.9297223E-4,-9.6817326E-4,4.0996252E-4,-3.4801246E-4,6.2198343E-4,-4.5137253E-4,6.542834E-5,8.0371613E-4],"split_indices":[2,2,0,0,11,0,1,1,0,1,2,0,0,0,0,0,0,0,0],"split_type":[0,0,0,0,0,0,0,0,0,0,0,0,0,0,0,0,0,0,0],"sum_hessian":[3.04E2,1.56E2,1.48E2,1.05E2,5.1E1,6.1E1,8.7E1,2.3E1,2.8E1,2.1E1,6.6E1,1.6E1,7E0,1.8E1,1E1,1.3E1,8E0,1E1,5.6E1],"tree_param":{"num_deleted":"0","num_feature":"12","num_nodes":"19","size_leaf_vector":"1"}},{"base_weights":[-5.479003E-2,-9.147123E-4,1.964551E-1,2.2591816E-1,-1.3803893E-2,3.165064E-2,6.546787E-4,-9.681722E-4,8.7206155E-2,4.345722E-4,-4.0439097E-4,-2.7910568E-4,1.0990296E-3],"categories":[],"categories_nodes":[],"categories_segments":[],"categories_sizes":[],"default_left":[0,0,0,0,0,0,0,0,0,0,0,0,0],"id":73,"left_children":[1,-1,3,5,7,9,-1,-1,11,-1,-1,-1,-1],"loss_changes":[2.873508E1,0E0,1.108882E0,2.7687654E0,1.0100988E0,2.02922E0,0E0,0E0,1.777775E0,0E0,0E0,0E0,0E0],"parents":[2147483647,0,0,2,2,3,3,4,4,5,5,8,8],"right_children":[2,-1,4,6,8,10,-1,-1,12,-1,-1,-1,-1],"split_conditions":[2.3436446E-1,-9.147123E-4,1E0,4.2185605E-1,2.7161184E-1,3.2811025E-1,6.546787E-4,-9.681722E-4,5.156018E-1,4.345722E-4,-4.0439097E-4,-2.7910568E-4,1.0990296E-3],"split_indices":[2,0,3,2,0,2,0,0,2,0,0,0,0],"split_type":[0,0,0,0,0,0,0,0,0,0,0,0,0],"sum_hessian":[2.95E2,1.16E2,1.79E2,1.57E2,2.2E1,5E1,1.07E2,4E0,1.8E1,2.8E1,2.2E1,1.2E1,6E0],"tree_param":{"num_deleted":"0","num_feature":"12","num_nodes":"13","size_leaf_vector":"1"}},{"base_weights":[-8.54228E-3,-7.045711E-4,2.9708272E-1,2.6157764E-1,1.0163428E-3,1.6545445E-4,3.146695E-1,8.605075E-4,4.4824425E-4],"categories":[],"categories_nodes":[],"categories_segments":[],"categories_sizes":[],"default_left":[0,0,0,0,0,0,0,0,0],"id":74,"left_children":[1,-1,3,5,-1,-1,7,-1,-1],"loss_changes":[3.1583988E1,0E0,1.1191177E0,1.320446E0,0E0,0E0,1.0535917E0,0E0,0E0],"parents":[2147483647,0,0,2,2,3,3,6,6],"right_children":[2,-1,4,6,-1,-1,8,-1,-1],"split_conditions":[3.2811025E-1,-7.045711E-4,7.634426E-1,4.6872893E-1,1.0163428E-3,1.6545445E-4,4.6924174E-1,8.605075E-4,4.4824425E-4],"split_indices":[2,0,1,2,0,0,1,0,0],"split_type":[0,0,0,0,0,0,0,0,0],"sum_hessian":[3.11E2,1.49E2,1.62E2,1.37E2,2.5E1,3.1E1,1.06E2,5.2E1,5.4E1],"tree_param":{"num_deleted":"0","num_feature":"12","num_nodes":"9","size_leaf_vector":"1"}},{"base_weights":[2.1846725E-2,-3.6834934E-1,3.5092774E-1,-9.681745E-4,-2.2273529E-1,2.130859E-4,8.293958E-4,-5.3913175E-4,2.8164995E-1,-9.6816494E-4,1.0990277E-3],"categories":[],"categories_nodes":[],"categories_segments":[],"categories_sizes":[],"default_left":[0,0,0,0,0,0,0,0,0,0,0],"id":75,"left_children":[1,3,5,-1,7,-1,-1,-1,9,-1,-1],"loss_changes":[3.9292274E1,2.038597E0,2.0689945E0,0E0,1.0944211E0,0E0,0E0,0E0,7.499958E-1,0E0,0E0],"parents":[2147483647,0,0,1,1,2,2,4,4,8,8],"right_children":[2,4,6,-1,8,-1,-1,-1,10,-1,-1],"split_conditions":[2.8123736E-1,1.4061868E-1,3.7498313E-1,-9.681745E-4,1E0,2.130859E-4,8.293958E-4,-5.3913175E-4,1.5946066E-1,-9.6816494E-4,1.0990277E-3],"split_indices":[2,2,2,0,4,0,0,0,0,0,0],"split_type":[0,0,0,0,0,0,0,0,0,0,0],"sum_hessian":[3.06E2,1.4E2,1.66E2,8.3E1,5.7E1,2.8E1,1.38E2,5.3E1,4E0,1E0,3E0],"tree_param":{"num_deleted":"0","num_feature":"12","num_nodes":"11","size_leaf_vector":"1"}},{"base_weights":[-1.1682686E-2,-3.3733968E-2,1.3165061E-1,-9.2953513E-4,2.5714085E-1,-8.2051643E-4,8.605073E-4,1.5402293E-4,8.499704E-4],"categories":[],"categories_nodes":[],"categories_segments":[],"categories_sizes":[],"default_left":[0,0,0,0,0,0,0,0,0],"id":76,"left_children":[1,3,5,-1,7,-1,-1,-1,-1],"loss_changes":[9.48205E-1,3.1455254E1,6.01758E0,0E0,4.303978E0,0E0,0E0,0E0,0E0],"parents":[2147483647,0,0,1,1,2,2,4,4],"right_children":[2,4,6,-1,8,-1,-1,-1,-1],"split_conditions":[8.323676E-1,2.3436446E-1,2.8123736E-1,-9.2953513E-4,5.156018E-1,-8.2051643E-4,8.605073E-4,1.5402293E-4,8.499704E-4],"split_indices":[0,2,2,0,2,0,0,0,0],"split_type":[0,0,0,0,0,0,0,0,0],"sum_hessian":[3E2,2.6E2,4E1,1.07E2,1.53E2,1.4E1,2.6E1,7E1,8.3E1],"tree_param":{"num_deleted":"0","num_feature":"12","num_nodes":"9","size_leaf_vector":"1"}},{"base_weights":[-1.5717775E-2,-4.334935E-2,1.3165063E-1,-3.9287764E-1,2.3314318E-1,-3.25492E-1,3.3810216E-1,-9.681744E-4,-6.1630964E-4,5.6240804E-2,7.875345E-4,-3.91426E-1,1.0990205E-3,8.605073E-4,-6.834922E-2,-2.10199E-4,4.3219063E-4,-9.681738E-4,1.0990205E-3,1.0990258E-3,-9.681714E-4],"categories":[],"categories_nodes":[],"categories_segments":[],"categories_sizes":[],"default_left":[0,0,0,0,0,0,0,0,0,0,0,0,0,0,0,0,0,0,0,0,0],"id":77,"left_children":[1,3,5,7,9,11,13,-1,-1,15,-1,17,-1,-1,19,-1,-1,-1,-1,-1,-1],"loss_changes":[1.1605262E0,2.319407E1,4.247003E0,7.5792503E-1,3.5041213E0,7.912055E-1,9.848633E-1,0E0,0E0,1.4722542E0,0E0,9.230734E-1,0E0,0E0,1.1999952E0,0E0,0E0,0E0,0E0,0E0,0E0],"parents":[2147483647,0,0,1,1,2,2,3,3,4,4,5,5,6,6,9,9,11,11,14,14],"right_children":[2,4,6,8,10,12,14,-1,-1,16,-1,18,-1,-1,20,-1,-1,-1,-1,-1,-1],"split_conditions":[7.804371E-1,2.8123736E-1,2.3436446E-1,1.4061868E-1,5.624747E-1,1E0,9.771636E-1,-9.681744E-4,-6.1630964E-4,1E0,7.875345E-4,1E0,1.0990205E-3,8.605073E-4,3.83763E-1,-2.10199E-4,4.3219063E-4,-9.681738E-4,1.0990205E-3,1.0990258E-3,-9.681714E-4],"split_indices":[1,2,2,2,2,6,1,0,0,11,0,5,0,0,0,0,0,0,0,0,0],"split_type":[0,0,0,0,0,0,0,0,0,0,0,0,0,0,0,0,0,0,0,0,0],"sum_hessian":[2.85E2,2.4E2,4.5E1,1.06E2,1.34E2,1.4E1,3.1E1,5.9E1,4.7E1,6.1E1,7.3E1,1.3E1,1E0,2.6E1,5E0,3E1,3.1E1,1.2E1,1E0,2E0,3E0],"tree_param":{"num_deleted":"0","num_feature":"12","num_nodes":"21","size_leaf_vector":"1"}},{"base_weights":[-1.1601948E-2,-1.1120649E-1,2.9211622E-2,-7.959073E-4,2.538728E-1,-3.8401198E-1,3.1033915E-1,-1.3803887E-2,3.7165052E-1,-9.681744E-4,-5.01386E-4,6.498396E-2,8.069261E-4,-2.7910562E-4,1.0990258E-3,-9.6816494E-4,8.406303E-4,9.267635E-4,-3.939505E-4],"categories":[],"categories_nodes":[],"categories_segments":[],"categories_sizes":[],"default_left":[0,0,0,0,0,0,0,0,0,0,0,0,0,0,0,0,0,0,0],"id":78,"left_children":[1,3,5,-1,7,9,11,13,15,-1,-1,17,-1,-1,-1,-1,-1,-1,-1],"loss_changes":[1.1748477E0,8.396824E0,2.3814552E1,0E0,1.1349487E0,9.902811E-1,2.3948793E0,7.272698E-1,7.34998E-1,0E0,0E0,2.938887E0,0E0,0E0,0E0,0E0,0E0,0E0,0E0],"parents":[2147483647,0,0,1,1,2,2,4,4,5,5,6,6,7,7,8,8,11,11],"right_children":[2,4,6,-1,8,10,12,14,16,-1,-1,18,-1,-1,-1,-1,-1,-1,-1],"split_conditions":[3.552754E-1,2.8123736E-1,2.8123736E-1,-7.959073E-4,4.2185605E-1,1.4061868E-1,4.2185605E-1,7.2021645E-1,1.5946066E-1,-9.681744E-4,-5.01386E-4,4.794251E-1,8.069261E-4,-2.7910562E-4,1.0990258E-3,-9.6816494E-4,8.406303E-4,9.267635E-4,-3.939505E-4],"split_indices":[1,2,2,0,2,2,2,0,0,0,0,1,0,0,0,0,0,0,0],"split_type":[0,0,0,0,0,0,0,0,0,0,0,0,0,0,0,0,0,0,0],"sum_hessian":[2.89E2,8.4E1,2.05E2,4.8E1,3.6E1,8.3E1,1.22E2,1.1E1,2.5E1,5.2E1,3.1E1,3E1,9.2E1,9E0,2E0,1E0,2.4E1,1.2E1,1.8E1],"tree_param":{"num_deleted":"0","num_feature":"12","num_nodes":"19","size_leaf_vector":"1"}},{"base_weights":[4.4286024E-2,-9.4729365E-4,3.2378548E-1,4.8892017E-2,9.439909E-4,1.0027808E-1,-6.728585E-4,3.1808682E-4,-6.2363927E-4],"categories":[],"categories_nodes":[],"categories_segments":[],"categories_sizes":[],"default_left":[0,0,0,0,0,0,0,0,0],"id":79,"left_children":[1,-1,3,5,-1,7,-1,-1,-1],"loss_changes":[3.8906887E1,0E0,6.501232E0,1.1158108E0,0E0,1.0986919E0,0E0,0E0,0E0],"parents":[2147483647,0,0,2,2,3,3,5,5],"right_children":[2,-1,4,6,-1,8,-1,-1,-1],"split_conditions":[2.3436446E-1,-9.4729365E-4,4.2185605E-1,1E0,9.439909E-4,1E0,-6.728585E-4,3.1808682E-4,-6.2363927E-4],"split_indices":[2,0,2,8,0,7,0,0,0],"split_type":[0,0,0,0,0,0,0,0,0],"sum_hessian":[2.77E2,9.9E1,1.78E2,5.8E1,1.2E2,5.1E1,7E0,4.5E1,6E0],"tree_param":{"num_deleted":"0","num_feature":"12","num_nodes":"9","size_leaf_vector":"1"}},{"base_weights":[3.9390586E-2,-8.687896E-4,2.5767803E-1,8.40316E-2,4.1761553E-1,-7.704499E-2,2.0961672E-1,3.4593633E-1,1.0990312E-3,1.6878863E-4,-4.1161897E-4,5.08401E-4,-9.681714E-4,7.940337E-4,1.80273E-4],"categories":[],"categories_nodes":[],"categories_segments":[],"categories_sizes":[],"default_left":[0,0,0,0,0,0,0,0,0,0,0,0,0,0,0],"id":80,"left_children":[1,-1,3,5,7,9,11,13,-1,-1,-1,-1,-1,-1,-1],"loss_changes":[3.2409393E1,0E0,6.082196E0,2.1240268E0,9.3182564E-1,8.911369E-1,1.4527824E0,6.913605E-1,0E0,0E0,0E0,0E0,0E0,0E0,0E0],"parents":[2147483647,0,0,2,2,3,3,4,4,5,5,6,6,7,7],"right_children":[2,-1,4,6,8,10,12,14,-1,-1,-1,-1,-1,-1,-1],"split_conditions":[2.3436446E-1,-8.687896E-4,5.156018E-1,1E0,7.968392E-1,4.8482555E-1,8.43206E-1,1E0,1.0990312E-3,1.6878863E-4,-4.1161897E-4,5.08401E-4,-9.681714E-4,7.940337E-4,1.80273E-4],"split_indices":[2,0,2,11,2,1,1,10,0,0,0,0,0,0,0],"split_type":[0,0,0,0,0,0,0,0,0,0,0,0,0,0,0],"sum_hessian":[3.23E2,1.04E2,2.19E2,1.05E2,1.14E2,4.6E1,5.9E1,7E1,4.4E1,2E1,2.6E1,5.6E1,3E0,6.1E1,9E0],"tree_param":{"num_deleted":"0","num_feature":"12","num_nodes":"15","size_leaf_vector":"1"}},{"base_weights":[-3.928361E-2,-2.3977786E-1,-1.165644E-2,-9.6817414E-4,3.165063E-2,-3.718581E-1,2.8165063E-1,-9.681722E-4,4.099624E-4,-9.189553E-4,-3.4801266E-4,1.3165063E-1,8.923107E-4,3.9765786E-4,-2.2988657E-4],"categories":[],"categories_nodes":[],"categories_segments":[],"categories_sizes":[],"default_left":[0,0,0,0,0,0,0,0,0,0,0,0,0,0,0],"id":81,"left_children":[1,3,5,-1,7,9,11,-1,-1,-1,-1,13,-1,-1,-1],"loss_changes":[1.6007963E0,2.1714275E0,2.6835026E1,0E0,1.3333309E0,1.6862164E0,3.1499996E0,0E0,0E0,0E0,0E0,1.0321425E0,0E0,0E0,0E0],"parents":[2147483647,0,0,1,1,2,2,4,4,5,5,6,6,11,11],"right_children":[2,4,6,-1,8,10,12,-1,-1,-1,-1,14,-1,-1,-1],"split_conditions":[2.07716E-1,2.8123736E-1,2.8123736E-1,-9.6817414E-4,2.7161184E-1,1.8749157E-1,5.624747E-1,-9.681722E-4,4.099624E-4,-9.189553E-4,-3.4801266E-4,5.156018E-1,8.923107E-4,3.9765786E-4,-2.2988657E-4],"split_indices":[1,2,2,0,0,2,2,0,0,0,0,2,0,0,0],"split_type":[0,0,0,0,0,0,0,0,0,0,0,0,0,0,0],"sum_hessian":[2.89E2,3.5E1,2.54E2,1.9E1,1.6E1,1.14E2,1.4E2,4E0,1.2E1,8.4E1,3E1,7E1,7E1,5.6E1,1.4E1],"tree_param":{"num_deleted":"0","num_feature":"12","num_nodes":"15","size_leaf_vector":"1"}},{"base_weights":[7.5127156E-3,-2.984147E-1,3.4916887E-1,-9.681745E-4,-1.30687E-1,1.4140671E-1,9.0523076E-4,-5.1682677E-2,-5.404766E-4,-9.681714E-4,3.9182924E-4,-5.805731E-4,1.3002855E-4],"categories":[],"categories_nodes":[],"categories_segments":[],"categories_sizes":[],"default_left":[0,0,0,0,0,0,0,0,0,0,0,0,0],"id":82,"left_children":[1,3,5,-1,7,9,-1,11,-1,-1,-1,-1,-1],"loss_changes":[3.031138E1,4.36092E0,2.525608E0,0E0,7.954912E-1,1.2034636E0,0E0,1.2604159E0,0E0,0E0,0E0,0E0,0E0],"parents":[2147483647,0,0,1,1,2,2,4,4,5,5,7,7],"right_children":[2,4,6,-1,8,10,-1,12,-1,-1,-1,-1,-1],"split_conditions":[3.7498313E-1,1.4061868E-1,5.156018E-1,-9.681745E-4,6.080653E-1,2.4867626E-1,9.0523076E-4,2.3436446E-1,-5.404766E-4,-9.681714E-4,3.9182924E-4,-5.805731E-4,1.3002855E-4],"split_indices":[2,2,2,0,0,1,0,2,0,0,0,0,0],"split_type":[0,0,0,0,0,0,0,0,0,0,0,0,0],"sum_hessian":[2.9E2,1.53E2,1.37E2,7.6E1,7.7E1,4.1E1,9.6E1,4.8E1,2.9E1,3E0,3.8E1,1.6E1,3.2E1],"tree_param":{"num_deleted":"0","num_feature":"12","num_nodes":"13","size_leaf_vector":"1"}},{"base_weights":[-3.721163E-2,-9.082555E-4,2.4593635E-1,1.2769364E-4,7.8803574E-4],"categories":[],"categories_nodes":[],"categories_segments":[],"categories_sizes":[],"default_left":[0,0,0,0,0],"id":83,"left_children":[1,-1,3,-1,-1],"loss_changes":[3.803211E1,0E0,4.882822E0,0E0,0E0],"parents":[2147483647,0,0,2,2],"right_children":[2,-1,4,-1,-1],"split_conditions":[2.3436446E-1,-9.082555E-4,4.6872893E-1,1.2769364E-4,7.8803574E-4],"split_indices":[2,0,2,0,0],"split_type":[0,0,0,0,0],"sum_hessian":[3.34E2,1.38E2,1.96E2,8.3E1,1.13E2],"tree_param":{"num_deleted":"0","num_feature":"12","num_nodes":"5","size_leaf_vector":"1"}},{"base_weights":[1.3498832E-2,-4.0055272E-1,2.775966E-1,-9.4729365E-4,-9.992825E-2,5.7966426E-2,7.760304E-4,-2.1834922E-1,1.0990277E-3,2.0194198E-4,-9.681722E-4,-7.8024605E-4,2.7214846E-4],"categories":[],"categories_nodes":[],"categories_segments":[],"categories_sizes":[],"default_left":[0,0,0,0,0,0,0,0,0,0,0,0,0],"id":84,"left_children":[1,3,5,-1,7,9,-1,11,-1,-1,-1,-1,-1],"loss_changes":[3.3133076E1,2.0466747E0,3.9739332E0,0E0,1.4210496E0,1.1916562E0,0E0,8.909081E-1,0E0,0E0,0E0,0E0,0E0],"parents":[2147483647,0,0,1,1,2,2,4,4,5,5,7,7],"right_children":[2,4,6,-1,8,10,-1,12,-1,-1,-1,-1,-1],"split_conditions":[2.3436446E-1,1.8749157E-1,4.2185605E-1,-9.4729365E-4,1E0,7.0170516E-1,7.760304E-4,6.919682E-1,1.0990277E-3,2.0194198E-4,-9.681722E-4,-7.8024605E-4,2.7214846E-4],"split_indices":[2,2,2,0,8,1,0,1,0,0,0,0,0],"split_type":[0,0,0,0,0,0,0,0,0,0,0,0,0],"sum_hessian":[3.03E2,1.18E2,1.85E2,9.9E1,1.9E1,5.7E1,1.28E2,1.6E1,3E0,5.3E1,4E0,1.1E1,5E0],"tree_param":{"num_deleted":"0","num_feature":"12","num_nodes":"13","size_leaf_vector":"1"}},{"base_weights":[1.3378222E-2,4.6802163E-2,-2.2510606E-1,1.6882714E-2,6.39652E-4,-7.6812215E-4,1.0990296E-3,-3.3198568E-1,3.1905222E-1,-8.6973613E-4,-9.3587405E-5,4.6007676E-4,8.1191934E-4],"categories":[],"categories_nodes":[],"categories_segments":[],"categories_sizes":[],"default_left":[0,0,0,0,0,0,0,0,0,0,0,0,0],"id":85,"left_children":[1,3,5,7,-1,-1,-1,9,11,-1,-1,-1,-1],"loss_changes":[2.3992965E0,2.0744143E0,4.1011305E0,2.4983925E1,0E0,0E0,0E0,2.7988672E0,9.032774E-1,0E0,0E0,0E0,0E0],"parents":[2147483647,0,0,1,1,2,2,3,3,7,7,8,8],"right_children":[2,4,6,8,-1,-1,-1,10,12,-1,-1,-1,-1],"split_conditions":[1E0,7.9223305E-1,6.562205E-1,3.7498313E-1,6.39652E-4,-7.6812215E-4,1.0990296E-3,2.3436446E-1,5.624747E-1,-8.6973613E-4,-9.3587405E-5,4.6007676E-4,8.1191934E-4],"split_indices":[8,1,2,2,0,0,0,2,2,0,0,0,0],"split_type":[0,0,0,0,0,0,0,0,0,0,0,0,0],"sum_hessian":[3.01E2,2.64E2,3.7E1,2.37E2,2.7E1,3.1E1,6E0,1.1E2,1.27E2,8.4E1,2.6E1,5.5E1,7.2E1],"tree_param":{"num_deleted":"0","num_feature":"12","num_nodes":"13","size_leaf_vector":"1"}},{"base_weights":[-3.7531745E-2,-6.471299E-2,2.8176387E-4,-3.6905855E-1,2.5553122E-1,-8.7907084E-4,-1.08349316E-1,-1.4129205E-4,2.8165063E-1,1.0990277E-3,-4.0439097E-4,6.739984E-4,4.6282275E-6],"categories":[],"categories_nodes":[],"categories_segments":[],"categories_sizes":[],"default_left":[0,0,0,0,0,0,0,0,0,0,0,0,0],"id":86,"left_children":[1,3,-1,5,7,-1,9,-1,11,-1,-1,-1,-1],"loss_changes":[1.5025539E0,2.6802853E1,0E0,2.0654469E0,1.1335831E0,0E0,1.3963606E0,0E0,1.5380697E0,0E0,0E0,0E0,0E0],"parents":[2147483647,0,0,1,1,3,3,4,4,6,6,8,8],"right_children":[2,4,-1,6,8,-1,10,-1,12,-1,-1,-1,-1],"split_conditions":[1E0,3.7498313E-1,2.8176387E-4,2.8123736E-1,1.0201767E-1,-8.7907084E-4,3.83763E-1,-1.4129205E-4,1E0,1.0990277E-3,-4.0439097E-4,6.739984E-4,4.6282275E-6],"split_indices":[5,2,0,2,1,0,0,0,10,0,0,0,0],"split_type":[0,0,0,0,0,0,0,0,0,0,0,0,0],"sum_hessian":[3.18E2,2.75E2,4.3E1,1.41E2,1.34E2,1.16E2,2.5E1,1E1,1.24E2,3E0,2.2E1,1.07E2,1.7E1],"tree_param":{"num_deleted":"0","num_feature":"12","num_nodes":"13","size_leaf_vector":"1"}},{"base_weights":[-5.11519E-2,-4.1120648E-1,2.3854719E-1,-9.4729365E-4,-6.152369E-4,-2.6041657E-2,3.5132277E-1,-6.0186077E-2,1.0990277E-3,-2.79105E-4,7.5160176E-4,-4.1161897E-4,2.0024611E-4],"categories":[],"categories_nodes":[],"categories_segments":[],"categories_sizes":[],"default_left":[0,0,0,0,0,0,0,0,0,0,0,0,0],"id":87,"left_children":[1,3,5,-1,-1,7,9,11,-1,-1,-1,-1,-1],"loss_changes":[3.2752552E1,7.480793E-1,5.1920147E0,0E0,0E0,9.901856E-1,7.274637E-1,1.0691758E0,0E0,0E0,0E0,0E0,0E0],"parents":[2147483647,0,0,1,1,2,2,5,5,6,6,7,7],"right_children":[2,4,6,-1,-1,8,10,12,-1,-1,-1,-1,-1],"split_conditions":[2.8123736E-1,1.8749157E-1,4.2185605E-1,-9.4729365E-4,-6.152369E-4,7.9223305E-1,1.5946066E-1,6.080653E-1,1.0990277E-3,-2.79105E-4,7.5160176E-4,-4.1161897E-4,2.0024611E-4],"split_indices":[2,2,2,0,0,1,0,0,0,0,0,0,0],"split_type":[0,0,0,0,0,0,0,0,0,0,0,0,0],"sum_hessian":[3.14E2,1.4E2,1.74E2,9.9E1,4.1E1,5.2E1,1.22E2,4.9E1,3E0,3E0,1.19E2,2.6E1,2.3E1],"tree_param":{"num_deleted":"0","num_feature":"12","num_nodes":"13","size_leaf_vector":"1"}},{"base_weights":[-1.3803899E-2,-5.4370858E-2,5.4173164E-2,-9.151692E-4,2.2609508E-1,-8.533296E-4,2.7831727E-1,4.0741548E-2,4.1844302E-1,1.5234025E-1,3.5773754E-1,-2.0705173E-5,8.0371514E-4,-9.681697E-4,9.368975E-4,5.8222964E-4,-2.7910562E-4,7.774659E-4,-9.6816494E-4],"categories":[],"categories_nodes":[],"categories_segments":[],"categories_sizes":[],"default_left":[0,0,0,0,0,0,0,0,0,0,0,0,0,0,0,0,0,0,0],"id":88,"left_children":[1,3,5,-1,7,-1,9,11,13,15,17,-1,-1,-1,-1,-1,-1,-1,-1],"loss_changes":[8.19014E-1,2.025827E1,1.1618136E1,0E0,3.8504562E0,0E0,7.5038385E-1,9.7164345E-1,1.6344776E0,1.0775857E0,6.9758224E-1,0E0,0E0,0E0,0E0,0E0,0E0,0E0,0E0],"parents":[2147483647,0,0,1,1,2,2,4,4,6,6,7,7,8,8,9,9,10,10],"right_children":[2,4,6,-1,8,-1,10,12,14,16,18,-1,-1,-1,-1,-1,-1,-1,-1],"split_conditions":[6.080653E-1,2.3436446E-1,2.3436446E-1,-9.151692E-4,5.156018E-1,-8.533296E-4,4.2185605E-1,1E0,9.4626784E-2,8.323676E-1,1E0,-2.0705173E-5,8.0371514E-4,-9.681697E-4,9.368975E-4,5.8222964E-4,-2.7910562E-4,7.774659E-4,-9.6816494E-4],"split_indices":[0,2,2,0,2,0,2,9,1,0,8,0,0,0,0,0,0,0,0],"split_type":[0,0,0,0,0,0,0,0,0,0,0,0,0,0,0,0,0,0,0],"sum_hessian":[2.97E2,1.86E2,1.11E2,7.8E1,1.08E2,3.6E1,7.5E1,5.5E1,5.3E1,2.9E1,4.6E1,4.8E1,7E0,2E0,5.1E1,2E1,9E0,4.5E1,1E0],"tree_param":{"num_deleted":"0","num_feature":"12","num_nodes":"19","size_leaf_vector":"1"}},{"base_weights":[-3.1040484E-2,-4.9335267E-2,8.9790165E-2,-2.769913E-1,2.529621E-1,-1.4692074E-1,1.0990307E-3,-9.2009996E-4,-1.7937229E-4,1.030792E-1,6.8559014E-4,-6.9254666E-4,7.011213E-2,-3.4784591E-6,7.5449643E-4,1.0990292E-3,-4.5137253E-4],"categories":[],"categories_nodes":[],"categories_segments":[],"categories_sizes":[],"default_left":[0,0,0,0,0,0,0,0,0,0,0,0,0,0,0,0,0],"id":89,"left_children":[1,3,5,7,9,11,-1,-1,-1,13,-1,-1,15,-1,-1,-1,-1],"loss_changes":[7.2285664E-1,1.9544832E1,4.4975057E0,5.1802025E0,1.4388752E0,1.1430395E0,0E0,0E0,0E0,1.1523799E0,0E0,0E0,1.7307662E0,0E0,0E0,0E0,0E0],"parents":[2147483647,0,0,1,1,2,2,3,3,4,4,5,5,9,9,12,12],"right_children":[2,4,6,8,10,12,-1,-1,-1,14,-1,-1,16,-1,-1,-1,-1],"split_conditions":[8.323676E-1,3.7498313E-1,6.0934764E-1,1.8749157E-1,5.624747E-1,2.3436446E-1,1.0990307E-3,-9.2009996E-4,-1.7937229E-4,6.4793706E-1,6.8559014E-4,-6.9254666E-4,4.2185605E-1,-3.4784591E-6,7.5449643E-4,1.0990292E-3,-4.5137253E-4],"split_indices":[0,2,2,2,2,2,0,0,0,1,0,0,2,0,0,0,0],"split_type":[0,0,0,0,0,0,0,0,0,0,0,0,0,0,0,0,0],"sum_hessian":[3.27E2,2.84E2,4.3E1,1.62E2,1.22E2,2.8E1,1.5E1,8.6E1,7.6E1,4.2E1,8E1,1.5E1,1.3E1,3E1,1.2E1,5E0,8E0],"tree_param":{"num_deleted":"0","num_feature":"12","num_nodes":"17","size_leaf_vector":"1"}},{"base_weights":[-3.328442E-2,-3.862598E-1,2.3854719E-1,-9.468631E-4,-1.9807903E-1,1.08121224E-1,7.506258E-4,-7.384846E-4,-4.72967E-2,3.1650644E-2,6.0290174E-4,2.1308583E-4,-9.681727E-4,3.6942918E-4,-3.3211109E-4],"categories":[],"categories_nodes":[],"categories_segments":[],"categories_sizes":[],"default_left":[0,0,0,0,0,0,0,0,0,0,0,0,0,0,0],"id":90,"left_children":[1,3,5,-1,7,9,-1,-1,11,13,-1,-1,-1,-1,-1],"loss_changes":[2.9552557E1,1.8100262E0,2.8268719E0,0E0,8.879397E-1,1.1929405E0,0E0,0E0,1.2030053E0,1.6968321E0,0E0,0E0,0E0,0E0,0E0],"parents":[2147483647,0,0,1,1,2,2,4,4,5,5,8,8,9,9],"right_children":[2,4,6,-1,8,10,-1,-1,12,14,-1,-1,-1,-1,-1],"split_conditions":[2.8123736E-1,1.8749157E-1,5.624747E-1,-9.468631E-4,5.2635086E-1,6.943578E-1,7.506258E-4,-7.384846E-4,8.323676E-1,4.9965042E-1,6.0290174E-4,2.1308583E-4,-9.681727E-4,3.6942918E-4,-3.3211109E-4],"split_indices":[2,2,2,0,1,1,0,0,0,1,0,0,0,0,0],"split_type":[0,0,0,0,0,0,0,0,0,0,0,0,0,0,0],"sum_hessian":[3.08E2,1.34E2,1.74E2,9.7E1,3.7E1,8.5E1,8.9E1,1.8E1,1.9E1,6E1,2.5E1,1.4E1,5E0,3.4E1,2.6E1],"tree_param":{"num_deleted":"0","num_feature":"12","num_nodes":"15","size_leaf_vector":"1"}},{"base_weights":[1.9228287E-2,-8.7907084E-4,2.695147E-1,1.2093636E-1,9.230989E-4,1.5541302E-1,-1.9562191E-1,3.7331012E-4,-3.7754377E-4,-9.6817303E-4,2.7214846E-4],"categories":[],"categories_nodes":[],"categories_segments":[],"categories_sizes":[],"default_left":[0,0,0,0,0,0,0,0,0,0,0],"id":91,"left_children":[1,-1,3,5,-1,7,9,-1,-1,-1,-1],"loss_changes":[3.5821167E1,0E0,5.4183674E0,1.2223542E0,0E0,8.5950494E-1,9.818163E-1,0E0,0E0,0E0,0E0],"parents":[2147483647,0,0,2,2,3,3,5,5,6,6],"right_children":[2,-1,4,6,-1,8,10,-1,-1,-1,-1],"split_conditions":[2.3436446E-1,-8.7907084E-4,5.624747E-1,1E0,9.230989E-4,1E0,4.2185605E-1,3.7331012E-4,-3.7754377E-4,-9.6817303E-4,2.7214846E-4],"split_indices":[2,0,2,10,0,5,2,0,0,0,0],"split_type":[0,0,0,0,0,0,0,0,0,0,0],"sum_hessian":[3.22E2,1.16E2,2.06E2,1.12E2,9.4E1,1.01E2,1.1E1,9.4E1,7E0,6E0,5E0],"tree_param":{"num_deleted":"0","num_feature":"12","num_nodes":"11","size_leaf_vector":"1"}},{"base_weights":[-3.2635067E-2,-3.1111664E-1,3.333035E-1,-8.908958E-4,-6.4503185E-2,3.6350903E-1,-9.334924E-2,1.0990277E-3,-1.01002395E-1,1.316506E-1,8.876125E-4,2.7214846E-4,-9.681714E-4,-4.2097288E-4,2.7214884E-4,8.0371567E-4,-4.0439077E-4],"categories":[],"categories_nodes":[],"categories_segments":[],"categories_sizes":[],"default_left":[0,0,0,0,0,0,0,0,0,0,0,0,0,0,0,0,0],"id":92,"left_children":[1,3,5,-1,7,9,11,-1,13,15,-1,-1,-1,-1,-1,-1,-1],"loss_changes":[2.8534004E1,4.699486E0,1.5593596E0,0E0,1.1314728E0,1.7257633E0,6.7499775E-1,0E0,1.1701077E0,2.1038947E0,0E0,0E0,0E0,0E0,0E0,0E0,0E0],"parents":[2147483647,0,0,1,1,2,2,4,4,5,5,6,6,8,8,9,9],"right_children":[2,4,6,-1,8,10,12,-1,14,16,-1,-1,-1,-1,-1,-1,-1],"split_conditions":[3.7498313E-1,2.3436446E-1,1E0,-8.908958E-4,6.538896E-2,4.6872893E-1,4.720367E-1,1.0990277E-3,7.336072E-1,5.9820527E-1,8.876125E-4,2.7214846E-4,-9.681714E-4,-4.2097288E-4,2.7214884E-4,8.0371567E-4,-4.0439077E-4],"split_indices":[2,2,9,0,1,2,1,0,1,1,0,0,0,0,0,0,0],"split_type":[0,0,0,0,0,0,0,0,0,0,0,0,0,0,0,0,0],"sum_hessian":[2.8E2,1.59E2,1.21E2,1.07E2,5.2E1,1.13E2,8E0,3E0,4.9E1,2.5E1,8.8E1,5E0,3E0,3.4E1,1.5E1,1.4E1,1.1E1],"tree_param":{"num_deleted":"0","num_feature":"12","num_nodes":"17","size_leaf_vector":"1"}},{"base_weights":[6.3981214E-3,-4.1996223E-1,3.1199747E-1,-9.681745E-4,-2.614527E-1,1.5165062E-1,7.7970687E-4,-6.501426E-4,4.099614E-4,3.2086366E-5,3.7375572E-1,9.6983043E-4,-2.79105E-4],"categories":[],"categories_nodes":[],"categories_segments":[],"categories_sizes":[],"default_left":[0,0,0,0,0,0,0,0,0,0,0,0,0],"id":93,"left_children":[1,3,5,-1,7,9,-1,-1,-1,-1,11,-1,-1],"loss_changes":[3.869775E1,9.510555E-1,1.8081379E0,0E0,7.07338E-1,1.5117475E0,0E0,0E0,0E0,0E0,9.221482E-1,0E0,0E0],"parents":[2147483647,0,0,1,1,2,2,4,4,5,5,10,10],"right_children":[2,4,6,-1,8,10,-1,-1,-1,-1,12,-1,-1],"split_conditions":[2.8123736E-1,1.8749157E-1,4.6872893E-1,-9.681745E-4,1E0,6.1832017E-1,7.7970687E-4,-6.501426E-4,4.099614E-4,3.2086366E-5,1E0,9.6983043E-4,-2.79105E-4],"split_indices":[2,2,2,0,7,1,0,0,0,0,7,0,0],"split_type":[0,0,0,0,0,0,0,0,0,0,0,0,0],"sum_hessian":[2.97E2,1.24E2,1.73E2,9.5E1,2.9E1,5E1,1.23E2,2.6E1,3E0,3.1E1,1.9E1,1.6E1,3E0],"tree_param":{"num_deleted":"0","num_feature":"12","num_nodes":"13","size_leaf_vector":"1"}},{"base_weights":[2.6931176E-3,3.094281E-1,-8.349353E-3,8.406296E-4,-9.6816494E-4,-6.9853896E-4,8.2217343E-4],"categories":[],"categories_nodes":[],"categories_segments":[],"categories_sizes":[],"default_left":[0,0,0,0,0,0,0],"id":94,"left_children":[1,3,5,-1,-1,-1,-1],"loss_changes":[8.772621E-1,6.805527E-1,3.3456753E1,0E0,0E0,0E0,0E0],"parents":[2147483647,0,0,1,1,2,2],"right_children":[2,4,6,-1,-1,-1,-1],"split_conditions":[1.5946066E-1,1E0,4.2185605E-1,8.406296E-4,-9.6816494E-4,-6.9853896E-4,8.2217343E-4],"split_indices":[0,8,2,0,0,0,0],"split_type":[0,0,0,0,0,0,0],"sum_hessian":[2.59E2,9E0,2.5E2,8E0,1E0,1.38E2,1.12E2],"tree_param":{"num_deleted":"0","num_feature":"12","num_nodes":"7","size_leaf_vector":"1"}},{"base_weights":[4.542213E-3,-1.0284837E-2,2.1346873E-1,-7.52459E-2,4.680216E-2,-9.681722E-4,3.649838E-1,-3.683493E-1,2.8549677E-1,-9.3058887E-4,2.9528698E-1,-9.6816494E-4,8.5583015E-4,-8.3036075E-4,2.7214846E-4,1.2622851E-4,7.5449696E-4,3.011624E-4,9.430157E-4],"categories":[],"categories_nodes":[],"categories_segments":[],"categories_sizes":[],"default_left":[0,0,0,0,0,0,0,0,0,0,0,0,0,0,0,0,0,0,0],"id":95,"left_children":[1,3,5,7,9,-1,11,13,15,-1,17,-1,-1,-1,-1,-1,-1,-1,-1],"loss_changes":[1.0284576E0,1.149614E0,2.2727244E0,1.5331564E1,2.0375755E1,0E0,7.352915E-1,1.333333E0,1.1595764E0,0E0,2.6476583E0,0E0,0E0,0E0,0E0,0E0,0E0,0E0,0E0],"parents":[2147483647,0,0,1,1,2,2,3,3,4,4,6,6,7,7,8,8,10,10],"right_children":[2,4,6,8,10,-1,12,14,16,-1,18,-1,-1,-1,-1,-1,-1,-1,-1],"split_conditions":[8.721848E-1,1E0,1.4061868E-1,3.7498313E-1,2.3436446E-1,-9.681722E-4,1.5946066E-1,1E0,4.6872893E-1,-9.3058887E-4,5.624747E-1,-9.6816494E-4,8.5583015E-4,-8.3036075E-4,2.7214846E-4,1.2622851E-4,7.5449696E-4,3.011624E-4,9.430157E-4],"split_indices":[1,11,2,2,2,0,0,9,2,0,2,0,0,0,0,0,0,0,0],"split_type":[0,0,0,0,0,0,0,0,0,0,0,0,0,0,0,0,0,0,0],"sum_hessian":[3.32E2,3.1E2,2.2E1,1.45E2,1.65E2,4E0,1.8E1,8E1,6.5E1,5.5E1,1.1E2,1E0,1.7E1,7.5E1,5E0,1.7E1,4.8E1,5.7E1,5.3E1],"tree_param":{"num_deleted":"0","num_feature":"12","num_nodes":"19","size_leaf_vector":"1"}},{"base_weights":[3.7696057E-3,-3.9834931E-1,2.4170981E-1,-9.681745E-4,-5.425732E-4,-2.1834882E-1,5.227194E-4,1.0990205E-3,-9.681714E-4],"categories":[],"categories_nodes":[],"categories_segments":[],"categories_sizes":[],"default_left":[0,0,0,0,0,0,0,0,0],"id":96,"left_children":[1,3,5,-1,-1,7,-1,-1,-1],"loss_changes":[2.5737991E1,9.5117474E-1,8.6714077E-1,0E0,0E0,7.4999547E-1,0E0,0E0,0E0],"parents":[2147483647,0,0,1,1,2,2,5,5],"right_children":[2,4,6,-1,-1,8,-1,-1,-1],"split_conditions":[2.3436446E-1,1.4061868E-1,4.006521E-2,-9.681745E-4,-5.425732E-4,4.9591413E-1,5.227194E-4,1.0990205E-3,-9.681714E-4],"split_indices":[2,2,1,0,0,0,0,0,0],