{"learner":{"attributes":{"scikit_learn":"{\"_estimator_type\": \"classifier\"}"},"feature_names":["Unnamed: 0","purchases","time_spent","n_visits","customer_group_2","customer_group_3","customer_group_4","customer_group_5","customer_group_6","customer_group_7","customer_group_8","customer_group_9","onboarding_True"],"feature_types":["float","float","float","float","float","float","float","float","float","float","float","float","float"],"gradient_booster":{"model":{"cats":{"enc":[],"feature_segments":[],"sorted_idx":[]},"gbtree_model_param":{"num_parallel_tree":"100","num_trees":"100"},"iteration_indptr":[0,100],"tree_info":[0,0,0,0,0,0,0,0,0,0,0,0,0,0,0,0,0,0,0,0,0,0,0,0,0,0,0,0,0,0,0,0,0,0,0,0,0,0,0,0,0,0,0,0,0,0,0,0,0,0,0,0,0,0,0,0,0,0,0,0,0,0,0,0,0,0,0,0,0,0,0,0,0,0,0,0,0,0,0,0,0,0,0,0,0,0,0,0,0,0,0,0,0,0,0,0,0,0,0,0],"trees":[{"base_weights":[-1.5533847E-1,-3.949165E-3,1.0361872E0,4.2831886E-1,1.6038462E0,2.4523231E-1,1.0743028E0,1.7048624E0,9.181594E-1,6.1292946E-1,-4.7848898E-1,2.2273283E-1,1.6331447E0,1.7842373E0,7.96459E-1,7.008385E-1,5.3058015E-3,5.489703E-1,5.3058015E-3,-4.674069E-3,-3.3086324E-1,3.0880647E-3,-1.3474477E-3,5.305834E-3,6.7475855E-1,1.3628317E0,4.787404E-3,-1.3776148E-4,5.305814E-3,4.196943E-3,2.3279814E-1,-2.0756216E-1,8.7710476E-1,-1.8181807E-1,-4.674063E-3,-6.821171E-4,3.6424955E-3,1.1556224E0,5.305825E-3,-3.969802E-4,3.3098287E-3,-6.4521253E-1,9.3032676E-1,-2.3856845E-4,9.954558E-1,-4.7997132E-1,3.0880647E-3,4.3985685E-3,4.44171E-1,-2.2979188E-3,1.3138558E-3,-6.821171E-4,5.3058015E-3,6.1555505E-1,1.3753555E0,-7.8563535E-1,1.313861E-3,2.2350852E-3,-1.3474433E-3,3.434596E-3,7.825398E-5,4.538149E-3,7.695029E-4,-8.7221514E-4,-3.8424255E-3],"categories":[],"categories_nodes":[],"categories_segments":[],"categories_sizes":[],"default_left":[0,0,0,0,0,0,0,0,0,0,0,0,0,0,0,0,0,0,0,0,0,0,0,0,0,0,0,0,0,0,0,0,0,0,0,0,0,0,0,0,0,0,0,0,0,0,0,0,0,0,0,0,0,0,0,0,0,0,0,0,0,0,0,0,0],"id":0,"left_children":[1,-1,3,5,7,9,11,13,15,17,19,21,23,25,27,29,-1,31,-1,-1,33,-1,-1,-1,35,37,-1,-1,-1,-1,39,41,43,45,-1,-1,-1,47,-1,-1,-1,49,51,-1,53,55,-1,-1,57,-1,-1,-1,-1,59,61,63,-1,-1,-1,-1,-1,-1,-1,-1,-1],"loss_changes":[3.8712466E2,0E0,4.2702164E1,7.0678215E0,4.4324646E0,1.2390809E1,6.2803164E0,4.021637E0,2.1731691E0,3.0060368E0,3.247733E0,4.079822E0,3.833521E0,3.0756989E0,5.1113515E0,3.2242572E0,0E0,7.3556814E0,0E0,0E0,3.2789617E0,0E0,0E0,0E0,2.0567083E0,2.072052E0,0E0,0E0,0E0,0E0,2.0412447E0,4.4640293E0,2.380169E0,5.499259E0,0E0,0E0,0E0,4.462723E0,0E0,0E0,0E0,2.124256E0,3.614446E0,0E0,2.6592922E0,3.30117E0,0E0,0E0,2.1245635E0,0E0,0E0,0E0,0E0,4.1249437E0,4.4267197E0,2.716494E0,0E0,0E0,0E0,0E0,0E0,0E0,0E0,0E0,0E0],"parents":[2147483647,0,0,2,2,3,3,4,4,5,5,6,6,7,7,8,8,9,9,10,10,11,11,12,12,13,13,14,14,15,15,17,17,20,20,24,24,25,25,30,30,31,31,32,32,33,33,37,37,41,41,42,42,44,44,45,45,48,48,53,53,54,54,55,55],"right_children":[2,-1,4,6,8,10,12,14,16,18,20,22,24,26,28,30,-1,32,-1,-1,34,-1,-1,-1,36,38,-1,-1,-1,-1,40,42,44,46,-1,-1,-1,48,-1,-1,-1,50,52,-1,54,56,-1,-1,58,-1,-1,-1,-1,60,62,64,-1,-1,-1,-1,-1,-1,-1,-1,-1],"split_conditions":[2.8123736E-1,-3.949165E-3,5.624747E-1,7.3094946E-1,1E0,5.0604844E-1,4.2185605E-1,1E0,8.323676E-1,1E0,5.2635086E-1,5.385301E-1,9.5746696E-1,6.562205E-1,5.7920444E-1,3.83763E-1,5.3058015E-3,3.5823676E-1,5.3058015E-3,-4.674069E-3,1E0,3.0880647E-3,-1.3474477E-3,5.305834E-3,4.9591413E-1,6.4348686E-1,4.787404E-3,-1.3776148E-4,5.305814E-3,4.196943E-3,5.240256E-1,7.2021645E-1,2.7161184E-1,1E0,-4.674063E-3,-6.821171E-4,3.6424955E-3,4.3156958E-1,5.305825E-3,-3.969802E-4,3.3098287E-3,1E0,1E0,-2.3856845E-4,1E0,7.2021645E-1,3.0880647E-3,4.3985685E-3,6.080653E-1,-2.2979188E-3,1.3138558E-3,-6.821171E-4,5.3058015E-3,6.262864E-1,7.2021645E-1,5.605705E-1,1.313861E-3,2.2350852E-3,-1.3474433E-3,3.434596E-3,7.825398E-5,4.538149E-3,7.695029E-4,-8.7221514E-4,-3.8424255E-3],"split_indices":[3,0,3,2,7,2,3,9,1,1,2,0,2,3,2,1,0,0,0,0,11,0,0,0,1,2,0,0,0,0,0,1,1,7,0,0,0,0,0,0,0,10,12,0,12,1,0,0,1,0,0,0,0,0,1,0,0,0,0,0,0,0,0,0,0],"split_type":[0,0,0,0,0,0,0,0,0,0,0,0,0,0,0,0,0,0,0,0,0,0,0,0,0,0,0,0,0,0,0,0,0,0,0,0,0,0,0,0,0,0,0,0,0,0,0,0,0,0,0,0,0,0,0,0,0,0,0,0,0,0,0,0,0],"sum_hessian":[2.265884E2,1.0283627E2,1.2375213E2,5.975958E1,6.3992546E1,4.656267E1,1.3196907E1,5.5775604E1,8.216942E0,3.0875782E1,1.5686889E1,5.228963E0,7.9679437E0,5.1293636E1,4.4819684E0,6.9719505E0,1.2449912E0,2.963079E1,1.2449912E0,1.4939895E0,1.41929E1,2.2409842E0,2.987979E0,5.228963E0,2.7389805E0,1.2947908E1,3.834573E1,2.7389805E0,1.7429876E0,2.2409842E0,4.7309666E0,8.963937E0,2.0666853E1,1.2947908E1,1.2449912E0,1.2449912E0,1.4939895E0,1.0208928E1,2.7389805E0,3.4859753E0,1.2449912E0,6.473954E0,2.4899824E0,2.2409842E0,1.8425869E1,1.0706924E1,2.2409842E0,5.477961E0,4.7309666E0,5.228963E0,1.2449912E0,1.2449912E0,1.2449912E0,9.2129345E0,9.2129345E0,8.216942E0,2.4899824E0,3.236977E0,1.4939895E0,3.9839718E0,5.228963E0,6.473954E0,2.7389805E0,5.228963E0,2.987979E0],"tree_param":{"num_deleted":"0","num_feature":"13","num_nodes":"65","size_leaf_vector":"1"}},{"base_weights":[1.0740379E-1,-1.3911668E0,1.3192656E0,-4.5606913E-3,-5.8808243E-1,7.496062E-1,1.6903791E0,-2.3048517E-1,-9.4567937E-1,3.606056E-1,1.0430626E0,5.124387E-3,1.6092411E0,-1.6190141E-3,1.5633623E-3,-2.8919654E-3,-2.2724858E-1,-4.013204E-1,5.766743E-1,1.1879662E0,-2.1791034E-3,4.171759E-3,1.1311338E0,1.5633571E-3,-2.456324E-3,3.0966052E-1,-3.42659E-3,1.1311328E0,3.4073365E-1,7.9646003E-1,3.5905389E-3,1.8128599E-3,4.4741672E-3,-3.010756E-3,5.3058015E-3,3.8801266E-3,3.1586972E-4,6.291229E-1,-3.2483756E-3,4.640502E-3,2.0148379E-1,-2.7353024E-2,2.34882E-3,4.3985606E-3,-2.1791088E-3,3.6424955E-3,-3.2483756E-3],"categories":[],"categories_nodes":[],"categories_segments":[],"categories_sizes":[],"default_left":[0,0,0,0,0,0,0,0,0,0,0,0,0,0,0,0,0,0,0,0,0,0,0,0,0,0,0,0,0,0,0,0,0,0,0,0,0,0,0,0,0,0,0,0,0,0,0],"id":1,"left_children":[1,3,5,-1,7,9,11,13,15,17,19,-1,21,-1,-1,-1,23,25,27,29,-1,-1,31,-1,-1,33,-1,35,37,39,-1,-1,-1,-1,-1,-1,-1,41,-1,-1,43,45,-1,-1,-1,-1,-1],"loss_changes":[4.1466364E2,3.6412567E1,2.6688614E1,0E0,4.648759E0,5.684864E0,2.3057556E0,6.5786314E0,2.8480606E0,3.5253303E0,7.8972416E0,0E0,2.0862732E0,0E0,0E0,0E0,2.75941E0,3.2882776E0,2.1824403E0,2.6548882E0,0E0,0E0,2.1418896E0,0E0,0E0,7.606177E0,0E0,2.1514668E0,5.5617805E0,6.66371E0,0E0,0E0,0E0,0E0,0E0,0E0,0E0,2.066681E0,0E0,0E0,1.1372129E1,6.185921E0,0E0,0E0,0E0,0E0,0E0],"parents":[2147483647,0,0,1,1,2,2,4,4,5,5,6,6,7,7,8,8,9,9,10,10,12,12,16,16,17,17,18,18,19,19,22,22,25,25,27,27,28,28,29,29,37,37,40,40,41,41],"right_children":[2,4,6,-1,8,10,12,14,16,18,20,-1,22,-1,-1,-1,24,26,28,30,-1,-1,32,-1,-1,34,-1,36,38,40,-1,-1,-1,-1,-1,-1,-1,42,-1,-1,44,46,-1,-1,-1,-1,-1],"split_conditions":[3.2811025E-1,1.8749157E-1,5.624747E-1,-4.5606913E-3,5.240256E-1,4.2185605E-1,1.6400616E-1,2.8123736E-1,6.3403046E-1,3.355214E-1,9.212381E-1,5.124387E-3,1E0,-1.6190141E-3,1.5633623E-3,-2.8919654E-3,7.835166E-1,2.2479025E-1,4.1182905E-1,4.1941497E-1,-2.1791034E-3,4.171759E-3,6.5351266E-1,1.5633571E-3,-2.456324E-3,6.080653E-1,-3.42659E-3,7.8194636E-1,1E0,4.1182905E-1,3.5905389E-3,1.8128599E-3,4.4741672E-3,-3.010756E-3,5.3058015E-3,3.8801266E-3,3.1586972E-4,2.3628555E-1,-3.2483756E-3,4.640502E-3,1.5023094E-1,1.4715177E-1,2.34882E-3,4.3985606E-3,-2.1791088E-3,3.6424955E-3,-3.2483756E-3],"split_indices":[3,3,3,0,0,3,0,3,2,2,0,0,7,0,0,0,2,2,2,0,0,0,0,0,0,1,0,0,10,2,0,0,0,0,0,0,0,0,0,0,0,0,0,0,0,0,0],"split_type":[0,0,0,0,0,0,0,0,0,0,0,0,0,0,0,0,0,0,0,0,0,0,0,0,0,0,0,0,0,0,0,0,0,0,0,0,0,0,0,0,0,0,0,0,0,0,0],"sum_hessian":[2.2833139E2,1.0208928E2,1.2624211E2,6.5735535E1,3.6353745E1,4.979965E1,7.644246E1,1.8176872E1,1.8176872E1,2.1413849E1,2.83858E1,1.3694903E1,6.2747555E1,1.2200913E1,5.975958E0,1.3943901E1,4.23297E0,4.7309666E0,1.6682882E1,2.6393814E1,1.9919859E0,5.4779613E1,7.9679437E0,1.9919859E0,2.2409842E0,2.7389805E0,1.9919859E0,4.9799647E0,1.1702917E1,1.0457926E1,1.5935887E1,4.9799647E0,2.987979E0,1.4939895E0,1.2449912E0,3.4859753E0,1.4939895E0,9.959929E0,1.7429876E0,3.7349737E0,6.7229524E0,3.236977E0,6.7229524E0,2.7389805E0,3.9839718E0,1.4939895E0,1.7429876E0],"tree_param":{"num_deleted":"0","num_feature":"13","num_nodes":"47","size_leaf_vector":"1"}},{"base_weights":[-9.749264E-3,-4.8082846E-1,5.5578534E-2,-4.674069E-3,-3.9926893E-1,-9.935679E-3,4.4983357E-1,-1.3414584E0,1.35425E0,-1.7013527E0,9.6223396E-1,-1.6578162E0,1.4481944E0,-4.6740947E-3,-2.032348E-3,3.9751795E-3,3.1586972E-4,-4.6740994E-3,-1.3287209E0,5.733444E-1,1.7622349E0,-6.821171E-4,-4.6740943E-3,6.7475975E-1,4.381772E-3,-3.69016E-3,-2.3856845E-4,2.5922024E-1,9.2442423E-1,3.7300615E-3,5.149904E-3,-1.3776148E-4,3.4912962E-3,1.4176923E-1,1.3319362E0,1.3937249E0,4.9478218E-1,-5.4223615E-1,3.588095E-1,5.3058174E-3,1.0287191E-3,4.6820915E-3,9.181594E-1,-2.0756204E-1,8.534259E-1,-2.6781072E-3,2.810844E-3,4.8644638E-1,-2.456324E-3,-1.3474433E-3,3.088074E-3,9.3961606E-4,-3.42659E-3,4.255315E-3,2.705435E-1,1.6986345E-3,-2.179107E-3,-1.6033433E-3,2.6445186E-3],"categories":[],"categories_nodes":[],"categories_segments":[],"categories_sizes":[],"default_left":[0,0,0,0,0,0,0,0,0,0,0,0,0,0,0,0,0,0,0,0,0,0,0,0,0,0,0,0,0,0,0,0,0,0,0,0,0,0,0,0,0,0,0,0,0,0,0,0,0,0,0,0,0,0,0,0,0,0,0],"id":2,"left_children":[1,3,5,-1,7,9,11,13,15,17,19,21,23,-1,-1,-1,-1,-1,25,27,29,-1,-1,31,-1,-1,-1,33,35,-1,-1,-1,-1,37,39,41,43,45,47,-1,-1,-1,49,51,53,-1,-1,55,-1,-1,-1,-1,-1,-1,57,-1,-1,-1,-1],"loss_changes":[6.8582187E0,3.099228E0,5.0551214E0,0E0,4.2372353E1,2.759618E2,5.868142E1,4.712448E0,2.6996975E0,4.0989227E0,3.315558E1,2.7666283E0,4.6119423E0,0E0,0E0,0E0,0E0,0E0,3.83704E0,7.908533E0,2.824173E0,0E0,0E0,2.9207792E0,0E0,0E0,0E0,4.7684946E0,6.8279877E0,0E0,0E0,0E0,0E0,5.0642715E0,2.7538633E0,3.7747746E0,4.4531593E0,7.362815E0,4.4531E0,0E0,0E0,0E0,3.8943834E0,4.0997415E0,5.859483E0,0E0,0E0,6.3568506E0,0E0,0E0,0E0,0E0,0E0,0E0,5.067176E0,0E0,0E0,0E0,0E0],"parents":[2147483647,0,0,1,1,2,2,4,4,5,5,6,6,7,7,8,8,9,9,10,10,11,11,12,12,18,18,19,19,20,20,23,23,27,27,28,28,33,33,34,34,35,35,36,36,37,37,38,38,42,42,43,43,44,44,47,47,54,54],"right_children":[2,4,6,-1,8,10,12,14,16,18,20,22,24,-1,-1,-1,-1,-1,26,28,30,-1,-1,32,-1,-1,-1,34,36,-1,-1,-1,-1,38,40,42,44,46,48,-1,-1,-1,50,52,54,-1,-1,56,-1,-1,-1,-1,-1,-1,58,-1,-1,-1,-1],"split_conditions":[2.7161184E-1,5.9881695E-2,7.565547E-1,-4.674069E-3,4.6872893E-1,2.3436446E-1,2.3436446E-1,1.8749157E-1,1E0,1.4061868E-1,6.562205E-1,3.83763E-1,4.2185605E-1,-4.6740947E-3,-2.032348E-3,3.9751795E-3,3.1586972E-4,-4.6740994E-3,1E0,4.2185605E-1,6.080653E-1,-6.821171E-4,-4.6740943E-3,8.12033E-1,4.381772E-3,-3.69016E-3,-2.3856845E-4,6.943578E-1,4.6626616E-1,3.7300615E-3,5.149904E-3,-1.3776148E-4,3.4912962E-3,2.6545662E-1,7.27784E-1,4.3764687E-1,5.156018E-1,1E0,6.0422087E-1,5.3058174E-3,1.0287191E-3,4.6820915E-3,5.3156143E-1,6.060287E-1,4.9591413E-1,-2.6781072E-3,2.810844E-3,8.323676E-1,-2.456324E-3,-1.3474433E-3,3.088074E-3,9.3961606E-4,-3.42659E-3,4.255315E-3,4.5855278E-1,1.6986345E-3,-2.179107E-3,-1.6033433E-3,2.6445186E-3],"split_indices":[1,0,2,0,3,3,3,3,10,3,3,1,3,0,0,0,0,0,10,3,1,0,0,2,0,0,0,2,2,0,0,0,0,0,2,0,3,4,2,0,0,0,0,0,1,0,0,1,0,0,0,0,0,0,0,0,0,0,0],"split_type":[0,0,0,0,0,0,0,0,0,0,0,0,0,0,0,0,0,0,0,0,0,0,0,0,0,0,0,0,0,0,0,0,0,0,0,0,0,0,0,0,0,0,0,0,0,0,0,0,0,0,0,0,0,0,0,0,0,0,0],"sum_hessian":[2.2285342E2,2.7140808E1,1.9571262E2,1.4939895E0,2.5646818E1,1.6782481E2,2.7887802E1,1.6682882E1,8.963937E0,6.1253567E1,1.0657124E2,8.963937E0,1.8923866E1,8.216942E0,8.46594E0,7.4699473E0,1.4939895E0,4.1333706E1,1.9919859E1,7.1711494E1,3.4859753E1,1.2449912E0,7.7189455E0,5.477961E0,1.3445905E1,1.7678875E1,2.2409842E0,3.7847733E1,3.386376E1,1.8923866E1,1.5935887E1,2.7389805E0,2.7389805E0,3.411276E1,3.7349737E0,1.6184885E1,1.7678875E1,8.216942E0,2.5895817E1,1.9919859E0,1.7429876E0,7.9679437E0,8.216942E0,5.975958E0,1.1702917E1,6.224956E0,1.9919859E0,2.3654833E1,2.2409842E0,1.4939895E0,6.7229524E0,3.9839718E0,1.9919859E0,4.7309666E0,6.9719505E0,2.0666853E1,2.987979E0,3.236977E0,3.7349737E0],"tree_param":{"num_deleted":"0","num_feature":"13","num_nodes":"59","size_leaf_vector":"1"}},{"base_weights":[-7.840234E-2,-1.5389311E0,1.0606439E0,-4.6068947E-3,-7.183809E-1,5.2565545E-1,3.9500776E-3,-1.1763558E0,-2.6040554E-1,2.0148402E-1,8.7024695E-1,-1.3403054E0,1.3138558E-3,-2.5730538E-3,1.2711185E-1,6.218477E-1,-2.3798719E-1,9.5008147E-1,-2.67809E-3,-3.7869911E-3,-3.9697904E-4,4.313609E-1,-4.674063E-3,-3.191198E-1,9.5395386E-1,-1.0354389E0,8.438753E-2,8.779464E-1,5.305814E-3,-2.7353067E-2,5.305814E-3,8.7030936E-4,-2.456324E-3,2.8662996E-3,-1.3474433E-3,-3.9697904E-4,-3.8424255E-3,2.815768E-1,-2.1791034E-3,7.434428E-1,4.592978E-3,4.81472E-1,-2.456324E-3,-1.8226773E-3,1.2514901E-3,5.28721E-1,3.386619E-3,-2.1791034E-3,4.196943E-3,1.098746E0,1.2711188E-1,1.4247514E-3,4.538142E-3,1.4674016E-3,-1.3474491E-3],"categories":[],"categories_nodes":[],"categories_segments":[],"categories_sizes":[],"default_left":[0,0,0,0,0,0,0,0,0,0,0,0,0,0,0,0,0,0,0,0,0,0,0,0,0,0,0,0,0,0,0,0,0,0,0,0,0,0,0,0,0,0,0,0,0,0,0,0,0,0,0,0,0,0,0],"id":3,"left_children":[1,3,5,-1,7,9,-1,11,13,15,17,19,-1,-1,21,23,25,27,-1,-1,-1,29,-1,31,33,35,37,39,-1,41,-1,-1,-1,-1,-1,-1,-1,43,-1,45,-1,47,-1,-1,-1,49,-1,-1,-1,51,53,-1,-1,-1,-1],"loss_changes":[3.8855334E2,2.6448227E1,3.7132217E1,0E0,5.9536715E0,7.287472E0,0E0,3.967579E0,4.2626843E0,6.2099185E0,4.917795E0,2.8070908E0,0E0,0E0,5.780702E0,5.369049E0,4.224798E0,2.596819E0,0E0,0E0,0E0,6.4219604E0,0E0,2.0080364E0,3.7903433E0,2.1162357E0,2.2183735E0,3.7372475E0,0E0,3.1660178E0,0E0,0E0,0E0,0E0,0E0,0E0,0E0,2.1887083E0,0E0,3.3446903E0,0E0,6.9428186E0,0E0,0E0,0E0,4.275186E0,0E0,0E0,0E0,2.9503145E0,3.398226E0,0E0,0E0,0E0,0E0],"parents":[2147483647,0,0,1,1,2,2,4,4,5,5,7,7,8,8,9,9,10,10,11,11,14,14,15,15,16,16,17,17,21,21,23,23,24,24,25,25,26,26,27,27,29,29,37,37,39,39,41,41,45,45,49,49,50,50],"right_children":[2,4,6,-1,8,10,-1,12,14,16,18,20,-1,-1,22,24,26,28,-1,-1,-1,30,-1,32,34,36,38,40,-1,42,-1,-1,-1,-1,-1,-1,-1,44,-1,46,-1,48,-1,-1,-1,50,-1,-1,-1,52,54,-1,-1,-1,-1],"split_conditions":[2.8123736E-1,1.8749157E-1,5.624747E-1,-4.6068947E-3,5.081436E-1,4.2185605E-1,3.9500776E-3,7.804371E-1,3.5693496E-1,4.794251E-1,9.5746696E-1,1E0,1.3138558E-3,-2.5730538E-3,9.5746696E-1,2.2101659E-1,5.6869453E-1,1E0,-2.67809E-3,-3.7869911E-3,-3.9697904E-4,1E0,-4.674063E-3,4.5855278E-1,1E0,4.9591413E-1,8.9571345E-1,1E0,5.305814E-3,7.2021645E-1,5.305814E-3,8.7030936E-4,-2.456324E-3,2.8662996E-3,-1.3474433E-3,-3.9697904E-4,-3.8424255E-3,2.4317317E-1,-2.1791034E-3,6.708283E-1,4.592978E-3,2.7161184E-1,-2.456324E-3,-1.8226773E-3,1.2514901E-3,3.7180197E-1,3.386619E-3,-2.1791034E-3,4.196943E-3,2.5100005E-1,6.080653E-1,1.4247514E-3,4.538142E-3,1.4674016E-3,-1.3474491E-3],"split_indices":[3,3,3,0,0,3,0,2,2,2,2,11,0,0,2,2,2,1,0,0,0,9,0,0,11,1,0,7,0,1,0,0,0,0,0,0,0,0,0,2,0,1,0,0,0,2,0,0,0,2,1,0,0,0,0],"split_type":[0,0,0,0,0,0,0,0,0,0,0,0,0,0,0,0,0,0,0,0,0,0,0,0,0,0,0,0,0,0,0,0,0,0,0,0,0,0,0,0,0,0,0,0,0,0,0,0,0,0,0,0,0,0,0],"sum_hessian":[2.3356035E2,1.0233828E2,1.3122208E2,7.395248E1,2.83858E1,6.523754E1,6.5984535E1,1.41929E1,1.41929E1,3.361476E1,3.1622776E1,1.2947908E1,1.2449912E0,4.7309666E0,9.461933E0,1.7180878E1,1.6433884E1,3.0377785E1,1.2449912E0,1.1204921E1,1.7429876E0,8.216942E0,1.2449912E0,4.4819684E0,1.269891E1,4.7309666E0,1.1702917E1,2.8634798E1,1.7429876E0,6.473954E0,1.7429876E0,2.2409842E0,2.2409842E0,1.1204921E1,1.4939895E0,1.7429876E0,2.987979E0,9.710932E0,1.9919859E0,2.5148823E1,3.4859753E0,4.23297E0,2.2409842E0,1.7429876E0,7.9679437E0,1.8674868E1,6.473954E0,1.9919859E0,2.2409842E0,7.7189455E0,1.0955922E1,4.4819684E0,3.236977E0,6.473954E0,4.4819684E0],"tree_param":{"num_deleted":"0","num_feature":"13","num_nodes":"55","size_leaf_vector":"1"}},{"base_weights":[-1.14741094E-1,-1.3037713E0,1.359774E0,-1.7933558E0,-4.3067855E-1,7.87476E-1,1.6941754E0,-4.6741E-3,-3.6616402E-3,-2.6781089E-3,-2.4581082E-1,2.1441817E-1,1.0434046E0,1.2701529E0,4.570479E-3,-4.2683166E-1,6.291225E-1,9.1286767E-1,-4.840317E-1,4.751392E-3,8.594579E-1,1.3988737E0,-6.821171E-4,-2.4330422E-1,-4.674086E-3,1.208364E0,-1.3776148E-4,-6.821171E-4,1.2426906E0,-3.3434322E-3,2.810844E-3,3.2143864E-1,1.1683203E0,1.9791916E-3,4.1177515E-3,-3.637436E-1,5.905055E-1,3.1586972E-4,5.305814E-3,-6.821171E-4,4.538142E-3,5.905064E-1,-2.67809E-3,3.6874707E-3,1.1964524E-3,-1.9818207E-2,-6.515177E-1,-3.9697904E-4,3.6424955E-3,5.3058015E-3,2.2273283E-1,1.8448453E-1,-3.010756E-3,-1.8181793E-1,-2.9384529E-3,-1.23893484E-1,3.3098287E-3,-2.3856915E-4,2.810844E-3,-1.7388186E-3,1.9791871E-3,1.9791827E-3,-1.6801103E-3],"categories":[],"categories_nodes":[],"categories_segments":[],"categories_sizes":[],"default_left":[0,0,0,0,0,0,0,0,0,0,0,0,0,0,0,0,0,0,0,0,0,0,0,0,0,0,0,0,0,0,0,0,0,0,0,0,0,0,0,0,0,0,0,0,0,0,0,0,0,0,0,0,0,0,0,0,0,0,0,0,0,0,0],"id":4,"left_children":[1,3,5,7,9,11,13,-1,-1,-1,15,17,19,21,-1,23,25,27,29,-1,31,33,-1,35,-1,37,-1,-1,39,-1,-1,41,43,-1,-1,45,47,-1,-1,-1,-1,49,-1,-1,-1,51,53,-1,-1,-1,55,57,-1,59,-1,61,-1,-1,-1,-1,-1,-1,-1],"loss_changes":[3.9508173E2,5.3323883E1,1.9251648E1,2.2389526E0,5.3611546E0,5.4412613E0,3.905426E0,0E0,0E0,0E0,5.5211325E0,5.587597E0,4.0978928E0,3.2180214E0,0E0,7.708122E0,2.3696244E0,2.242795E0,7.9681325E0,0E0,3.517044E0,2.3235817E0,0E0,2.5755475E0,0E0,3.2437363E0,0E0,0E0,3.9680195E0,0E0,0E0,2.905923E0,2.9144535E0,0E0,0E0,2.2179656E0,2.1257157E0,0E0,0E0,0E0,0E0,3.6776984E0,0E0,0E0,0E0,2.485671E0,3.0428295E0,0E0,0E0,0E0,2.0104194E0,2.3140216E0,0E0,3.2801006E0,0E0,2.0247693E0,0E0,0E0,0E0,0E0,0E0,0E0,0E0],"parents":[2147483647,0,0,1,1,2,2,3,3,4,4,5,5,6,6,10,10,11,11,12,12,13,13,15,15,16,16,17,17,18,18,20,20,21,21,23,23,25,25,28,28,31,31,32,32,35,35,36,36,41,41,45,45,46,46,50,50,51,51,53,53,55,55],"right_children":[2,4,6,8,10,12,14,-1,-1,-1,16,18,20,22,-1,24,26,28,30,-1,32,34,-1,36,-1,38,-1,-1,40,-1,-1,42,44,-1,-1,46,48,-1,-1,-1,-1,50,-1,-1,-1,52,54,-1,-1,-1,56,58,-1,60,-1,62,-1,-1,-1,-1,-1,-1,-1],"split_conditions":[3.7498313E-1,1.8749157E-1,5.624747E-1,1.4061868E-1,2.8750074E-1,4.2185605E-1,3.6373737E-1,-4.6741E-3,-3.6616402E-3,-2.6781089E-3,8.4369177E-1,4.1330963E-1,2.224293E-1,3.3345458E-1,4.570479E-3,7.7165544E-1,5.4802555E-1,3.635848E-1,4.9591413E-1,4.751392E-3,4.9639413E-1,9.4626784E-2,-6.821171E-4,1E0,-4.674086E-3,4.0336952E-1,-1.3776148E-4,-6.821171E-4,3.83763E-1,-3.3434322E-3,2.810844E-3,4.5555466E-1,5.156018E-1,1.9791916E-3,4.1177515E-3,4.9591413E-1,3.8424763E-1,3.1586972E-4,5.305814E-3,-6.821171E-4,4.538142E-3,2.5823176E-1,-2.67809E-3,3.6874707E-3,1.1964524E-3,7.957412E-1,1E0,-3.9697904E-4,3.6424955E-3,5.3058015E-3,4.1941497E-1,6.850138E-1,-3.010756E-3,4.9218053E-1,-2.9384529E-3,4.1182905E-1,3.3098287E-3,-2.3856915E-4,2.810844E-3,-1.7388186E-3,1.9791871E-3,1.9791827E-3,-1.6801103E-3],"split_indices":[3,3,3,3,2,3,2,0,0,0,0,2,0,2,0,0,2,0,1,0,0,2,0,9,0,2,0,0,1,0,0,0,3,0,0,1,0,0,0,0,0,2,0,0,0,2,12,0,0,0,0,2,0,0,0,2,0,0,0,0,0,0,0],"split_type":[0,0,0,0,0,0,0,0,0,0,0,0,0,0,0,0,0,0,0,0,0,0,0,0,0,0,0,0,0,0,0,0,0,0,0,0,0,0,0,0,0,0,0,0,0,0,0,0,0,0,0,0,0,0,0,0,0,0,0,0,0,0,0],"sum_hessian":[2.2534341E2,1.24748116E2,1.0059529E2,7.992844E1,4.4819683E1,3.710074E1,6.3494553E1,6.2747555E1,1.7180878E1,9.959929E0,3.4859753E1,1.1453919E1,2.5646818E1,1.6184885E1,4.7309666E1,2.8883797E1,5.975958E0,5.7269597E0,5.7269597E0,4.4819684E0,2.116485E1,1.4939895E1,1.2449912E0,2.5646818E1,3.236977E0,3.236977E0,2.7389805E0,1.2449912E0,4.4819684E0,3.7349737E0,1.9919859E0,7.7189455E0,1.3445905E1,4.4819684E0,1.0457926E1,2.2409842E1,3.236977E0,1.4939895E0,1.7429876E0,1.2449912E0,3.236977E0,6.473954E0,1.2449912E0,9.2129345E0,4.23297E0,1.0208928E1,1.2200913E1,1.7429876E0,1.4939895E0,1.2449912E0,5.228963E0,8.714938E0,1.4939895E0,6.473954E0,5.7269597E0,3.9839718E0,1.2449912E0,6.7229524E0,1.9919859E0,4.23297E0,2.2409842E0,1.4939895E0,2.4899824E0],"tree_param":{"num_deleted":"0","num_feature":"13","num_nodes":"63","size_leaf_vector":"1"}},{"base_weights":[5.634384E-2,-1.2031127E0,3.5582038E-3,-1.7819458E0,-3.379092E-1,-4.6741E-3,-1.387729E0,-8.769105E-1,-1.3480705E-1,-4.023231E-3,-4.2053548E-1,-3.010773E-3,-1.23893484E-1,-1.9871893E-3,1.9538075E-2,-3.010756E-3,1.3138558E-3,1.313861E-3,-3.010756E-3,3.8801157E-3,-8.325473E-2,-2.2987393E-1,7.9645866E-1,-3.325611E-1,2.4544173E-3,5.3058015E-3,3.158706E-4,-4.205368E-1,1.9791827E-3,1.9791827E-3,-1.3005973E-3],"categories":[],"categories_nodes":[],"categories_segments":[],"categories_sizes":[],"default_left":[0,0,0,0,0,0,0,0,0,0,0,0,0,0,0,0,0,0,0,0,0,0,0,0,0,0,0,0,0,0,0],"id":5,"left_children":[1,3,-1,5,7,-1,9,11,13,-1,15,-1,17,-1,19,-1,-1,-1,-1,-1,21,23,25,27,-1,-1,-1,29,-1,-1,-1],"loss_changes":[3.9168518E2,5.9108017E1,0E0,2.759491E0,5.1790977E0,0E0,3.1749058E0,3.26307E0,3.5261874E0,0E0,2.0567102E0,0E0,2.8279812E0,0E0,4.4200683E0,0E0,0E0,0E0,0E0,0E0,3.372236E0,2.8018847E0,3.346705E0,2.0527601E0,0E0,0E0,0E0,2.3997076E0,0E0,0E0,0E0],"parents":[2147483647,0,0,1,1,3,3,4,4,6,6,7,7,8,8,10,10,12,12,14,14,20,20,21,21,22,22,23,23,27,27],"right_children":[2,4,-1,6,8,-1,10,12,14,-1,16,-1,18,-1,20,-1,-1,-1,-1,-1,22,24,26,28,-1,-1,-1,30,-1,-1,-1],"split_conditions":[3.7498313E-1,1.8749157E-1,3.5582038E-3,1.4061868E-1,2.3436446E-1,-4.6741E-3,1E0,5.186776E-1,2.5823176E-1,-4.023231E-3,4.9591413E-1,-3.010773E-3,8.691354E-1,-1.9871893E-3,3.180738E-1,-3.010756E-3,1.3138558E-3,1.313861E-3,-3.010756E-3,3.8801157E-3,1E0,1E0,3.7582043E-1,1E0,2.4544173E-3,5.3058015E-3,3.158706E-4,3.355214E-1,1.9791827E-3,1.9791827E-3,-1.3005973E-3],"split_indices":[3,3,0,3,3,0,4,0,2,0,1,0,0,0,2,0,0,0,0,0,9,6,0,5,0,0,0,2,0,0,0],"split_type":[0,0,0,0,0,0,0,0,0,0,0,0,0,0,0,0,0,0,0,0,0,0,0,0,0,0,0,0,0,0,0],"sum_hessian":[2.2609041E2,1.1802517E2,1.0806524E2,7.07155E1,4.7309666E1,5.6522602E1,1.41929E1,1.2947908E1,3.4361755E1,1.1453919E1,2.7389805E0,8.963937E0,3.9839718E0,6.473954E0,2.7887802E1,1.4939895E0,1.2449912E0,2.4899824E0,1.4939895E0,1.7429876E0,2.6144815E1,2.2409842E1,3.7349737E0,2.0666853E1,1.7429876E0,1.2449912E0,2.4899824E0,1.9172865E1,1.4939895E0,1.4939895E0,1.7678875E1],"tree_param":{"num_deleted":"0","num_feature":"13","num_nodes":"31","size_leaf_vector":"1"}},{"base_weights":[-2.3757095E-2,-3.7732976E-3,1.1771208E0,1.9188762E-1,1.4825431E0,5.133664E-2,1.0195748E0,1.213096E0,4.3274174E-3,5.3058015E-3,-5.1822808E-2,5.305814E-3,7.695029E-4,9.742562E-1,4.1317306E-3,6.7475975E-1,-2.541625E-1,1.0952768E0,1.2711167E-1,-1.3474462E-3,3.7704564E-3,-1.2742902E-1,-3.42659E-3,-5.543747E-2,1.220602E0,-2.67809E-3,6.7475855E-1,-6.8212213E-4,3.6424955E-3,-2.67809E-3,1.9791827E-3,5.305826E-3,1.0972912E0,-1.3474433E-3,5.3058015E-3,-1.23893484E-1,1.364948E0,1.313861E-3,-3.010756E-3,4.0356666E-3,1.4247514E-3],"categories":[],"categories_nodes":[],"categories_segments":[],"categories_sizes":[],"default_left":[0,0,0,0,0,0,0,0,0,0,0,0,0,0,0,0,0,0,0,0,0,0,0,0,0,0,0,0,0,0,0,0,0,0,0,0,0,0,0,0,0],"id":6,"left_children":[1,-1,3,5,7,9,11,13,-1,-1,15,-1,-1,17,-1,19,21,23,25,-1,-1,27,-1,29,31,-1,33,-1,-1,-1,-1,-1,35,-1,-1,37,39,-1,-1,-1,-1],"loss_changes":[4.2235248E2,0E0,3.9261536E1,3.5918493E0,6.947464E0,5.6737266E0,3.549541E0,5.240402E0,0E0,0E0,3.697295E0,0E0,0E0,3.2675495E0,0E0,5.616891E0,2.803961E0,4.0218086E0,2.6286993E0,0E0,0E0,4.1423984E0,0E0,2.3852975E0,2.8361053E0,0E0,4.8679476E0,0E0,0E0,0E0,0E0,0E0,7.2434616E0,0E0,0E0,2.8279812E0,3.7277298E0,0E0,0E0,0E0,0E0],"parents":[2147483647,0,0,2,2,3,3,4,4,5,5,6,6,7,7,10,10,13,13,15,15,16,16,17,17,18,18,21,21,23,23,24,24,26,26,32,32,35,35,36,36],"right_children":[2,-1,4,6,8,10,12,14,-1,-1,16,-1,-1,18,-1,20,22,24,26,-1,-1,28,-1,30,32,-1,34,-1,-1,-1,-1,-1,36,-1,-1,38,40,-1,-1,-1,-1],"split_conditions":[2.8123736E-1,-3.7732976E-3,4.2185605E-1,8.3842474E-1,6.562205E-1,1.5946066E-1,9.1499877E-1,6.452714E-1,4.3274174E-3,5.3058015E-3,2.0614213E-1,5.305814E-3,7.695029E-4,1E0,4.1317306E-3,4.3357325E-1,1E0,8.378576E-2,2.3936471E-1,-1.3474462E-3,3.7704564E-3,1E0,-3.42659E-3,5.049331E-1,1.4820045E-1,-2.67809E-3,6.0934764E-1,-6.8212213E-4,3.6424955E-3,-2.67809E-3,1.9791827E-3,5.305826E-3,2.5100005E-1,-1.3474433E-3,5.3058015E-3,6.080653E-1,5.495081E-1,1.313861E-3,-3.010756E-3,4.0356666E-3,1.4247514E-3],"split_indices":[3,0,3,0,3,1,0,2,0,0,0,0,0,10,0,2,11,0,0,0,0,4,0,2,2,0,3,0,0,0,0,0,2,0,0,1,2,0,0,0,0],"split_type":[0,0,0,0,0,0,0,0,0,0,0,0,0,0,0,0,0,0,0,0,0,0,0,0,0,0,0,0,0,0,0,0,0,0,0,0,0,0,0,0,0],"sum_hessian":[2.3530333E2,1.0482826E2,1.3047508E2,3.0875782E1,9.95993E1,2.6393814E1,4.4819684E0,4.8803654E1,5.079564E1,1.2449912E0,2.5148823E1,1.7429876E0,2.7389805E0,3.1871775E1,1.693188E1,5.477961E0,1.967086E1,2.7887802E1,3.9839718E0,2.2409842E0,3.236977E0,1.7678875E1,1.9919859E0,2.7389805E0,2.5148823E1,1.2449912E0,2.7389805E0,1.6184885E1,1.4939895E0,1.2449912E0,1.4939895E0,2.987979E0,2.2160843E1,1.4939895E0,1.2449912E0,3.9839718E0,1.8176872E1,2.4899824E0,1.4939895E0,1.3694903E1,4.4819684E0],"tree_param":{"num_deleted":"0","num_feature":"13","num_nodes":"41","size_leaf_vector":"1"}},{"base_weights":[4.1298047E-2,-1.7628138E0,1.0704894E0,-4.6741E-3,-1.4833008E0,3.002194E-1,1.5614306E0,-3.92292E-3,-9.316166E-4,-1.6319882E-2,7.8190935E-1,2.964868E-3,1.6668504E0,-1.1385353E-1,1.9791906E-3,4.8569134E-1,3.0880752E-3,3.988491E-3,5.305838E-3,2.0434439E-1,-3.4051505E-1,4.3985606E-3,1.717351E-1,-2.3330633E-1,3.7704564E-3,-7.054919E-1,1.2711184E-1,1.3743491E-3,-2.179107E-3,-6.4521253E-1,5.905055E-1,1.2711148E-1,-9.740734E-1,3.6424955E-3,-1.8181793E-1,-9.2472005E-1,1.3138558E-3,3.8801157E-3,-1.3474433E-3,3.3098287E-3,-2.67809E-3,-3.3628228E-1,-3.5652097E-3,4.6178484E-1,-7.334772E-1,1.0287191E-3,-3.9612358E-3,-3.010756E-3,1.0287191E-3,-1.8226773E-3,5.3058015E-3,-4.674063E-3,-2.3856845E-4],"categories":[],"categories_nodes":[],"categories_segments":[],"categories_sizes":[],"default_left":[0,0,0,0,0,0,0,0,0,0,0,0,0,0,0,0,0,0,0,0,0,0,0,0,0,0,0,0,0,0,0,0,0,0,0,0,0,0,0,0,0,0,0,0,0,0,0,0,0,0,0,0,0],"id":7,"left_children":[1,3,5,-1,7,9,11,-1,-1,13,15,-1,17,19,-1,21,-1,-1,-1,23,25,-1,27,29,-1,31,33,-1,-1,35,37,39,41,-1,43,45,-1,-1,-1,-1,-1,47,-1,49,51,-1,-1,-1,-1,-1,-1,-1,-1],"loss_changes":[4.327447E2,2.795105E0,5.611966E1,0E0,2.6577759E0,8.808045E0,3.519165E0,0E0,0E0,2.7634478E0,3.1267357E0,0E0,2.0399323E0,2.2448206E0,0E0,5.6226454E0,0E0,0E0,0E0,7.440046E0,3.102304E0,0E0,4.48057E0,3.2952485E0,0E0,2.2829428E0,3.295234E0,0E0,0E0,2.124256E0,3.560029E0,3.6144543E0,2.2676916E0,0E0,2.2985806E0,4.685422E0,0E0,0E0,0E0,0E0,0E0,2.1257186E0,0E0,5.97628E0,2.54987E0,0E0,0E0,0E0,0E0,0E0,0E0,0E0,0E0],"parents":[2147483647,0,0,1,1,2,2,4,4,5,5,6,6,9,9,10,10,12,12,13,13,15,15,19,19,20,20,22,22,23,23,25,25,26,26,29,29,30,30,31,31,32,32,34,34,35,35,41,41,43,43,44,44],"right_children":[2,4,6,-1,8,10,12,-1,-1,14,16,-1,18,20,-1,22,-1,-1,-1,24,26,-1,28,30,-1,32,34,-1,-1,36,38,40,42,-1,44,46,-1,-1,-1,-1,-1,48,-1,50,52,-1,-1,-1,-1,-1,-1,-1,-1],"split_conditions":[2.3436446E-1,1.4061868E-1,4.6872893E-1,-4.6741E-3,9.4451874E-1,3.7498313E-1,5.624747E-1,-3.92292E-3,-9.316166E-4,1E0,6.060287E-1,2.964868E-3,8.691354E-1,4.400935E-1,1.9791906E-3,2.9297793E-1,3.0880752E-3,3.988491E-3,5.305838E-3,3.8911584E-1,7.0170516E-1,4.3985606E-3,4.472085E-1,1E0,3.7704564E-3,1.7656592E-1,7.369846E-1,1.3743491E-3,-2.179107E-3,6.93947E-1,5.6421685E-1,1E0,2.8123736E-1,3.6424955E-3,5.4582286E-1,1.6636944E-1,1.3138558E-3,3.8801157E-3,-1.3474433E-3,3.3098287E-3,-2.67809E-3,4.2857143E-1,-3.5652097E-3,8.819215E-1,1E0,1.0287191E-3,-3.9612358E-3,-3.010756E-3,1.0287191E-3,-1.8226773E-3,5.3058015E-3,-4.674063E-3,-2.3856845E-4],"split_indices":[3,3,3,0,1,3,3,0,0,4,0,0,0,2,0,2,0,0,0,2,2,0,0,12,0,0,2,0,0,0,0,12,3,0,0,2,0,0,0,0,0,0,0,2,12,0,0,0,0,0,0,0,0],"split_type":[0,0,0,0,0,0,0,0,0,0,0,0,0,0,0,0,0,0,0,0,0,0,0,0,0,0,0,0,0,0,0,0,0,0,0,0,0,0,0,0,0,0,0,0,0,0,0,0,0,0,0,0,0],"sum_hessian":[2.3306235E2,8.46594E1,1.4840295E2,5.951058E1,2.5148823E1,5.7767593E1,9.063536E1,2.3156836E1,1.9919859E0,3.4859753E1,2.2907839E1,2.0168858E1,7.04665E1,3.112478E1,3.7349737E0,1.3943901E1,8.963937E0,6.224956E1,8.216942E0,1.2947908E1,1.8176872E1,2.7389805E0,1.1204921E1,9.710932E0,3.236977E0,1.0208928E1,7.9679437E0,8.216942E0,2.987979E0,6.473954E0,3.236977E0,2.4899824E0,7.7189455E0,1.4939895E0,6.473954E0,5.228963E0,1.2449912E0,1.7429876E0,1.4939895E0,1.2449912E0,1.2449912E0,3.236977E0,4.4819684E0,2.987979E0,3.4859753E0,1.7429876E0,3.4859753E0,1.4939895E0,1.7429876E0,1.7429876E0,1.2449912E0,1.2449912E0,2.2409842E0],"tree_param":{"num_deleted":"0","num_feature":"13","num_nodes":"53","size_leaf_vector":"1"}},{"base_weights":[-3.1179946E-2,-1.5630376E0,1.1094371E0,-4.6741E-3,-1.0934649E0,2.883419E-1,1.4118296E0,-4.388954E-3,-8.9392823E-1,7.2208816E-1,6.1453437E-3,1.3079231E0,4.6030288E-3,-1.1279163E0,-4.0132082E-1,-2.7449673E-1,3.251146E-3,6.7475975E-1,-2.3499456E-1,1.0318357E0,1.4275608E0,-3.8186724E-3,-8.0997556E-1,-6.259046E-1,1.9791827E-3,-8.0997413E-1,3.3098287E-3,2.4523179E-1,5.3058015E-3,-6.2590486E-1,1.208364E0,5.0701207E-1,1.3914365E0,1.4827977E0,5.905055E-1,-3.7489912E-1,-4.674086E-3,-3.0941927E-1,-3.5652018E-3,-3.676091E-3,1.3138558E-3,-2.075617E-1,3.3098287E-3,-1.1507336E0,-1.8181793E-1,1.0287191E-3,5.3058085E-3,7.9645956E-1,-2.7449617E-1,1.5614295E0,-6.821171E-4,3.4704513E-3,5.3058346E-3,-3.9697904E-4,3.6424955E-3,-2.0477949E-3,2.8157622E-1,-8.7690824E-1,7.695029E-4,1.9791827E-3,-3.010756E-3,-6.8211986E-4,-4.674085E-3,2.2273283E-1,-4.674063E-3,-6.8211986E-4,3.5446691E-3,3.3098287E-3,-4.674063E-3,4.377473E-3,3.1586972E-4,2.810844E-3,-2.67809E-3,-4.674074E-3,1.3138558E-3,1.9791895E-3,-1.3474462E-3],"categories":[],"categories_nodes":[],"categories_segments":[],"categories_sizes":[],"default_left":[0,0,0,0,0,0,0,0,0,0,0,0,0,0,0,0,0,0,0,0,0,0,0,0,0,0,0,0,0,0,0,0,0,0,0,0,0,0,0,0,0,0,0,0,0,0,0,0,0,0,0,0,0,0,0,0,0,0,0,0,0,0,0,0,0,0,0,0,0,0,0,0,0,0,0,0,0],"id":8,"left_children":[1,3,5,-1,7,9,11,-1,13,15,17,19,-1,21,23,25,-1,27,29,31,33,-1,35,37,-1,39,-1,41,-1,43,45,47,49,51,53,55,-1,57,-1,-1,-1,59,-1,61,63,-1,-1,65,67,69,-1,-1,-1,-1,-1,-1,71,73,-1,-1,-1,-1,-1,75,-1,-1,-1,-1,-1,-1,-1,-1,-1,-1,-1,-1,-1],"loss_changes":[3.8633813E2,1.4087173E1,3.1468674E1,0E0,5.1138153E0,4.175461E0,4.2396545E0,0E0,3.3866692E0,7.8554296E0,3.3321123E0,2.4755554E0,0E0,2.5889263E0,2.5452778E0,4.283809E0,0E0,3.4361877E0,8.569946E0,4.276331E0,2.4176712E0,0E0,5.220891E0,2.039556E0,0E0,3.3467257E0,0E0,2.0828385E0,0E0,2.7856283E0,2.3831434E0,2.084022E0,3.8078442E0,2.759369E0,2.1257157E0,2.3494892E0,0E0,2.0120072E0,0E0,0E0,0E0,3.0120487E0,0E0,3.50493E0,4.4500303E0,0E0,0E0,4.5358067E0,6.425696E0,3.5024014E0,0E0,0E0,0E0,0E0,0E0,0E0,3.7380319E0,4.216867E0,0E0,0E0,0E0,0E0,0E0,2.2949011E0,0E0,0E0,0E0,0E0,0E0,0E0,0E0,0E0,0E0,0E0,0E0,0E0,0E0],"parents":[2147483647,0,0,1,1,2,2,4,4,5,5,6,6,8,8,9,9,10,10,11,11,13,13,14,14,15,15,17,17,18,18,19,19,20,20,22,22,23,23,25,25,27,27,29,29,30,30,31,31,32,32,33,33,34,34,35,35,37,37,41,41,43,43,44,44,47,47,48,48,49,49,56,56,57,57,63,63],"right_children":[2,4,6,-1,8,10,12,-1,14,16,18,20,-1,22,24,26,-1,28,30,32,34,-1,36,38,-1,40,-1,42,-1,44,46,48,50,52,54,56,-1,58,-1,-1,-1,60,-1,62,64,-1,-1,66,68,70,-1,-1,-1,-1,-1,-1,72,74,-1,-1,-1,-1,-1,76,-1,-1,-1,-1,-1,-1,-1,-1,-1,-1,-1,-1,-1],"split_conditions":[2.8123736E-1,1.4061868E-1,4.2185605E-1,-4.6741E-3,2.7515766E-1,4.2208898E-1,7.3094946E-1,-4.388954E-3,2.3436446E-1,1.7275748E-1,3.83763E-1,5.624747E-1,4.6030288E-3,4.472085E-1,7.677248E-1,1E0,3.251146E-3,6.850138E-1,1E0,3.3708775E-1,6.883678E-1,-3.8186724E-3,8.691354E-1,8.323676E-1,1.9791827E-3,6.080653E-1,3.3098287E-3,3.7498313E-1,5.3058015E-3,6.080653E-1,6.080653E-1,2.2818248E-1,9.3104285E-1,1E0,7.13184E-1,4.9591413E-1,-4.674086E-3,4.1941497E-1,-3.5652018E-3,-3.676091E-3,1.3138558E-3,3.2811025E-1,3.3098287E-3,3.2811025E-1,1E0,1.0287191E-3,5.3058085E-3,3.5261005E-1,3.937257E-1,6.594393E-1,-6.821171E-4,3.4704513E-3,5.3058346E-3,-3.9697904E-4,3.6424955E-3,-2.0477949E-3,6.233239E-1,6.080653E-1,7.695029E-4,1.9791827E-3,-3.010756E-3,-6.8211986E-4,-4.674085E-3,8.323676E-1,-4.674063E-3,-6.8211986E-4,3.5446691E-3,3.3098287E-3,-4.674063E-3,4.377473E-3,3.1586972E-4,2.810844E-3,-2.67809E-3,-4.674074E-3,1.3138558E-3,1.9791895E-3,-1.3474462E-3],"split_indices":[3,3,3,0,2,0,2,0,3,0,1,3,0,0,2,4,0,2,7,0,2,0,0,1,0,1,0,3,0,1,1,0,0,4,2,1,0,0,0,0,0,3,0,3,9,0,0,2,2,2,0,0,0,0,0,0,2,1,0,0,0,0,0,1,0,0,0,0,0,0,0,0,0,0,0,0,0],"split_type":[0,0,0,0,0,0,0,0,0,0,0,0,0,0,0,0,0,0,0,0,0,0,0,0,0,0,0,0,0,0,0,0,0,0,0,0,0,0,0,0,0,0,0,0,0,0,0,0,0,0,0,0,0,0,0,0,0,0,0,0,0,0,0,0,0,0,0,0,0,0,0,0,0,0,0,0,0],"sum_hessian":[2.2111044E2,9.437033E1,1.26740105E2,5.62736E1,3.809673E1,3.411276E1,9.262734E1,8.714938E0,2.9381792E1,1.3445905E1,2.0666853E1,7.494847E1,1.7678875E1,1.9919859E1,9.461933E0,4.9799647E0,8.46594E0,5.477961E0,1.5188892E1,2.265884E1,5.228963E1,8.714938E0,1.1204921E1,7.9679437E0,1.4939895E0,3.7349737E0,1.2449912E0,4.23297E0,1.2449912E0,1.1951916E1,3.236977E0,9.2129345E0,1.3445905E1,4.9052654E1,3.236977E0,7.9679437E0,3.236977E0,5.7269597E0,2.2409842E0,2.4899824E0,1.2449912E0,2.987979E0,1.2449912E0,5.477961E0,6.473954E0,1.7429876E0,1.4939895E0,6.7229524E0,2.4899824E0,1.2200913E1,1.2449912E0,4.3325695E1,5.7269597E0,1.7429876E0,1.4939895E0,4.7309666E0,3.236977E0,2.987979E0,2.7389805E0,1.4939895E0,1.4939895E0,2.4899824E0,2.987979E0,5.228963E0,1.2449912E0,2.4899824E0,4.23297E0,1.2449912E0,1.2449912E0,1.0706924E1,1.4939895E0,1.9919859E0,1.2449912E0,1.7429876E0,1.2449912E0,2.987979E0,2.2409842E0],"tree_param":{"num_deleted":"0","num_feature":"13","num_nodes":"77","size_leaf_vector":"1"}},{"base_weights":[-6.519534E-2,-1.5139816E0,1.0673876E0,-4.6741E-3,-2.3710357E-3,5.324057E-1,1.4751709E0,4.503584E-1,4.538142E-3,1.3991411E0,5.020697E-3,1.6894622E-1,6.982075E-1,1.0706513E0,3.8801369E-3,-3.0318323E-1,3.633525E-1,3.984694E-1,1.3319383E0,4.538142E-3,9.3033E-1,1.9791895E-3,-2.8028537E-3,2.566632E-1,3.6424955E-3,7.6123106E-1,1.5553846E-2,1.9791916E-3,4.7187777E-3,2.7685682E-3,-5.543747E-2,-3.010756E-3,4.1397545E-1,-6.8211986E-4,1.1311336E0,-2.179107E-3,4.617856E-1,1.9791827E-3,-2.67809E-3,1.1311328E0,1.5553846E-2,5.305814E-3,1.9791923E-3,-3.010756E-3,1.0195748E0,3.8801266E-3,3.1586972E-4,-7.534069E-4,2.810844E-3,3.1587027E-4,4.3078326E-3],"categories":[],"categories_nodes":[],"categories_segments":[],"categories_sizes":[],"default_left":[0,0,0,0,0,0,0,0,0,0,0,0,0,0,0,0,0,0,0,0,0,0,0,0,0,0,0,0,0,0,0,0,0,0,0,0,0,0,0,0,0,0,0,0,0,0,0,0,0,0,0],"id":9,"left_children":[1,3,5,-1,-1,7,9,11,-1,13,-1,15,17,19,-1,21,23,25,27,-1,29,-1,-1,31,-1,33,35,-1,-1,-1,37,-1,39,-1,41,-1,43,-1,-1,45,47,-1,-1,-1,49,-1,-1,-1,-1,-1,-1],"loss_changes":[3.6689935E2,2.015416E1,2.7377579E1,0E0,0E0,5.762212E0,2.9520874E0,3.5602484E0,0E0,3.33181E0,0E0,2.1940138E0,5.1554823E0,2.191143E0,0E0,6.3229375E0,1.991514E0,2.5594854E0,2.6458712E0,0E0,3.157793E0,0E0,0E0,3.5657315E0,0E0,3.6250443E0,3.5698502E0,0E0,0E0,0E0,2.3852975E0,0E0,3.9842079E0,0E0,2.342682E0,0E0,5.5778837E0,0E0,0E0,2.1514668E0,3.1873612E0,0E0,0E0,0E0,2.8558679E0,0E0,0E0,0E0,0E0,0E0,0E0],"parents":[2147483647,0,0,1,1,2,2,5,5,6,6,7,7,9,9,11,11,12,12,13,13,15,15,16,16,17,17,18,18,20,20,23,23,25,25,26,26,30,30,32,32,34,34,36,36,39,39,40,40,44,44],"right_children":[2,4,6,-1,-1,8,10,12,-1,14,-1,16,18,20,-1,22,24,26,28,-1,30,-1,-1,32,-1,34,36,-1,-1,-1,38,-1,40,-1,42,-1,44,-1,-1,46,48,-1,-1,-1,50,-1,-1,-1,-1,-1,-1],"split_conditions":[2.8123736E-1,1.4061868E-1,5.156018E-1,-4.6741E-3,-2.3710357E-3,9.4451874E-1,1E0,3.7498313E-1,4.538142E-3,3.8911584E-1,5.020697E-3,3.8911584E-1,6.7587715E-1,2.7161184E-1,3.8801369E-3,1.5533912E-1,1E0,4.1220322E-1,4.2185605E-1,4.538142E-3,3.5693496E-1,1.9791895E-3,-2.8028537E-3,2.4568512E-1,3.6424955E-3,3.83763E-1,4.9591413E-1,1.9791916E-3,4.7187777E-3,2.7685682E-3,7.968392E-1,-3.010756E-3,4.972696E-1,-6.8211986E-4,3.3345458E-1,-2.179107E-3,4.8010695E-1,1.9791827E-3,-2.67809E-3,6.080653E-1,1E0,5.305814E-3,1.9791923E-3,-3.010756E-3,1E0,3.8801266E-3,3.1586972E-4,-7.534069E-4,2.810844E-3,3.1587027E-4,4.3078326E-3],"split_indices":[3,3,3,0,0,1,4,3,0,2,0,2,0,1,0,2,6,0,3,0,2,0,0,0,0,1,1,0,0,0,3,0,2,0,2,0,0,0,0,1,7,0,0,0,12,0,0,0,0,0,0],"split_type":[0,0,0,0,0,0,0,0,0,0,0,0,0,0,0,0,0,0,0,0,0,0,0,0,0,0,0,0,0,0,0,0,0,0,0,0,0,0,0,0,0,0,0,0,0,0,0,0,0,0,0],"sum_hessian":[2.2360042E2,9.810531E1,1.2549511E2,5.926158E1,3.8843727E1,5.4281616E1,7.121349E1,5.104464E1,3.236977E0,6.2498558E1,8.714938E0,2.3903831E1,2.7140808E1,2.0666853E1,4.1831703E1,6.9719505E0,1.693188E1,1.8425869E1,8.714938E0,3.236977E0,1.7429876E1,2.987979E0,3.9839718E0,1.5437891E1,1.4939895E0,9.461933E0,8.963937E0,4.4819684E0,4.23297E0,1.4690896E1,2.7389805E0,1.4939895E0,1.3943901E1,2.4899824E0,6.9719505E0,2.987979E0,5.975958E0,1.4939895E0,1.2449912E0,4.9799647E0,8.963937E0,1.7429876E0,5.228963E0,1.4939895E0,4.4819684E0,3.4859753E0,1.4939895E0,6.9719505E0,1.9919859E0,1.9919859E0,2.4899824E0],"tree_param":{"num_deleted":"0","num_feature":"13","num_nodes":"51","size_leaf_vector":"1"}},{"base_weights":[-4.387885E-2,-7.7304566E-1,-2.0039089E-2,-4.674088E-3,1.028722E-3,-1.5037885E0,1.1657566E0,-4.6040653E-3,-5.913631E-1,6.495305E-1,4.1745137E-3,-2.3350494E-3,-9.600418E-2,4.2682028E-1,9.15987E-1,1.2711185E-1,-3.2483756E-3,7.54626E-1,1.2711193E-1,7.008391E-1,3.1672816E-3,-6.1269325E-1,2.154278E-3,4.6790063E-2,3.002777E-3,6.934833E-1,-1.4547616E-3,8.801288E-1,-3.010756E-3,1.5633571E-3,-3.766819E-3,-3.42659E-3,7.1771216E-1,3.3098464E-3,2.944487E-1,1.3319387E0,-1.8226824E-3,4.058331E-3,-2.3856845E-4,-2.3856899E-4,3.6424955E-3,5.3058276E-3,2.608559E-3],"categories":[],"categories_nodes":[],"categories_segments":[],"categories_sizes":[],"default_left":[0,0,0,0,0,0,0,0,0,0,0,0,0,0,0,0,0,0,0,0,0,0,0,0,0,0,0,0,0,0,0,0,0,0,0,0,0,0,0,0,0,0,0],"id":10,"left_children":[1,3,5,-1,-1,7,9,-1,11,13,-1,-1,15,17,19,21,-1,23,25,27,-1,29,-1,31,-1,33,-1,35,-1,-1,-1,-1,37,-1,39,41,-1,-1,-1,-1,-1,-1,-1],"loss_changes":[3.964793E0,9.496147E0,3.8858887E2,0E0,0E0,3.1236938E1,3.2580734E1,0E0,4.682684E0,3.634941E0,0E0,0E0,3.0279894E0,3.2780557E0,2.1514683E0,5.1786346E0,0E0,5.1181917E0,7.0339675E0,5.97631E0,0E0,5.3059273E0,0E0,5.954424E0,0E0,2.4740014E0,0E0,1.1617968E1,0E0,0E0,0E0,0E0,3.153136E0,0E0,2.7331533E0,2.8220825E0,0E0,0E0,0E0,0E0,0E0,0E0,0E0],"parents":[2147483647,0,0,1,1,2,2,5,5,6,6,8,8,9,9,12,12,13,13,14,14,15,15,17,17,18,18,19,19,21,21,23,23,25,25,27,27,32,32,34,34,35,35],"right_children":[2,4,6,-1,-1,8,10,-1,12,14,-1,-1,16,18,20,22,-1,24,26,28,-1,30,-1,32,-1,34,-1,36,-1,-1,-1,-1,38,-1,40,42,-1,-1,-1,-1,-1,-1,-1],"split_conditions":[5.4436106E-2,2.3436446E-1,2.8123736E-1,-4.674088E-3,1.028722E-3,1.8749157E-1,5.624747E-1,-4.6040653E-3,6.004376E-1,4.2185605E-1,4.1745137E-3,-2.3350494E-3,1E0,4.3037453E-1,6.1832017E-1,1E0,-3.2483756E-3,2.6292998E-1,5.605705E-1,1E0,3.1672816E-3,7.4969614E-1,2.154278E-3,3.791427E-1,3.002777E-3,1E0,-1.4547616E-3,5.166207E-1,-3.010756E-3,1.5633571E-3,-3.766819E-3,-3.42659E-3,1.7184308E-1,3.3098464E-3,7.875693E-1,2.7469411E-1,-1.8226824E-3,4.058331E-3,-2.3856845E-4,-2.3856899E-4,3.6424955E-3,5.3058276E-3,2.608559E-3],"split_indices":[2,3,3,0,0,3,3,0,0,3,0,0,4,2,2,12,0,2,0,10,0,0,0,0,0,12,0,2,0,0,0,0,2,0,2,0,0,0,0,0,0,0,0],"split_type":[0,0,0,0,0,0,0,0,0,0,0,0,0,0,0,0,0,0,0,0,0,0,0,0,0,0,0,0,0,0,0,0,0,0,0,0,0,0,0,0,0,0,0],"sum_hessian":[2.2808238E2,7.220949E0,2.2086143E2,3.7349737E0,3.4859753E0,9.810531E1,1.22756134E2,7.09645E1,2.7140808E1,6.1253567E1,6.1502563E1,1.5935887E1,1.1204921E1,3.3365765E1,2.7887802E1,9.461933E0,1.7429876E0,1.5935887E1,1.7429876E1,1.7429876E1,1.0457926E1,4.7309666E0,4.7309666E0,6.224956E0,9.710932E0,9.710932E0,7.7189455E0,1.5935887E1,1.4939895E0,1.9919859E0,2.7389805E0,1.9919859E0,4.23297E0,3.7349737E0,5.975958E0,1.2449912E1,3.4859753E0,1.9919859E0,2.2409842E0,4.4819684E0,1.4939895E0,3.236977E0,9.2129345E0],"tree_param":{"num_deleted":"0","num_feature":"13","num_nodes":"43","size_leaf_vector":"1"}},{"base_weights":[-1.4832798E-1,-1.5192955E0,1.0519797E0,-1.7914034E0,-7.281667E-1,9.675724E-1,1.4577444E0,-4.6741E-3,-1.4347008E0,-1.160096E0,-4.8403227E-1,4.6727273E-1,1.3914372E0,1.4006459E-3,4.4741794E-3,-3.9612446E-3,-3.9697904E-4,-4.198857E-3,-5.4223555E-1,-3.2483896E-3,7.813518E-2,7.2780937E-1,5.412212E-3,1.47551E0,-1.3474462E-3,-6.797195E-5,-4.674063E-3,2.3118514E-3,-1.967662E-1,8.326415E-1,-3.010756E-3,-3.613313E-1,4.733262E-1,3.5105096E-3,5.3058323E-3,3.2791597E-1,-2.8595545E-3,7.177136E-1,5.3058206E-3,3.3098287E-3,-6.259046E-1,-2.456324E-3,2.8108524E-3,-2.7449653E-1,5.3058015E-3,8.6921567E-1,-1.6801103E-3,-3.078739E-4,-2.8028537E-3,8.7030936E-4,-3.010756E-3,7.6496166E-1,5.305814E-3,5.1546993E-4,2.4781916E-3],"categories":[],"categories_nodes":[],"categories_segments":[],"categories_sizes":[],"default_left":[0,0,0,0,0,0,0,0,0,0,0,0,0,0,0,0,0,0,0,0,0,0,0,0,0,0,0,0,0,0,0,0,0,0,0,0,0,0,0,0,0,0,0,0,0,0,0,0,0,0,0,0,0,0,0],"id":11,"left_children":[1,3,5,7,9,11,13,-1,15,17,19,21,23,-1,-1,-1,-1,-1,25,-1,27,29,31,33,-1,-1,-1,-1,35,37,-1,39,41,-1,-1,43,-1,45,-1,-1,47,-1,-1,49,-1,51,-1,-1,-1,-1,-1,53,-1,-1,-1],"loss_changes":[3.7041156E2,2.2620255E1,4.110504E0,2.496872E0,2.8357058E0,2.1068161E1,6.33321E0,0E0,3.1873703E0,3.1775494E0,7.9506435E0,5.4831114E0,8.743561E0,0E0,0E0,0E0,0E0,0E0,3.0892696E0,0E0,2.391636E0,5.9230013E0,2.8201306E0,2.1359634E0,0E0,0E0,0E0,0E0,3.8635616E0,4.1373615E0,0E0,4.127329E0,6.943511E0,0E0,0E0,5.4216805E0,0E0,5.3631706E0,0E0,0E0,2.0080376E0,0E0,0E0,2.1865242E0,0E0,3.023325E0,0E0,0E0,0E0,0E0,0E0,2.7411757E0,0E0,0E0,0E0],"parents":[2147483647,0,0,1,1,2,2,3,3,4,4,5,5,6,6,8,8,9,9,10,10,11,11,12,12,18,18,20,20,21,21,22,22,23,23,28,28,29,29,31,31,32,32,35,35,37,37,40,40,43,43,45,45,51,51],"right_children":[2,4,6,8,10,12,14,-1,16,18,20,22,24,-1,-1,-1,-1,-1,26,-1,28,30,32,34,-1,-1,-1,-1,36,38,-1,40,42,-1,-1,44,-1,46,-1,-1,48,-1,-1,50,-1,52,-1,-1,-1,-1,-1,54,-1,-1,-1],"split_conditions":[2.8123736E-1,1.8749157E-1,7.23231E-1,1.4061868E-1,3.8911584E-1,5.624747E-1,4.6872893E-1,-4.6741E-3,9.4451874E-1,5.521433E-1,2.3436446E-1,4.936091E-1,6.813734E-1,1.4006459E-3,4.4741794E-3,-3.9612446E-3,-3.9697904E-4,-4.198857E-3,8.5130864E-1,-3.2483896E-3,5.285867E-1,9.0859735E-1,4.2185605E-1,1E0,-1.3474462E-3,-6.797195E-5,-4.674063E-3,2.3118514E-3,6.080653E-1,9.4451874E-1,-3.010756E-3,2.7161184E-1,5.599839E-1,3.5105096E-3,5.3058323E-3,7.419982E-1,-2.8595545E-3,8.323676E-1,5.3058206E-3,3.3098287E-3,1E0,-2.456324E-3,2.8108524E-3,1E0,5.3058015E-3,8.4369177E-1,-1.6801103E-3,-3.078739E-4,-2.8028537E-3,8.7030936E-4,-3.010756E-3,2.1373187E-1,5.305814E-3,5.1546993E-4,2.4781916E-3],"split_indices":[3,3,2,3,2,3,3,0,1,0,3,2,2,0,0,0,0,0,0,0,2,0,3,4,0,0,0,0,1,1,0,1,2,0,0,0,0,1,0,0,12,0,0,12,0,0,0,0,0,0,0,2,0,0,0],"split_type":[0,0,0,0,0,0,0,0,0,0,0,0,0,0,0,0,0,0,0,0,0,0,0,0,0,0,0,0,0,0,0,0,0,0,0,0,0,0,0,0,0,0,0,0,0,0,0,0,0,0,0,0,0,0,0],"sum_hessian":[2.250944E2,1.05077255E2,1.2001715E2,7.818545E1,2.689181E1,9.9350296E1,2.0666853E1,6.2498558E1,1.5686889E1,9.710932E0,1.7180878E1,4.5566677E1,5.378362E1,5.7269597E0,1.4939895E1,1.3943901E1,1.7429876E0,5.228963E0,4.4819684E0,6.9719505E0,1.0208928E1,2.9132793E1,1.6433884E1,5.1542637E1,2.2409842E0,3.236977E0,1.2449912E0,2.4899824E0,7.7189455E0,2.7638805E1,1.4939895E0,9.2129345E0,7.220949E0,4.706067E1,4.4819684E0,4.9799647E0,2.7389805E0,2.539782E1,2.2409842E0,1.2449912E0,7.9679437E0,2.2409842E0,4.9799647E0,3.7349737E0,1.2449912E0,2.2907839E1,2.4899824E0,3.9839718E0,3.9839718E0,2.2409842E0,1.4939895E0,2.116485E1,1.7429876E0,6.224956E0,1.4939895E1],"tree_param":{"num_deleted":"0","num_feature":"13","num_nodes":"55","size_leaf_vector":"1"}},{"base_weights":[8.181771E-2,4.3636624E-2,5.905069E-1,-4.0833866E-3,1.0371807E0,-2.8259584E-3,1.8180964E0,1.0528538E-1,1.5121632E0,5.0034155E-3,1.3138558E-3,-7.086439E-2,7.0083886E-1,1.1128798E0,4.1925428E-3,7.891885E-2,-1.1722094E0,2.3705636E-3,-9.316166E-4,1.220602E0,-2.3856845E-4,-5.8818202E-2,9.539524E-1,3.1586972E-4,-4.6740836E-3,1.6681693E0,8.887841E-1,1.1311314E0,-2.0756231E-1,4.3078326E-3,-3.9697904E-4,2.6445186E-3,4.9494104E-3,1.109772E0,-5.543747E-2,5.305814E-3,-6.821171E-4,-4.674063E-3,-1.1561883E-1,-3.9697904E-4,3.309852E-3,1.9791827E-3,-2.67809E-3,-7.0771185E-4,2.2350852E-3],"categories":[],"categories_nodes":[],"categories_segments":[],"categories_sizes":[],"default_left":[0,0,0,0,0,0,0,0,0,0,0,0,0,0,0,0,0,0,0,0,0,0,0,0,0,0,0,0,0,0,0,0,0,0,0,0,0,0,0,0,0,0,0,0,0],"id":12,"left_children":[1,3,5,-1,7,-1,9,11,13,-1,-1,15,17,19,-1,21,23,-1,-1,25,-1,27,29,-1,-1,31,33,35,37,-1,-1,-1,-1,39,41,-1,-1,-1,43,-1,-1,-1,-1,-1,-1],"loss_changes":[4.502428E0,3.6139313E2,3.4327045E1,0E0,6.0067245E1,0E0,2.383381E0,4.806369E0,6.280319E0,0E0,0E0,5.832723E0,2.847539E0,3.5668068E0,0E0,3.7513013E0,3.8979506E0,0E0,0E0,3.7348557E0,0E0,4.7598004E0,3.6752098E0,0E0,0E0,2.0923042E0,3.0134716E0,4.2168646E0,3.6777053E0,0E0,0E0,0E0,0E0,3.3007584E0,2.3852975E0,0E0,0E0,0E0,3.8910403E0,0E0,0E0,0E0,0E0,0E0,0E0],"parents":[2147483647,0,0,1,1,2,2,4,4,6,6,7,7,8,8,11,11,12,12,13,13,15,15,16,16,19,19,21,21,22,22,25,25,26,26,27,27,28,28,33,33,34,34,38,38],"right_children":[2,4,6,-1,8,-1,10,12,14,-1,-1,16,18,20,-1,22,24,-1,-1,26,-1,28,30,-1,-1,32,34,36,38,-1,-1,-1,-1,40,42,-1,-1,-1,44,-1,-1,-1,-1,-1,-1],"split_conditions":[9.4451874E-1,2.3436446E-1,2.8123736E-1,-4.0833866E-3,4.2185605E-1,-2.8259584E-3,8.869622E-1,3.7498313E-1,5.624747E-1,5.0034155E-3,1.3138558E-3,1E0,6.112021E-1,1E0,4.1925428E-3,1E0,3.83763E-1,2.3705636E-3,-9.316166E-4,1E0,-2.3856845E-4,2.0095617E-1,4.9591413E-1,3.1586972E-4,-4.6740836E-3,4.081517E-1,1E0,1E0,1.5946066E-1,4.3078326E-3,-3.9697904E-4,2.6445186E-3,4.9494104E-3,2.7161184E-1,4.9591413E-1,5.305814E-3,-6.821171E-4,-4.674063E-3,9.0859735E-1,-3.9697904E-4,3.309852E-3,1.9791827E-3,-2.67809E-3,-7.0771185E-4,2.2350852E-3],"split_indices":[1,3,3,0,3,0,0,3,3,0,0,11,2,10,0,10,1,0,0,12,0,0,1,0,0,0,5,4,1,0,0,0,0,1,1,0,0,0,0,0,0,0,0,0,0],"split_type":[0,0,0,0,0,0,0,0,0,0,0,0,0,0,0,0,0,0,0,0,0,0,0,0,0,0,0,0,0,0,0,0,0,0,0,0,0,0,0,0,0,0,0,0,0],"sum_hessian":[2.3181737E2,2.1563248E2,1.6184885E1,7.992844E1,1.3570404E2,6.7229524E0,9.461933E0,4.5815678E1,8.988837E1,8.216942E0,1.2449912E0,3.535775E1,1.0457926E1,2.7389807E1,6.2498558E1,3.112478E1,4.23297E0,8.46594E0,1.9919859E0,2.5148823E1,2.2409842E0,2.689181E1,4.23297E0,1.4939895E0,2.7389805E0,1.0706924E1,1.4441898E1,2.987979E0,2.3903831E1,2.4899824E0,1.7429876E0,3.7349737E0,6.9719505E0,1.1702917E1,2.7389805E0,1.7429876E0,1.2449912E0,1.2449912E0,2.265884E1,1.7429876E0,9.959929E0,1.4939895E0,1.2449912E0,1.9421864E1,3.236977E0],"tree_param":{"num_deleted":"0","num_feature":"13","num_nodes":"45","size_leaf_vector":"1"}},{"base_weights":[5.48486E-2,4.9680555E-3,4.8644638E-1,-1.6781012E0,9.571044E-1,1.2011821E0,-1.0458558E-1,-4.6741E-3,-3.0290533E-3,1.555386E-2,1.448348E0,-4.674069E-3,4.2269267E-3,-1.1722107E0,4.751392E-3,3.8801157E-3,-4.699606E-2,1.1789455E0,1.704052E0,-1.0450259E-3,-3.8062725E-3,-7.3347825E-1,8.5566185E-2,9.6231675E-1,1.6240181E0,4.8361975E-3,1.4803599E0,-2.7731534E-3,1.0287191E-3,2.4544266E-3,-6.721505E-2,1.0909737E0,-2.7353024E-2,4.4564833E-3,1.5633571E-3,1.6092407E0,3.1587027E-4,8.9224294E-2,-9.884671E-1,1.5225329E0,4.699487E-1,-4.674063E-3,2.810844E-3,1.7552567E0,1.313861E-3,2.0743376E-1,-4.674069E-3,-3.9064004E-3,1.3138558E-3,5.3058323E-3,3.1151217E-3,2.3866986E-1,5.3058015E-3,3.3742376E-3,5.073748E-3,2.8108512E-3,7.8254096E-5,1.8128599E-3,-9.3161885E-4],"categories":[],"categories_nodes":[],"categories_segments":[],"categories_sizes":[],"default_left":[0,0,0,0,0,0,0,0,0,0,0,0,0,0,0,0,0,0,0,0,0,0,0,0,0,0,0,0,0,0,0,0,0,0,0,0,0,0,0,0,0,0,0,0,0,0,0,0,0,0,0,0,0,0,0,0,0,0,0],"id":13,"left_children":[1,3,5,7,9,11,13,-1,-1,15,17,-1,-1,19,-1,-1,21,23,25,-1,-1,27,29,31,33,-1,35,-1,-1,-1,37,39,41,-1,-1,43,-1,45,47,49,51,-1,-1,53,-1,55,-1,-1,-1,-1,-1,57,-1,-1,-1,-1,-1,-1,-1],"loss_changes":[4.915594E0,3.2799652E2,9.992558E0,6.887375E0,6.046392E1,1.6493443E1,2.7876862E1,0E0,0E0,4.3337927E0,5.9177094E0,0E0,0E0,2.287695E0,0E0,0E0,3.9200506E0,4.0332146E0,2.3868866E0,0E0,0E0,3.0598714E0,4.9762945E0,3.5826035E0,2.3073006E0,0E0,3.995304E0,0E0,0E0,0E0,4.449822E0,6.6733704E0,6.9508815E0,0E0,0E0,3.299961E0,0E0,6.146859E0,3.968019E0,2.420578E0,3.9317E0,0E0,0E0,2.0979118E0,0E0,4.046679E0,0E0,0E0,0E0,0E0,0E0,2.6997004E0,0E0,0E0,0E0,0E0,0E0,0E0,0E0],"parents":[2147483647,0,0,1,1,2,2,3,3,4,4,5,5,6,6,9,9,10,10,13,13,16,16,17,17,18,18,21,21,22,22,23,23,24,24,26,26,30,30,31,31,32,32,35,35,37,37,38,38,39,39,40,40,43,43,45,45,51,51],"right_children":[2,4,6,8,10,12,14,-1,-1,16,18,-1,-1,20,-1,-1,22,24,26,-1,-1,28,30,32,34,-1,36,-1,-1,-1,38,40,42,-1,-1,44,-1,46,48,50,52,-1,-1,54,-1,56,-1,-1,-1,-1,-1,58,-1,-1,-1,-1,-1,-1,-1],"split_conditions":[1E0,2.3436446E-1,1E0,1.4061868E-1,4.2185605E-1,1.4061868E-1,5.624747E-1,-4.6741E-3,-3.0290533E-3,1.5946066E-1,6.562205E-1,-4.674069E-3,4.2269267E-3,2.2818248E-1,4.751392E-3,3.8801157E-3,2.2773747E-1,6.4793706E-1,1E0,-1.0450259E-3,-3.8062725E-3,7.358399E-1,1.0768981E-1,1E0,8.323676E-1,4.8361975E-3,1E0,-2.7731534E-3,1.0287191E-3,2.4544266E-3,1E0,4.6466523E-1,2.3175856E-1,4.4564833E-3,1.5633571E-3,1E0,3.1587027E-4,8.605001E-1,5.7920444E-1,1.8733111E-1,1E0,-4.674063E-3,2.810844E-3,4.081517E-1,1.313861E-3,3.4975633E-1,-4.674069E-3,-3.9064004E-3,1.3138558E-3,5.3058323E-3,3.1151217E-3,5.156018E-1,5.3058015E-3,3.3742376E-3,5.073748E-3,2.8108512E-3,7.8254096E-5,1.8128599E-3,-9.3161885E-4],"split_indices":[5,3,12,3,3,3,3,0,0,1,3,0,0,0,0,0,2,2,12,0,0,0,0,11,1,0,9,0,0,0,11,2,2,0,0,7,0,2,2,2,6,0,0,0,0,2,0,0,0,0,0,3,0,0,0,0,0,0,0],"split_type":[0,0,0,0,0,0,0,0,0,0,0,0,0,0,0,0,0,0,0,0,0,0,0,0,0,0,0,0,0,0,0,0,0,0,0,0,0,0,0,0,0,0,0,0,0,0,0,0,0,0,0,0,0,0,0,0,0,0,0],"sum_hessian":[2.2833139E2,2.0467656E2,2.3654833E1,7.395248E1,1.3072408E2,1.0706924E1,1.2947908E1,5.1293636E1,2.265884E1,4.4819683E1,8.5904396E1,1.4939895E0,9.2129345E0,8.46594E0,4.4819684E0,1.7429876E0,4.3076694E1,4.1831703E1,4.407269E1,2.7389805E0,5.7269597E0,6.9719505E0,3.6104744E1,2.81368E1,1.3694903E1,2.116485E1,2.2907839E1,5.228963E0,1.7429876E0,5.228963E0,3.0875782E1,2.4899824E1,3.236977E0,1.1702917E1,1.9919859E0,2.0915852E1,1.9919859E0,2.6393814E1,4.4819684E0,1.4690896E1,1.0208928E1,1.2449912E0,1.9919859E0,1.8425869E1,2.4899824E0,2.4899824E1,1.4939895E0,3.236977E0,1.2449912E0,4.4819684E0,1.0208928E1,8.963937E0,1.2449912E0,7.7189455E0,1.0706924E1,3.9839718E0,2.0915852E1,4.9799647E0,3.9839718E0],"tree_param":{"num_deleted":"0","num_feature":"13","num_nodes":"59","size_leaf_vector":"1"}},{"base_weights":[-6.757762E-3,-1.4721715E0,1.0965136E0,-4.4958866E-3,-6.370116E-1,3.8406572E-1,1.5798784E0,-9.1320074E-1,1.2711182E-1,3.5229494E-4,8.326413E-1,4.4351094E-3,1.391437E0,-3.5652125E-3,-6.617629E-1,3.3098287E-3,-1.1385338E-1,9.5395404E-1,-1.3474433E-3,1.0909737E0,4.661974E-3,-1.2116698E-3,-4.674074E-3,-4.674063E-3,3.2791597E-1,2.0865058E-3,5.3058085E-3,4.780574E-3,2.2256132E-3,-1.3474477E-3,4.058331E-3],"categories":[],"categories_nodes":[],"categories_segments":[],"categories_sizes":[],"default_left":[0,0,0,0,0,0,0,0,0,0,0,0,0,0,0,0,0,0,0,0,0,0,0,0,0,0,0,0,0,0,0],"id":14,"left_children":[1,3,5,-1,7,9,11,13,15,-1,17,-1,19,-1,21,-1,23,25,-1,27,-1,-1,-1,-1,29,-1,-1,-1,-1,-1,-1],"loss_changes":[3.6834946E2,2.7545334E1,4.4760498E1,0E0,5.9380655E0,5.710333E0,2.989746E0,2.7099247E0,2.1686726E0,0E0,3.0732527E0,0E0,5.873543E0,0E0,2.9608107E0,0E0,4.8594356E0,2.2861576E0,0E0,4.0509224E0,0E0,0E0,0E0,0E0,5.6559687E0,0E0,0E0,0E0,0E0,0E0,0E0],"parents":[2147483647,0,0,1,1,2,2,4,4,5,5,6,6,7,7,8,8,10,10,12,12,14,14,16,16,17,17,19,19,24,24],"right_children":[2,4,6,-1,8,10,12,14,16,-1,18,-1,20,-1,22,-1,24,26,-1,28,-1,-1,-1,-1,30,-1,-1,-1,-1,-1,-1],"split_conditions":[2.8123736E-1,1.8749157E-1,5.156018E-1,-4.4958866E-3,7.144478E-1,4.2185605E-1,1E0,3.937257E-1,7.7165544E-1,3.5229494E-4,9.0859735E-1,4.4351094E-3,6.5902275E-1,-3.5652125E-3,8.015695E-1,3.3098287E-3,2.7515766E-1,1E0,-1.3474433E-3,1.4253302E-1,4.661974E-3,-1.2116698E-3,-4.674074E-3,-4.674063E-3,9.127299E-1,2.0865058E-3,5.3058085E-3,4.780574E-3,2.2256132E-3,-1.3474477E-3,4.058331E-3],"split_indices":[3,3,3,0,0,3,12,2,0,0,0,0,0,0,2,0,2,8,0,0,0,0,0,0,0,0,0,0,0,0,0],"split_type":[0,0,0,0,0,0,0,0,0,0,0,0,0,0,0,0,0,0,0,0,0,0,0,0,0,0,0,0,0,0,0],"sum_hessian":[2.2783339E2,9.785631E1,1.2997708E2,6.9719505E1,2.81368E1,5.2538628E1,7.743845E1,2.0666853E1,7.4699473E0,3.411276E1,1.8425869E1,3.710074E1,4.0337715E1,6.7229524E0,1.3943901E1,1.2449912E0,6.224956E0,1.693188E1,1.4939895E0,2.4899824E1,1.5437891E1,1.2200913E1,1.7429876E0,1.2449912E0,4.9799647E0,1.5437891E1,1.4939895E0,4.7309666E0,2.0168858E1,2.987979E0,1.9919859E0],"tree_param":{"num_deleted":"0","num_feature":"13","num_nodes":"31","size_leaf_vector":"1"}},{"base_weights":[-2.999E-3,-1.4783183E0,1.1139885E0,-4.6741E-3,-9.3597114E-1,4.0446636E-1,1.4851547E0,-1.2177259E0,-4.325072E-1,-3.4454938E-2,8.107019E-1,1.2231373E-3,1.5525768E0,-3.4570321E-3,-6.909799E-1,-2.7449706E-1,-4.674069E-3,2.6559776E-1,-6.3455987E-1,1.3113431E0,4.5570105E-1,1.4865109E0,5.305838E-3,-4.674063E-3,-1.0450279E-3,-7.779063E-2,-4.674069E-3,-1.967662E-1,7.9645956E-1,-2.7449673E-1,-3.5652018E-3,4.852202E-3,4.81472E-1,2.500534E-1,5.3058085E-3,1.5481907E0,9.6919465E-1,-4.9074766E-1,3.890304E-1,-4.674063E-3,1.271118E-1,3.2791597E-1,5.305814E-3,-2.0127764E-3,3.3098287E-3,-9.316166E-4,3.0880647E-3,4.5400283E-1,-3.010756E-3,1.2383604E0,4.352345E-3,-5.543747E-2,3.8088448E-3,-4.674069E-3,-7.369249E-2,3.0880647E-3,-1.5975131E-1,-2.1791034E-3,1.4247514E-3,5.3058015E-3,-2.7449653E-1,1.2711181E-1,1.0641974E0,9.5802706E-1,1.5996779E0,-4.674063E-3,3.6424955E-3,5.3058015E-3,-8.0997413E-1,-3.2483756E-3,2.4544173E-3,-4.674063E-3,1.313861E-3,-6.7610383E-1,1.4247514E-3,-6.821171E-4,4.3078326E-3,6.555445E-1,1.5327413E0,5.305836E-3,8.669167E-1,3.1587027E-4,-4.674074E-3,1.3138558E-3,-4.674063E-3,2.4544278E-3,-6.8211986E-4,5.3058276E-3,1.0287191E-3,-3.9697904E-4,3.642508E-3],"categories":[],"categories_nodes":[],"categories_segments":[],"categories_sizes":[],"default_left":[0,0,0,0,0,0,0,0,0,0,0,0,0,0,0,0,0,0,0,0,0,0,0,0,0,0,0,0,0,0,0,0,0,0,0,0,0,0,0,0,0,0,0,0,0,0,0,0,0,0,0,0,0,0,0,0,0,0,0,0,0,0,0,0,0,0,0,0,0,0,0,0,0,0,0,0,0,0,0,0,0,0,0,0,0,0,0,0,0,0,0],"id":15,"left_children":[1,3,5,-1,7,9,11,13,15,17,19,-1,21,-1,23,25,-1,27,29,31,33,35,-1,-1,-1,37,-1,39,41,43,-1,-1,45,47,-1,49,51,53,55,-1,57,59,-1,-1,-1,-1,-1,61,-1,63,-1,65,-1,-1,67,-1,69,-1,-1,-1,71,73,75,77,79,-1,-1,-1,81,-1,-1,-1,-1,83,-1,-1,-1,85,87,-1,89,-1,-1,-1,-1,-1,-1,-1,-1,-1,-1],"loss_changes":[3.7996332E2,2.1693878E1,3.455739E1,0E0,6.004612E0,8.035994E0,5.7676697E0,2.4795494E0,3.47619E0,3.900683E0,4.1598673E0,0E0,3.1050415E0,0E0,2.1635194E0,4.32751E0,0E0,3.544788E0,2.0803494E0,5.1678143E0,4.7298555E0,2.3119812E0,0E0,0E0,0E0,2.3520596E0,0E0,4.2103844E0,4.216857E0,4.283809E0,0E0,0E0,2.7594085E0,3.637086E0,0E0,4.0771027E0,4.457143E0,3.753469E0,2.682924E0,0E0,2.9005005E0,5.4216805E0,0E0,0E0,0E0,0E0,0E0,2.1356797E0,0E0,2.5977364E0,0E0,7.6061797E0,0E0,0E0,8.099069E0,0E0,4.5897937E0,0E0,0E0,0E0,4.8192735E0,2.4988942E0,3.3467245E0,2.5105867E0,4.396538E0,0E0,0E0,0E0,3.7483242E0,0E0,0E0,0E0,0E0,3.6144497E0,0E0,0E0,0E0,2.9229841E0,3.3562822E0,0E0,2.908885E0,0E0,0E0,0E0,0E0,0E0,0E0,0E0,0E0,0E0,0E0],"parents":[2147483647,0,0,1,1,2,2,4,4,5,5,6,6,7,7,8,8,9,9,10,10,12,12,14,14,15,15,17,17,18,18,19,19,20,20,21,21,25,25,27,27,28,28,29,29,32,32,33,33,35,35,36,36,37,37,38,38,40,40,41,41,47,47,49,49,51,51,54,54,56,56,60,60,61,61,62,62,63,63,64,64,68,68,73,73,77,77,78,78,80,80],"right_children":[2,4,6,-1,8,10,12,14,16,18,20,-1,22,-1,24,26,-1,28,30,32,34,36,-1,-1,-1,38,-1,40,42,44,-1,-1,46,48,-1,50,52,54,56,-1,58,60,-1,-1,-1,-1,-1,62,-1,64,-1,66,-1,-1,68,-1,70,-1,-1,-1,72,74,76,78,80,-1,-1,-1,82,-1,-1,-1,-1,84,-1,-1,-1,86,88,-1,90,-1,-1,-1,-1,-1,-1,-1,-1,-1,-1],"split_conditions":[2.8123736E-1,1.4061868E-1,4.6872893E-1,-4.6741E-3,2.3436446E-1,3.7498313E-1,1.6636944E-1,7.2021645E-1,1E0,7.264403E-1,4.270111E-1,1.2231373E-3,1E0,-3.4570321E-3,1.5023094E-1,1E0,-4.674069E-3,4.472085E-1,7.23231E-1,6.080653E-1,9.4451874E-1,1E0,5.305838E-3,-4.674063E-3,-1.0450279E-3,6.060287E-1,-4.674069E-3,1.8733111E-1,5.3322023E-1,5.0350773E-1,-3.5652018E-3,4.852202E-3,1E0,1E0,5.3058085E-3,6.562205E-1,4.9591413E-1,3.749628E-1,5.0350773E-1,-4.674063E-3,1E0,1.6636944E-1,5.305814E-3,-2.0127764E-3,3.3098287E-3,-9.316166E-4,3.0880647E-3,4.2185605E-1,-3.010756E-3,6.5902275E-1,4.352345E-3,7.4996626E-1,3.8088448E-3,-4.674069E-3,4.6626616E-1,3.0880647E-3,6.6765964E-1,-2.1791034E-3,1.4247514E-3,5.3058015E-3,4.9591413E-1,3.015963E-1,1E0,6.0925347E-1,8.2943034E-1,-4.674063E-3,3.6424955E-3,5.3058015E-3,1.9812009E-1,-3.2483756E-3,2.4544173E-3,-4.674063E-3,1.313861E-3,1.8588445E-1,1.4247514E-3,-6.821171E-4,4.3078326E-3,4.878049E-1,6.080653E-1,5.305836E-3,5.624747E-1,3.1587027E-4,-4.674074E-3,1.3138558E-3,-4.674063E-3,2.4544278E-3,-6.8211986E-4,5.3058276E-3,1.0287191E-3,-3.9697904E-4,3.642508E-3],"split_indices":[3,3,3,0,3,3,2,1,4,0,2,0,4,0,0,11,0,0,2,1,1,9,0,0,0,0,0,2,2,2,0,0,12,10,0,3,1,2,2,0,12,2,0,0,0,0,0,3,0,0,0,3,0,0,2,0,2,0,0,0,1,0,12,2,0,0,0,0,0,0,0,0,0,0,0,0,0,0,1,0,3,0,0,0,0,0,0,0,0,0,0],"split_type":[0,0,0,0,0,0,0,0,0,0,0,0,0,0,0,0,0,0,0,0,0,0,0,0,0,0,0,0,0,0,0,0,0,0,0,0,0,0,0,0,0,0,0,0,0,0,0,0,0,0,0,0,0,0,0,0,0,0,0,0,0,0,0,0,0,0,0,0,0,0,0,0,0,0,0,0,0,0,0,0,0,0,0,0,0,0,0,0,0,0,0],"sum_hessian":[2.3057237E2,9.9350296E1,1.3122208E2,5.7020596E1,4.23297E1,4.506868E1,8.615339E1,2.7140808E1,1.5188892E1,2.1662848E1,2.3405834E1,5.477961E0,8.067543E1,2.0417856E1,6.7229524E0,1.3694903E1,1.4939895E0,1.4441898E1,7.220949E0,9.710932E0,1.3694903E1,7.245849E1,8.216942E0,1.2449912E0,5.477961E0,1.2200913E1,1.4939895E0,7.7189455E0,6.7229524E0,4.9799647E0,2.2409842E0,5.477961E0,4.23297E0,1.2200913E1,1.4939895E0,6.473954E1,7.7189455E0,6.473954E0,5.7269597E0,1.2449912E0,6.473954E0,4.9799647E0,1.7429876E0,3.7349737E0,1.2449912E0,1.9919859E0,2.2409842E0,1.0706924E1,1.4939895E0,2.5646818E1,3.9092724E1,2.7389805E0,4.9799647E0,1.4939895E0,4.9799647E0,2.2409842E0,3.4859753E0,1.9919859E0,4.4819684E0,1.2449912E0,3.7349737E0,6.9719505E0,3.7349737E0,1.4441898E1,1.1204921E1,1.2449912E0,1.4939895E0,1.2449912E0,3.7349737E0,1.7429876E0,1.7429876E0,1.2449912E0,2.4899824E0,2.4899824E0,4.4819684E0,1.2449912E0,2.4899824E0,9.461933E0,4.9799647E0,6.473954E0,4.7309666E0,1.9919859E0,1.7429876E0,1.2449912E0,1.2449912E0,6.9719505E0,2.4899824E0,3.236977E0,1.7429876E0,1.7429876E0,2.987979E0],"tree_param":{"num_deleted":"0","num_feature":"13","num_nodes":"91","size_leaf_vector":"1"}},{"base_weights":[2.9054528E-2,-1.493242E0,1.1721917E0,-1.7869118E0,-6.5698206E-1,2.4699529E-1,1.4790639E0,-4.6741E-3,-1.3603287E0,-8.217447E-1,4.1397455E-1,9.472412E-2,5.305823E-3,1.0618918E0,1.6470913E0,-4.6740924E-3,-9.438448E-1,-1.0078701E0,-2.379869E-1,4.058331E-3,-3.010756E-3,-1.3803534E-2,3.309842E-3,1.5010374E0,6.3763183E-1,1.5773674E0,5.3058383E-3,-5.543747E-2,-3.6235722E-3,-8.5989326E-1,-4.6740817E-3,6.7475855E-1,-2.8595545E-3,-1.597517E-1,8.8012713E-1,5.3058313E-3,1.2535758E0,-9.9959E-5,1.1024475E0,1.500055E0,5.0361105E-3,-3.010756E-3,3.3098287E-3,1.3138558E-3,-2.4563333E-3,-6.821171E-4,3.6424955E-3,-4.2582804E-1,4.733262E-1,4.3985606E-3,-2.67809E-3,3.8382006E-3,-3.9697904E-4,7.3825526E-1,4.4741672E-3,3.8801369E-3,8.669167E-1,-7.369257E-2,-2.265145E-3,-3.3628228E-1,1.1311324E0,3.1672756E-3,-2.3856845E-4,-1.3776148E-4,5.3058174E-3,-3.010756E-3,1.2711184E-1,-3.010756E-3,1.0287191E-3,3.1586972E-4,4.3078326E-3,3.0880647E-3,-6.821215E-4],"categories":[],"categories_nodes":[],"categories_segments":[],"categories_sizes":[],"default_left":[0,0,0,0,0,0,0,0,0,0,0,0,0,0,0,0,0,0,0,0,0,0,0,0,0,0,0,0,0,0,0,0,0,0,0,0,0,0,0,0,0,0,0,0,0,0,0,0,0,0,0,0,0,0,0,0,0,0,0,0,0,0,0,0,0,0,0,0,0,0,0,0,0],"id":16,"left_children":[1,3,5,7,9,11,13,-1,15,17,19,21,-1,23,25,-1,27,29,31,-1,-1,33,-1,35,37,39,-1,41,-1,43,-1,45,-1,47,49,-1,51,-1,53,55,-1,-1,-1,-1,-1,-1,-1,57,59,-1,-1,-1,-1,61,-1,-1,63,65,-1,67,69,-1,-1,-1,-1,-1,71,-1,-1,-1,-1,-1,-1],"loss_changes":[4.0817358E2,2.470462E1,3.80338E1,2.9860687E0,4.613353E0,9.59304E0,7.051361E0,0E0,2.9153595E0,2.4619303E0,6.9085956E0,4.14574E0,0E0,5.3813896E0,2.4402924E0,0E0,3.4133468E0,2.2196217E0,4.5637245E0,0E0,0E0,3.7034285E0,0E0,2.2271156E0,4.628789E0,2.1793365E0,0E0,4.3933296E0,0E0,2.6229353E0,0E0,2.0567083E0,0E0,4.1104198E0,6.941416E0,0E0,4.198408E0,0E0,2.215478E0,2.0802917E0,0E0,0E0,0E0,0E0,0E0,0E0,0E0,2.938505E0,3.8456366E0,0E0,0E0,0E0,0E0,2.5623617E0,0E0,0E0,5.5341E0,2.275771E0,0E0,2.1257186E0,2.409638E0,0E0,0E0,0E0,0E0,0E0,3.7929602E0,0E0,0E0,0E0,0E0,0E0,0E0],"parents":[2147483647,0,0,1,1,2,2,3,3,4,4,5,5,6,6,8,8,9,9,10,10,11,11,13,13,14,14,16,16,17,17,18,18,21,21,23,23,24,24,25,25,27,27,29,29,31,31,33,33,34,34,36,36,38,38,39,39,47,47,48,48,53,53,56,56,57,57,59,59,60,60,66,66],"right_children":[2,4,6,8,10,12,14,-1,16,18,20,22,-1,24,26,-1,28,30,32,-1,-1,34,-1,36,38,40,-1,42,-1,44,-1,46,-1,48,50,-1,52,-1,54,56,-1,-1,-1,-1,-1,-1,-1,58,60,-1,-1,-1,-1,62,-1,-1,64,66,-1,68,70,-1,-1,-1,-1,-1,72,-1,-1,-1,-1,-1,-1],"split_conditions":[2.8123736E-1,1.8749157E-1,4.2185605E-1,1.4061868E-1,9.268293E-1,8.9109474E-1,5.624747E-1,-4.6741E-3,4.3156958E-1,7.13184E-1,9.636172E-1,1E0,5.305823E-3,5.228202E-1,7.9223305E-1,-4.6740924E-3,7.527753E-1,1E0,8.279318E-1,4.058331E-3,-3.010756E-3,1E0,3.309842E-3,4.9591413E-1,6.4793706E-1,9.843308E-1,5.3058383E-3,5.929017E-1,-3.6235722E-3,2.7161184E-1,-4.6740817E-3,2.3436446E-1,-2.8595545E-3,6.672069E-1,4.981525E-1,5.3058313E-3,6.328499E-1,-9.9959E-5,5.4582286E-1,1E0,5.0361105E-3,-3.010756E-3,3.3098287E-3,1.3138558E-3,-2.4563333E-3,-6.821171E-4,3.6424955E-3,4.0102097E-1,1E0,4.3985606E-3,-2.67809E-3,3.8382006E-3,-3.9697904E-4,2.7769226E-1,4.4741672E-3,3.8801369E-3,7.4475324E-1,2.2773747E-1,-2.265145E-3,4.9591413E-1,3.2811025E-1,3.1672756E-3,-2.3856845E-4,-1.3776148E-4,5.3058174E-3,-3.010756E-3,1.0768981E-1,-3.010756E-3,1.0287191E-3,3.1586972E-4,4.3078326E-3,3.0880647E-3,-6.821215E-4],"split_indices":[3,3,3,3,0,0,3,0,0,2,0,5,0,2,2,0,0,4,2,0,0,10,0,1,2,3,0,0,0,1,0,3,0,0,2,0,0,0,0,11,0,0,0,0,0,0,0,0,12,0,0,0,0,0,0,0,0,2,0,1,3,0,0,0,0,0,0,0,0,0,0,0,0],"split_type":[0,0,0,0,0,0,0,0,0,0,0,0,0,0,0,0,0,0,0,0,0,0,0,0,0,0,0,0,0,0,0,0,0,0,0,0,0,0,0,0,0,0,0,0,0,0,0,0,0,0,0,0,0,0,0,0,0,0,0,0,0,0,0,0,0,0,0,0,0,0,0,0,0],"sum_hessian":[2.3455634E2,1.0059529E2,1.3396106E2,7.445047E1,2.6144815E1,3.3365765E1,1.0059529E2,6.100457E1,1.3445905E1,2.265884E1,3.4859753E0,3.0875782E1,2.4899824E0,2.8883797E1,7.1711494E1,5.975958E0,7.4699473E0,1.7180878E1,5.477961E0,1.9919859E0,1.4939895E0,2.83858E1,2.4899824E0,1.41929E1,1.4690896E1,6.2747555E1,8.963937E0,2.7389805E0,4.7309666E0,1.4690896E1,2.4899824E0,2.7389805E0,2.7389805E0,2.4401827E1,3.9839718E0,3.9839718E0,1.0208928E1,5.975958E0,8.714938E0,5.3534622E1,9.2129345E0,1.4939895E0,1.2449912E0,1.2449912E0,1.3445905E1,1.2449912E0,1.4939895E0,1.7180878E1,7.220949E0,2.7389805E0,1.2449912E0,8.46594E0,1.7429876E0,5.7269597E0,2.987979E0,4.8803654E1,4.7309666E0,9.959929E0,7.220949E0,3.236977E0,3.9839718E0,3.4859753E0,2.2409842E0,2.7389805E0,1.9919859E0,1.4939895E0,8.46594E0,1.4939895E0,1.7429876E0,1.4939895E0,2.4899824E0,2.2409842E0,6.224956E0],"tree_param":{"num_deleted":"0","num_feature":"13","num_nodes":"73","size_leaf_vector":"1"}},{"base_weights":[5.756926E-2,1.9954067E-2,5.8054143E-1,-1.63379E0,1.0208234E0,-1.4084495E0,1.3319386E0,-4.6741E-3,-1.1507353E0,5.7869002E-2,1.4824048E0,-4.674085E-3,-6.821171E-4,9.6919465E-1,5.3058285E-3,-1.2447212E0,-2.3856845E-4,3.309842E-3,-1.9818222E-2,1.5129466E0,3.1587027E-4,5.287202E-1,4.3985606E-3,-3.3434397E-3,-1.0450259E-3,-3.0706003E-1,2.163584E-1,4.572022E-3,3.5671773E-3,-1.3474433E-3,2.4544245E-3,-3.766819E-3,-9.60042E-2,1.0291861E-1,3.8801157E-3,-2.1910274E-1,3.3098287E-3,6.1555505E-1,-3.0941954E-1,7.9645866E-1,-5.733687E-1,9.3032926E-1,-1.8226773E-3,3.890304E-1,-1.007869E0,3.309842E-3,-6.821171E-4,-4.6740817E-3,-4.4018403E-4,-1.3474433E-3,3.2266835E-3,-6.8212074E-4,4.058331E-3,-3.499981E-3,3.1586972E-4],"categories":[],"categories_nodes":[],"categories_segments":[],"categories_sizes":[],"default_left":[0,0,0,0,0,0,0,0,0,0,0,0,0,0,0,0,0,0,0,0,0,0,0,0,0,0,0,0,0,0,0,0,0,0,0,0,0,0,0,0,0,0,0,0,0,0,0,0,0,0,0,0,0,0,0],"id":17,"left_children":[1,3,5,7,9,11,13,-1,15,17,19,-1,-1,21,-1,23,-1,-1,25,27,-1,29,-1,-1,-1,31,33,-1,-1,-1,-1,-1,35,37,-1,39,-1,41,43,45,47,49,-1,51,53,-1,-1,-1,-1,-1,-1,-1,-1,-1,-1],"loss_changes":[4.525954E0,3.5526242E2,2.3072302E1,9.661087E0,5.9432602E1,2.2678957E0,3.26466E0,0E0,2.7151413E0,4.288318E0,3.7413483E0,0E0,0E0,2.72291E0,0E0,2.0879326E0,0E0,0E0,2.7702878E0,2.2382355E0,0E0,2.4478943E0,0E0,0E0,0E0,4.7007694E0,3.4193769E0,0E0,0E0,0E0,0E0,0E0,2.757391E0,4.3685546E0,0E0,5.195898E0,0E0,3.912191E0,5.587597E0,2.1419039E0,5.5472136E0,4.049548E0,0E0,4.7276134E0,2.6037726E0,0E0,0E0,0E0,0E0,0E0,0E0,0E0,0E0,0E0,0E0],"parents":[2147483647,0,0,1,1,2,2,3,3,4,4,5,5,6,6,8,8,9,9,10,10,13,13,15,15,18,18,19,19,21,21,25,25,26,26,32,32,33,33,35,35,37,37,38,38,39,39,40,40,41,41,43,43,44,44],"right_children":[2,4,6,8,10,12,14,-1,16,18,20,-1,-1,22,-1,24,-1,-1,26,28,-1,30,-1,-1,-1,32,34,-1,-1,-1,-1,-1,36,38,-1,40,-1,42,44,46,48,50,-1,52,54,-1,-1,-1,-1,-1,-1,-1,-1,-1,-1],"split_conditions":[9.4451874E-1,2.3436446E-1,2.3436446E-1,1.4061868E-1,4.2185605E-1,1.4061868E-1,6.562205E-1,-4.6741E-3,8.819215E-1,3.4357022E-2,9.76258E-1,-4.674085E-3,-6.821171E-4,6.204764E-1,5.3058285E-3,1E0,-2.3856845E-4,3.309842E-3,1E0,1.6789563E-1,3.1587027E-4,3.2811025E-1,4.3985606E-3,-3.3434397E-3,-1.0450259E-3,2.3215298E-1,1E0,4.572022E-3,3.5671773E-3,-1.3474433E-3,2.4544245E-3,-3.766819E-3,1E0,4.5790854E-1,3.8801157E-3,4.1220322E-1,3.3098287E-3,8.3583176E-1,4.9591413E-1,5.77701E-1,5.6421685E-1,2.7161184E-1,-1.8226773E-3,7.0170516E-1,1E0,3.309842E-3,-6.821171E-4,-4.6740817E-3,-4.4018403E-4,-1.3474433E-3,3.2266835E-3,-6.8212074E-4,4.058331E-3,-3.499981E-3,3.1586972E-4],"split_indices":[1,3,3,3,3,3,3,0,2,0,0,0,0,2,0,4,0,0,12,0,0,3,0,0,0,0,6,0,0,0,0,0,5,2,0,0,0,0,1,2,0,1,0,2,8,0,0,0,0,0,0,0,0,0,0],"split_type":[0,0,0,0,0,0,0,0,0,0,0,0,0,0,0,0,0,0,0,0,0,0,0,0,0,0,0,0,0,0,0,0,0,0,0,0,0,0,0,0,0,0,0,0,0,0,0,0,0,0,0,0,0,0,0],"sum_hessian":[2.3007437E2,2.1463649E2,1.5437891E1,8.092443E1,1.3371205E2,4.23297E0,1.1204921E1,5.3534622E1,2.7389807E1,4.3325695E1,9.038636E1,2.987979E0,1.2449912E0,7.7189455E0,3.4859753E0,2.5148823E1,2.2409842E0,2.4899824E0,4.0835712E1,8.839438E1,1.9919859E0,4.9799647E0,2.7389805E0,2.2409842E1,2.7389805E0,1.8425869E1,2.2409842E1,1.693188E1,7.1462494E1,1.4939895E0,3.4859753E0,2.7389805E0,1.5686889E1,2.0666853E1,1.7429876E0,1.4441898E1,1.2449912E0,9.2129345E0,1.1453919E1,3.7349737E0,1.0706924E1,7.4699473E0,1.7429876E0,5.7269597E0,5.7269597E0,2.4899824E0,1.2449912E0,2.4899824E0,8.216942E0,1.4939895E0,5.975958E0,3.7349737E0,1.9919859E0,4.23297E0,1.4939895E0],"tree_param":{"num_deleted":"0","num_feature":"13","num_nodes":"55","size_leaf_vector":"1"}},{"base_weights":[3.980563E-2,1.6090974E-3,7.679772E-1,-1.5271851E0,1.1586965E0,-3.766819E-3,1.4658079E0,-4.4983965E-3,-7.391038E-1,-2.67809E-3,1.1808392E0,9.8770136E-1,5.30583E-3,-1.0500178E0,-3.2926187E-1,5.208465E-1,1.6281431E0,5.305825E-3,-6.8211986E-4,-7.054919E-1,-4.6740896E-3,1.9791827E-3,-5.0700736E-1,8.1117135E-1,2.870448E-1,7.008375E-1,1.6733774E0,-4.674069E-3,-1.2524038E-3,-4.674074E-3,-1.967662E-1,-2.7449653E-1,1.025448E0,-3.010766E-3,4.650998E-1,-3.9697904E-4,3.8801157E-3,1.9056667E0,1.4521489E0,1.9791895E-3,-2.0477949E-3,1.9791827E-3,-2.456324E-3,7.964602E-1,4.682086E-3,-1.8181793E-1,6.893646E-1,3.2047962E-3,4.975927E-3,1.3568454E0,5.3058323E-3,4.538142E-3,5.116311E-1,1.9791871E-3,-1.7388186E-3,9.239552E-1,-1.3474477E-3,3.0673507E-3,4.852202E-3,1.7415766E-3,-2.67809E-3,4.592978E-3,1.6397408E-3],"categories":[],"categories_nodes":[],"categories_segments":[],"categories_sizes":[],"default_left":[0,0,0,0,0,0,0,0,0,0,0,0,0,0,0,0,0,0,0,0,0,0,0,0,0,0,0,0,0,0,0,0,0,0,0,0,0,0,0,0,0,0,0,0,0,0,0,0,0,0,0,0,0,0,0,0,0,0,0,0,0,0,0],"id":18,"left_children":[1,3,5,7,9,-1,11,-1,13,-1,15,17,-1,19,21,23,25,-1,-1,27,-1,-1,29,31,33,35,37,-1,-1,-1,39,41,43,-1,45,-1,-1,47,49,-1,-1,-1,-1,51,-1,53,55,-1,-1,57,-1,-1,59,-1,-1,61,-1,-1,-1,-1,-1,-1,-1],"loss_changes":[6.530788E0,3.9465674E2,1.86511E1,2.1439117E1,6.288513E0,0E0,2.8686028E0,0E0,3.236332E0,0E0,3.7121826E1,7.573167E0,0E0,4.134281E0,2.1921897E0,3.4479275E0,3.1437836E0,0E0,0E0,2.4180183E0,0E0,0E0,4.033106E0,5.271206E0,7.5079737E0,2.5817542E0,3.6723328E0,0E0,0E0,0E0,4.809298E0,2.8558729E0,3.7210178E0,0E0,3.6486158E0,0E0,0E0,2.0770721E0,2.3825455E0,0E0,0E0,0E0,0E0,4.38196E0,0E0,3.2801006E0,5.3955812E0,0E0,0E0,2.3440475E0,0E0,0E0,3.5192554E0,0E0,0E0,3.8293743E0,0E0,0E0,0E0,0E0,0E0,0E0,0E0],"parents":[2147483647,0,0,1,1,2,2,3,3,4,4,6,6,8,8,10,10,11,11,13,13,14,14,15,15,16,16,19,19,22,22,23,23,24,24,25,25,26,26,30,30,31,31,32,32,34,34,37,37,38,38,43,43,45,45,46,46,49,49,52,52,55,55],"right_children":[2,4,6,8,10,-1,12,-1,14,-1,16,18,-1,20,22,24,26,-1,-1,28,-1,-1,30,32,34,36,38,-1,-1,-1,40,42,44,-1,46,-1,-1,48,50,-1,-1,-1,-1,52,-1,54,56,-1,-1,58,-1,-1,60,-1,-1,62,-1,-1,-1,-1,-1,-1,-1],"split_conditions":[9.4451874E-1,2.8123736E-1,2.3436446E-1,1.8749157E-1,1.13443E-2,-3.766819E-3,5.0350773E-1,-4.4983965E-3,2.3436446E-1,-2.67809E-3,5.156018E-1,3.688376E-1,5.30583E-3,5.4170936E-1,1.9812009E-1,4.5855278E-1,1.5946066E-1,5.305825E-3,-6.8211986E-4,9.707479E-2,-4.6740896E-3,1.9791827E-3,2.5100005E-1,1.0550199E-1,5.186776E-1,5.377468E-1,1E0,-4.674069E-3,-1.2524038E-3,-4.674074E-3,4.368282E-1,3.079167E-2,4.6872893E-1,-3.010766E-3,3.355214E-1,-3.9697904E-4,3.8801157E-3,2.1739604E-1,1E0,1.9791895E-3,-2.0477949E-3,1.9791827E-3,-2.456324E-3,3.6373737E-1,4.682086E-3,1.6636944E-1,7.2021645E-1,3.2047962E-3,4.975927E-3,1E0,5.3058323E-3,4.538142E-3,1E0,1.9791871E-3,-1.7388186E-3,4.2528647E-1,-1.3474477E-3,3.0673507E-3,4.852202E-3,1.7415766E-3,-2.67809E-3,4.592978E-3,1.6397408E-3],"split_indices":[1,3,3,3,0,0,2,0,3,0,3,2,0,2,0,0,1,0,0,0,0,0,2,0,0,2,12,0,0,0,2,0,3,0,2,0,0,2,4,0,0,0,0,2,0,2,1,0,0,7,0,0,7,0,0,2,0,0,0,0,0,0,0],"split_type":[0,0,0,0,0,0,0,0,0,0,0,0,0,0,0,0,0,0,0,0,0,0,0,0,0,0,0,0,0,0,0,0,0,0,0,0,0,0,0,0,0,0,0,0,0,0,0,0,0,0,0,0,0,0,0,0,0,0,0,0,0,0,0],"sum_hessian":[2.3480534E2,2.2310242E2,1.1702917E1,9.611332E1,1.26989105E2,2.7389805E0,8.963937E0,7.07155E1,2.539782E1,1.2449912E0,1.2574411E2,5.228963E0,3.7349737E0,1.4441898E1,1.0955922E1,5.079564E1,7.494847E1,2.7389805E0,2.4899824E0,1.0208928E1,4.23297E0,1.4939895E0,9.461933E0,2.265884E1,2.81368E1,3.4859753E0,7.1462494E1,1.4939895E0,8.714938E0,1.7429876E0,7.7189455E0,3.7349737E0,1.8923866E1,2.987979E0,2.5148823E1,1.7429876E0,1.7429876E0,3.4859753E1,3.660274E1,2.987979E0,4.7309666E0,1.4939895E0,2.2409842E0,1.4939895E1,3.9839718E0,6.473954E0,1.8674868E1,4.7309666E0,3.0128786E1,3.2120773E1,4.4819684E0,3.236977E0,1.1702917E1,2.2409842E0,4.23297E0,1.5686889E1,2.987979E0,2.664281E1,5.477961E0,1.0457926E1,1.2449912E0,3.4859753E0,1.2200913E1],"tree_param":{"num_deleted":"0","num_feature":"13","num_nodes":"63","size_leaf_vector":"1"}},{"base_weights":[-1.4494589E-1,-3.7426385E-3,1.1311351E0,3.4717175E-1,1.4738256E0,6.5302855E-1,-6.7215025E-2,1.1169933E0,3.9018209E-3,-1.23893484E-1,8.358337E-1,1.7130614E-3,-1.4373602E-3,8.237805E-1,4.3985685E-3,-3.2483756E-3,1.9791871E-3,3.8801266E-3,1.6095672E-3,1.0833235E0,-1.8226773E-3,1.35425E0,-1.3474433E-3,3.1586972E-4,3.9751795E-3],"categories":[],"categories_nodes":[],"categories_segments":[],"categories_sizes":[],"default_left":[0,0,0,0,0,0,0,0,0,0,0,0,0,0,0,0,0,0,0,0,0,0,0,0,0],"id":19,"left_children":[1,-1,3,5,7,9,11,13,-1,15,17,-1,-1,19,-1,-1,-1,-1,-1,21,-1,23,-1,-1,-1],"loss_changes":[4.0222073E2,0E0,3.210962E1,4.607584E0,2.8587036E0,2.9705849E0,5.97084E0,3.38525E0,0E0,4.3387914E0,2.3111382E0,0E0,0E0,4.9313145E0,0E0,0E0,0E0,0E0,0E0,4.605749E0,0E0,2.6996975E0,0E0,0E0,0E0],"parents":[2147483647,0,0,2,2,3,3,4,4,5,5,6,6,7,7,9,9,10,10,13,13,19,19,21,21],"right_children":[2,-1,4,6,8,10,12,14,-1,16,18,-1,-1,20,-1,-1,-1,-1,-1,22,-1,24,-1,-1,-1],"split_conditions":[2.8123736E-1,-3.7426385E-3,4.6872893E-1,5.385301E-1,5.624747E-1,1.2073576E-1,4.5000315E-1,6.6765964E-1,3.9018209E-3,3.4099448E-1,3.2811025E-1,1.7130614E-3,-1.4373602E-3,7.2021645E-1,4.3985685E-3,-3.2483756E-3,1.9791871E-3,3.8801266E-3,1.6095672E-3,8.629771E-1,-1.8226773E-3,1.7275748E-1,-1.3474433E-3,3.1586972E-4,3.9751795E-3],"split_indices":[3,0,3,0,3,0,2,2,0,2,3,0,0,1,0,0,0,0,0,0,0,0,0,0,0],"split_type":[0,0,0,0,0,0,0,0,0,0,0,0,0,0,0,0,0,0,0,0,0,0,0,0,0],"sum_hessian":[2.3156836E2,1.1204921E2,1.1951916E2,3.6353745E1,8.316541E1,2.0915852E1,1.5437891E1,1.7678875E1,6.5486534E1,3.9839718E0,1.693188E1,6.224956E0,9.2129345E0,1.2200913E1,5.477961E0,1.7429876E0,2.2409842E0,3.4859753E0,1.3445905E1,1.0457926E1,1.7429876E0,8.963937E0,1.4939895E0,1.4939895E0,7.4699473E0],"tree_param":{"num_deleted":"0","num_feature":"13","num_nodes":"25","size_leaf_vector":"1"}},{"base_weights":[-1.4424312E-2,-1.2347605E0,1.4224703E0,-4.571916E-3,-3.3940375E-1,2.609815E-1,1.5629729E0,-5.0263023E-1,6.11812E-1,1.1311328E0,-1.0813187E-3,1.4749784E0,4.6820953E-3,-8.217447E-1,-1.3032977E-1,9.8770136E-1,-9.316166E-4,-6.821171E-4,1.599675E0,1.0167522E0,4.0876344E-3,-7.3347896E-1,-4.674074E-3,3.158716E-4,-7.856349E-1,6.29122E-1,5.3058015E-3,1.3138558E-3,5.305823E-3,1.4837364E-3,4.058346E-3,-1.0403558E0,-4.1163173E-1,-6.797195E-5,-4.6740794E-3,3.8801157E-3,-2.3856845E-4,-4.6740794E-3,-8.1785E-1,3.158712E-4,-2.2979188E-3,1.3138558E-3,-1.0500171E0,-4.6740817E-3,-1.5225358E-3],"categories":[],"categories_nodes":[],"categories_segments":[],"categories_sizes":[],"default_left":[0,0,0,0,0,0,0,0,0,0,0,0,0,0,0,0,0,0,0,0,0,0,0,0,0,0,0,0,0,0,0,0,0,0,0,0,0,0,0,0,0,0,0,0,0],"id":20,"left_children":[1,3,5,-1,7,9,11,13,15,17,-1,19,-1,21,23,25,-1,-1,27,29,-1,31,-1,-1,33,35,-1,-1,-1,-1,-1,37,39,-1,-1,-1,-1,-1,41,-1,-1,-1,43,-1,-1],"loss_changes":[3.964483E2,6.623193E1,1.694461E1,0E0,7.654757E0,6.7871823E0,2.6177979E0,4.9994593E0,2.6782122E0,3.2797961E0,0E0,5.662201E0,0E0,2.1183443E0,3.2765265E0,2.1514387E0,0E0,0E0,2.1418934E0,5.0885105E0,0E0,2.0658035E0,0E0,0E0,4.5496697E0,2.6933117E0,0E0,0E0,0E0,0E0,0E0,2.0025206E0,2.8219864E0,0E0,0E0,0E0,0E0,0E0,2.6467032E0,0E0,0E0,0E0,2.6239161E0,0E0,0E0],"parents":[2147483647,0,0,1,1,2,2,4,4,5,5,6,6,7,7,8,8,9,9,11,11,13,13,14,14,15,15,18,18,19,19,21,21,24,24,25,25,31,31,32,32,38,38,42,42],"right_children":[2,4,6,-1,8,10,12,14,16,18,-1,20,-1,22,24,26,-1,-1,28,30,-1,32,-1,-1,34,36,-1,-1,-1,-1,-1,38,40,-1,-1,-1,-1,-1,42,-1,-1,-1,44,-1,-1],"split_conditions":[3.7498313E-1,1.8749157E-1,4.2185605E-1,-4.571916E-3,8.4369177E-1,4.1330963E-1,7.23231E-1,2.8123736E-1,1E0,3.635848E-1,-1.0813187E-3,5.624747E-1,4.6820953E-3,9.4451874E-1,5.9719634E-1,6.3896585E-1,-9.316166E-4,-6.821171E-4,1E0,4.9639413E-1,4.0876344E-3,4.9591413E-1,-4.674074E-3,3.158716E-4,6.080653E-1,9.04951E-1,5.3058015E-3,1.3138558E-3,5.305823E-3,1.4837364E-3,4.058346E-3,2.657282E-1,1E0,-6.797195E-5,-4.6740794E-3,3.8801157E-3,-2.3856845E-4,-4.6740794E-3,3.6373737E-1,3.158712E-4,-2.2979188E-3,1.3138558E-3,4.9965042E-1,-4.6740817E-3,-1.5225358E-3],"split_indices":[3,3,3,0,0,2,2,3,4,0,0,3,0,1,0,2,0,0,12,0,0,1,0,0,1,0,0,0,0,0,0,2,12,0,0,0,0,0,2,0,0,0,2,0,0],"split_type":[0,0,0,0,0,0,0,0,0,0,0,0,0,0,0,0,0,0,0,0,0,0,0,0,0,0,0,0,0,0,0,0,0,0,0,0,0,0,0,0,0,0,0,0,0],"sum_hessian":[2.2609041E2,1.2225813E2,1.0383227E2,7.295648E1,4.930165E1,1.1204921E1,9.262734E1,4.2080704E1,7.220949E0,4.9799647E0,6.224956E0,7.270749E1,1.9919859E1,2.265884E1,1.9421864E1,5.228963E0,1.9919859E0,1.2449912E0,3.7349737E0,1.967086E1,5.3036625E1,2.0915852E1,1.7429876E0,1.3943901E1,5.477961E0,3.9839718E0,1.2449912E0,1.2449912E0,2.4899824E0,1.1702917E1,7.9679437E0,1.0706924E1,1.0208928E1,3.236977E0,2.2409842E0,1.7429876E0,2.2409842E0,2.2409842E0,8.46594E0,4.9799647E0,5.228963E0,1.2449912E0,7.220949E0,2.4899824E0,4.7309666E0],"tree_param":{"num_deleted":"0","num_feature":"13","num_nodes":"45","size_leaf_vector":"1"}},{"base_weights":[-3.1018946E-2,-1.5883043E0,1.1406249E0,-4.6741E-3,-1.1438031E0,1.1864749E0,3.149068E-2,-3.0222468E-3,-3.3628228E-1,5.7999045E-1,4.245703E-3,1.9791871E-3,-5.4223496E-1,1.0287191E-3,-3.010756E-3,9.018697E-1,2.0148401E-1,-4.674063E-3,1.0287191E-3,-2.0756204E-1,1.1603781E0,-1.06381714E-1,3.4913023E-3,-1.0777129E0,3.0880647E-3,1.8262262E0,1.875237E-3,3.6424955E-3,-2.24296E-1,-4.674074E-3,-9.316166E-4,5.01231E-3,1.3138558E-3,-8.9974046E-2,-4.674069E-3,-9.541408E-1,9.419314E-2,-4.674077E-3,1.3138558E-3,-4.0554707E-5,3.3098287E-3],"categories":[],"categories_nodes":[],"categories_segments":[],"categories_sizes":[],"default_left":[0,0,0,0,0,0,0,0,0,0,0,0,0,0,0,0,0,0,0,0,0,0,0,0,0,0,0,0,0,0,0,0,0,0,0,0,0,0,0,0,0],"id":21,"left_children":[1,3,5,-1,7,9,11,-1,13,15,-1,-1,17,-1,-1,19,21,-1,-1,23,25,27,-1,29,-1,31,-1,-1,33,-1,-1,-1,-1,35,-1,37,39,-1,-1,-1,-1],"loss_changes":[4.2115298E2,1.2890518E1,6.698456E0,0E0,2.3000374E0,4.0050186E1,2.2949007E0,0E0,2.1257186E0,7.1290283E0,0E0,0E0,3.8248162E0,0E0,0E0,9.069334E0,9.963639E0,0E0,0E0,7.5413027E0,6.928974E0,3.9697614E0,0E0,2.1084237E0,0E0,2.4041939E0,0E0,0E0,4.4325914E0,0E0,0E0,0E0,0E0,2.932501E0,0E0,4.4485655E0,2.0776286E0,0E0,0E0,0E0,0E0],"parents":[2147483647,0,0,1,1,2,2,4,4,5,5,6,6,8,8,9,9,12,12,15,15,16,16,19,19,20,20,21,21,23,23,25,25,28,28,33,33,35,35,36,36],"right_children":[2,4,6,-1,8,10,12,-1,14,16,-1,-1,18,-1,-1,20,22,-1,-1,24,26,28,-1,30,-1,32,-1,-1,34,-1,-1,-1,-1,36,-1,38,40,-1,-1,-1,-1],"split_conditions":[2.8123736E-1,1.4061868E-1,9.3747944E-1,-4.6741E-3,9.337169E-1,5.624747E-1,3.83763E-1,-3.0222468E-3,9.7325987E-1,4.981525E-1,4.245703E-3,1.9791871E-3,4.6872893E-1,1.0287191E-3,-3.010756E-3,2.503849E-1,8.015695E-1,-4.674063E-3,1.0287191E-3,4.2185605E-1,5.3156143E-1,3.079167E-2,3.4913023E-3,3.147409E-1,3.0880647E-3,1E0,1.875237E-3,3.6424955E-3,7.7287877E-1,-4.674074E-3,-9.316166E-4,5.01231E-3,1.3138558E-3,5.2635086E-1,-4.674069E-3,5.081436E-1,7.565547E-1,-4.674077E-3,1.3138558E-3,-4.0554707E-5,3.3098287E-3],"split_indices":[3,3,2,0,0,3,1,0,0,2,0,0,3,0,0,0,2,0,0,3,0,0,0,2,0,11,0,0,2,0,0,0,0,2,0,0,2,0,0,0,0],"split_type":[0,0,0,0,0,0,0,0,0,0,0,0,0,0,0,0,0,0,0,0,0,0,0,0,0,0,0,0,0,0,0,0,0,0,0,0,0,0,0,0,0],"sum_hessian":[2.3082137E2,9.91013E1,1.3172006E2,5.975958E1,3.934172E1,1.26491104E2,5.228963E0,3.6104744E1,3.236977E0,5.8514587E1,6.797652E1,2.2409842E0,2.987979E0,1.7429876E0,1.4939895E0,3.1622776E1,2.689181E1,1.2449912E0,1.7429876E0,5.975958E0,2.5646818E1,2.1413849E1,5.477961E0,3.7349737E0,2.2409842E0,9.710932E0,1.5935887E1,1.4939895E0,1.9919859E1,1.7429876E0,1.9919859E0,8.46594E0,1.2449912E0,1.8425869E1,1.4939895E0,3.236977E0,1.5188892E1,1.9919859E0,1.2449912E0,1.3943901E1,1.2449912E0],"tree_param":{"num_deleted":"0","num_feature":"13","num_nodes":"41","size_leaf_vector":"1"}},{"base_weights":[4.01744E-2,-1.5003568E0,1.1715902E0,-4.540141E-3,-5.5523366E-1,3.955673E-1,1.5758138E0,-2.742495E-3,-3.1912035E-1,4.5243782E-1,-2.1791034E-3,1.6173239E0,1.2711148E-1,-4.598551E-1,2.4544173E-3,1.9798413E-1,6.825288E-1,3.255169E-3,1.6986263E0,-2.67809E-3,3.3098287E-3,1.5633571E-3,-6.1269414E-1,4.4589516E-2,2.8108486E-3,1.0398595E0,1.7860018E-1,3.3454956E-3,4.443939E-3,8.991599E-3,-8.7691027E-1,-4.674074E-3,2.4881162E-1,5.287204E-1,3.642515E-3,-1.3776182E-4,3.6424955E-3,-1.3474477E-3,3.3098287E-3,-1.1507343E0,1.0287191E-3,9.3032926E-1,-7.9301E-4,-2.67809E-3,2.3118563E-3,-4.198857E-3,-2.075617E-1,4.3985606E-3,4.44171E-1,-3.010756E-3,1.9791827E-3,3.8801157E-3,-5.1578844E-4],"categories":[],"categories_nodes":[],"categories_segments":[],"categories_sizes":[],"default_left":[0,0,0,0,0,0,0,0,0,0,0,0,0,0,0,0,0,0,0,0,0,0,0,0,0,0,0,0,0,0,0,0,0,0,0,0,0,0,0,0,0,0,0,0,0,0,0,0,0,0,0,0,0],"id":22,"left_children":[1,3,5,-1,7,9,11,-1,13,15,-1,17,19,21,-1,23,25,-1,27,-1,-1,-1,29,31,-1,33,35,-1,-1,37,39,-1,41,43,-1,-1,-1,-1,-1,45,-1,47,-1,-1,-1,-1,49,-1,51,-1,-1,-1,-1],"loss_changes":[4.1099738E2,3.0827484E1,4.2646667E1,0E0,3.3208098E0,3.3695717E0,5.3755493E0,0E0,3.297206E0,2.609501E0,0E0,2.171753E0,3.6144543E0,2.6937845E0,0E0,3.0295322E0,4.21467E0,0E0,2.1717224E0,0E0,0E0,0E0,2.3313193E0,7.1477423E0,0E0,2.9816303E0,2.9254541E0,0E0,0E0,3.0868585E0,3.5205922E0,0E0,6.360832E0,4.016075E0,0E0,0E0,0E0,0E0,0E0,4.176895E0,0E0,3.0495157E0,0E0,0E0,0E0,0E0,3.0120487E0,0E0,3.4448586E0,0E0,0E0,0E0,0E0],"parents":[2147483647,0,0,1,1,2,2,4,4,5,5,6,6,8,8,9,9,11,11,12,12,13,13,15,15,16,16,18,18,22,22,23,23,25,25,26,26,29,29,30,30,32,32,33,33,39,39,41,41,46,46,48,48],"right_children":[2,4,6,-1,8,10,12,-1,14,16,-1,18,20,22,-1,24,26,-1,28,-1,-1,-1,30,32,-1,34,36,-1,-1,38,40,-1,42,44,-1,-1,-1,-1,-1,46,-1,48,-1,-1,-1,-1,50,-1,52,-1,-1,-1,-1],"split_conditions":[2.8123736E-1,1.8749157E-1,4.6872893E-1,-4.540141E-3,3.3344138E-1,9.3747944E-1,9.636172E-1,-2.742495E-3,1E0,3.7498313E-1,-2.1791034E-3,3.078796E-1,9.8679197E-1,1.9727957E-1,2.4544173E-3,8.2594603E-1,4.936091E-1,3.255169E-3,5.624747E-1,-2.67809E-3,3.3098287E-3,1.5633571E-3,5.240256E-1,1.2697405E-1,2.8108486E-3,3.355214E-1,1E0,3.3454956E-3,4.443939E-3,5.027145E-1,1E0,-4.674074E-3,4.2208898E-1,2.1602787E-1,3.642515E-3,-1.3776182E-4,3.6424955E-3,-1.3474477E-3,3.3098287E-3,8.691354E-1,1.0287191E-3,1E0,-7.9301E-4,-2.67809E-3,2.3118563E-3,-4.198857E-3,1E0,4.3985606E-3,4.103081E-1,-3.010756E-3,1.9791827E-3,3.8801157E-3,-5.1578844E-4],"split_indices":[3,3,3,0,0,2,0,0,8,3,0,2,0,2,0,0,2,0,3,0,0,0,0,2,0,2,11,0,0,0,9,0,0,0,0,0,0,0,0,0,0,12,0,0,0,0,12,0,2,0,0,0,0],"split_type":[0,0,0,0,0,0,0,0,0,0,0,0,0,0,0,0,0,0,0,0,0,0,0,0,0,0,0,0,0,0,0,0,0,0,0,0,0,0,0,0,0,0,0,0,0,0,0,0,0,0,0,0,0],"sum_hessian":[2.3580133E2,9.98483E1,1.3595303E2,7.420148E1,2.5646818E1,4.656267E1,8.9390366E1,7.7189455E0,1.7927874E1,4.4570686E1,1.9919859E0,8.690038E1,2.4899824E0,1.6184885E1,1.7429876E0,2.116485E1,2.3405834E1,1.8176872E1,6.872351E1,1.2449912E0,1.2449912E0,1.9919859E0,1.41929E1,1.8176872E1,2.987979E0,1.3694903E1,9.710932E0,1.3943901E1,5.4779613E1,4.23297E0,9.959929E0,1.7429876E0,1.6433884E1,6.224956E0,7.4699473E0,8.216942E0,1.4939895E0,2.987979E0,1.2449912E0,8.216942E0,1.7429876E0,7.4699473E0,8.963937E0,1.2449912E0,4.9799647E0,5.228963E0,2.987979E0,2.7389805E0,4.7309666E0,1.4939895E0,1.4939895E0,1.7429876E0,2.987979E0],"tree_param":{"num_deleted":"0","num_feature":"13","num_nodes":"53","size_leaf_vector":"1"}},{"base_weights":[4.349335E-3,-4.0853126E-3,9.727883E-1,4.0031552E-1,1.5675125E0,-1.7713737E-1,6.934839E-1,1.155623E0,4.3128137E-3,-7.0480397E-4,6.7475855E-1,2.0498341E-4,8.7678236E-1,1.271117E-1,1.4448915E0,3.6424955E-3,-6.821171E-4,6.960582E-1,3.9751795E-3,2.4544173E-3,-1.0450259E-3,4.21712E-3,-2.3856845E-4,4.538142E-3,5.587479E-1,6.492038E-1,-1.8226773E-3,1.0497267E0,4.1397548E-1,4.307841E-3,6.0939824E-4,-3.010756E-3,1.4539347E-3],"categories":[],"categories_nodes":[],"categories_segments":[],"categories_sizes":[],"default_left":[0,0,0,0,0,0,0,0,0,0,0,0,0,0,0,0,0,0,0,0,0,0,0,0,0,0,0,0,0,0,0,0,0],"id":23,"left_children":[1,-1,3,5,7,9,11,13,-1,-1,15,-1,17,19,21,-1,-1,23,-1,-1,-1,-1,-1,-1,25,27,-1,29,31,-1,-1,-1,-1],"loss_changes":[3.6409302E2,0E0,4.891507E1,1.2393025E1,4.877075E0,2.2362285E0,5.4378567E0,6.074644E0,0E0,0E0,2.0567083E0,0E0,4.87953E0,2.1123493E0,6.1915894E0,0E0,0E0,4.636832E0,0E0,0E0,0E0,0E0,0E0,0E0,3.1142616E0,2.3459177E0,0E0,5.0683002E0,4.3633327E0,0E0,0E0,0E0,0E0],"parents":[2147483647,0,0,2,2,3,3,4,4,5,5,6,6,7,7,10,10,12,12,13,13,14,14,17,17,24,24,25,25,27,27,28,28],"right_children":[2,-1,4,6,8,10,12,14,-1,-1,16,-1,18,20,22,-1,-1,24,-1,-1,-1,-1,-1,-1,26,28,-1,30,32,-1,-1,-1,-1],"split_conditions":[2.3436446E-1,-4.0853126E-3,5.624747E-1,3.2811025E-1,6.562205E-1,8.9109474E-1,1.944737E-1,3.2631567E-1,4.3128137E-3,-7.0480397E-4,9.407666E-1,2.0498341E-4,7.0909154E-1,6.080653E-1,1E0,3.6424955E-3,-6.821171E-4,2.7161184E-1,3.9751795E-3,2.4544173E-3,-1.0450259E-3,4.21712E-3,-2.3856845E-4,4.538142E-3,1E0,4.472085E-1,-1.8226773E-3,4.936091E-1,4.8318613E-1,4.307841E-3,6.0939824E-4,-3.010756E-3,1.4539347E-3],"split_indices":[3,0,3,3,3,0,0,2,0,0,0,0,2,1,11,0,0,1,0,0,0,0,0,0,6,0,0,2,0,0,0,0,0],"split_type":[0,0,0,0,0,0,0,0,0,0,0,0,0,0,0,0,0,0,0,0,0,0,0,0,0,0,0,0,0,0,0,0,0],"sum_hessian":[2.2808238E2,8.44104E1,1.4367198E2,7.320548E1,7.04665E1,2.4650826E1,4.8554657E1,2.0417856E1,5.0048645E1,2.1911844E1,2.7389805E0,1.1204921E1,3.7349735E1,4.4819684E0,1.5935887E1,1.4939895E0,1.2449912E0,2.987979E1,7.4699473E0,1.7429876E0,2.7389805E0,1.3694903E1,2.2409842E0,3.236977E0,2.664281E1,2.4899824E1,1.7429876E0,9.2129345E0,1.5686889E1,4.9799647E0,4.23297E0,1.4939895E0,1.41929E1],"tree_param":{"num_deleted":"0","num_feature":"13","num_nodes":"33","size_leaf_vector":"1"}},{"base_weights":[-7.698452E-2,-1.3624452E0,1.2056695E0,-1.7862787E0,-5.757041E-1,1.9479886E-1,1.4494838E0,-4.6741E-3,-1.387729E0,-7.1207136E-1,1.271118E-1,5.3058015E-3,7.930133E-2,1.2083675E0,1.7197001E0,-2.3710327E-3,-4.352161E-3,-4.55869E-1,-3.2136175E-3,-1.1098313E-3,1.9791895E-3,1.0641974E0,-1.3480702E-1,1.3057476E0,-4.2053548E-1,5.30584E-3,1.547437E0,-6.2288094E-1,2.3118514E-3,1.313861E-3,5.3058015E-3,-4.674077E-3,9.419314E-2,1.4234453E0,5.905064E-1,-3.010756E-3,1.3138558E-3,1.0287191E-3,1.6158354E0,-1.0777146E0,-2.9123074E-1,6.291228E-1,-4.960741E-1,1.0078334E0,4.1201063E-3,3.642508E-3,-1.5975131E-1,5.0432086E-3,3.5145704E-3,3.1586972E-4,-1.3269887E0,-1.1098335E-3,1.9791827E-3,-1.3474462E-3,2.7023756E-3,1.5633571E-3,-9.2472005E-1,3.3585345E-3,1.2711167E-1,1.9791827E-3,-2.1791034E-3,-4.175095E-3,-1.3474462E-3,-3.8424255E-3,-2.3856845E-4,3.0880647E-3,-3.2483756E-3],"categories":[],"categories_nodes":[],"categories_segments":[],"categories_sizes":[],"default_left":[0,0,0,0,0,0,0,0,0,0,0,0,0,0,0,0,0,0,0,0,0,0,0,0,0,0,0,0,0,0,0,0,0,0,0,0,0,0,0,0,0,0,0,0,0,0,0,0,0,0,0,0,0,0,0,0,0,0,0,0,0,0,0,0,0,0,0],"id":24,"left_children":[1,3,5,7,9,11,13,-1,15,17,19,-1,21,23,25,-1,-1,27,-1,-1,-1,29,31,33,35,-1,37,39,-1,-1,-1,-1,41,43,45,-1,-1,-1,47,49,51,53,55,57,-1,-1,59,-1,-1,-1,61,-1,-1,-1,-1,-1,63,-1,65,-1,-1,-1,-1,-1,-1,-1,-1],"loss_changes":[3.7565204E2,3.7943695E1,2.8107132E1,2.7898102E0,3.818286E0,4.966351E0,5.986313E0,0E0,2.2378426E0,4.9678116E0,2.4861443E0,0E0,4.4106226E0,7.701889E0,3.1006927E0,0E0,0E0,5.361076E0,0E0,0E0,0E0,2.1418796E0,6.869973E0,3.8568497E0,2.0567102E0,0E0,2.374405E0,3.1175041E0,0E0,0E0,0E0,0E0,4.795921E0,3.8351364E0,4.2514496E0,0E0,0E0,0E0,2.4075394E0,2.6173773E0,2.0199914E0,4.278001E0,3.482747E0,4.296198E0,0E0,0E0,2.3905177E0,0E0,0E0,0E0,2.0011091E0,0E0,0E0,0E0,0E0,0E0,2.693316E0,0E0,6.374718E0,0E0,0E0,0E0,0E0,0E0,0E0,0E0,0E0],"parents":[2147483647,0,0,1,1,2,2,3,3,4,4,5,5,6,6,8,8,9,9,10,10,12,12,13,13,14,14,17,17,21,21,22,22,23,23,24,24,26,26,27,27,32,32,33,33,34,34,38,38,39,39,40,40,41,41,42,42,43,43,46,46,50,50,56,56,58,58],"right_children":[2,4,6,8,10,12,14,-1,16,18,20,-1,22,24,26,-1,-1,28,-1,-1,-1,30,32,34,36,-1,38,40,-1,-1,-1,-1,42,44,46,-1,-1,-1,48,50,52,54,56,58,-1,-1,60,-1,-1,-1,62,-1,-1,-1,-1,-1,64,-1,66,-1,-1,-1,-1,-1,-1,-1,-1],"split_conditions":[3.2811025E-1,1.8749157E-1,4.2185605E-1,1.4061868E-1,8.4020746E-1,1.5946066E-1,6.562205E-1,-4.6741E-3,1E0,5.694838E-1,1E0,5.3058015E-3,1.1303784E-1,9.3104285E-1,2.0946439E-1,-2.3710327E-3,-4.352161E-3,7.804371E-1,-3.2136175E-3,-1.1098313E-3,1.9791895E-3,8.378576E-2,2.7469411E-1,1E0,5.624747E-1,5.30584E-3,2.3628555E-1,2.3436446E-1,2.3118514E-3,1.313861E-3,5.3058015E-3,-4.674077E-3,5.0604844E-1,3.0532372E-1,4.472085E-1,-3.010756E-3,1.3138558E-3,1.0287191E-3,7.4996626E-1,1.1303784E-1,1E0,2.5100005E-1,3.83763E-1,2.3344947E-1,4.1201063E-3,3.642508E-3,5.156018E-1,5.0432086E-3,3.5145704E-3,3.1586972E-4,3.9332306E-1,-1.1098335E-3,1.9791827E-3,-1.3474462E-3,2.7023756E-3,1.5633571E-3,6.080653E-1,3.3585345E-3,4.0336952E-1,1.9791827E-3,-2.1791034E-3,-4.175095E-3,-1.3474462E-3,-3.8424255E-3,-2.3856845E-4,3.0880647E-3,-3.2483756E-3],"split_indices":[3,3,3,3,0,1,3,0,12,0,12,0,0,0,0,0,0,2,0,0,0,0,0,11,3,0,0,3,0,0,0,0,2,0,0,0,0,0,3,0,7,2,1,0,0,0,3,0,0,0,0,0,0,0,0,0,1,0,2,0,0,0,0,0,0,0,0],"split_type":[0,0,0,0,0,0,0,0,0,0,0,0,0,0,0,0,0,0,0,0,0,0,0,0,0,0,0,0,0,0,0,0,0,0,0,0,0,0,0,0,0,0,0,0,0,0,0,0,0,0,0,0,0,0,0,0,0,0,0,0,0,0,0,0,0,0,0],"sum_hessian":[2.2783339E2,1.137922E2,1.1404119E2,7.395248E1,3.9839718E1,2.2160843E1,9.188035E1,5.975958E1,1.41929E1,3.3365765E1,6.473954E0,1.2449912E0,2.0915852E1,4.8554657E1,4.3325695E1,6.473954E0,7.7189455E0,2.3156836E1,1.0208928E1,3.4859753E0,2.987979E0,3.7349737E0,1.7180878E1,4.5815678E1,2.7389805E0,1.269891E1,3.0626783E1,2.0666853E1,2.4899824E0,2.4899824E0,1.2449912E0,1.9919859E0,1.5188892E1,3.934172E1,6.473954E0,1.4939895E0,1.2449912E0,1.7429876E0,2.8883797E1,8.714938E0,1.1951916E1,7.9679437E0,7.220949E0,1.41929E1,2.5148823E1,2.987979E0,3.4859753E0,9.461933E0,1.9421864E1,1.4939895E0,7.220949E0,1.0457926E1,1.4939895E0,2.2409842E0,5.7269597E0,1.9919859E0,5.228963E0,1.0208928E1,3.9839718E0,1.4939895E0,1.9919859E0,4.9799647E0,2.2409842E0,2.987979E0,2.2409842E0,2.2409842E0,1.7429876E0],"tree_param":{"num_deleted":"0","num_feature":"13","num_nodes":"67","size_leaf_vector":"1"}},{"base_weights":[1.1198139E-1,-1.6027108E0,1.0655457E0,-4.6741E-3,-9.479023E-1,3.0325636E-1,1.5365535E0,-1.1616335E0,-5.0040185E-1,6.81715E-1,-1.981822E-2,1.31497E0,4.162766E-3,-6.909799E-1,-1.4793236E0,-2.1791107E-3,1.5633571E-3,5.106712E-1,4.058341E-3,3.8165286E-1,-5.679805E-1,1.6169518E0,1.0809335E0,-2.8595598E-3,3.3098287E-3,-4.1038133E-3,-6.821171E-4,1.6499953E-1,1.0195758E0,1.0782895E0,1.271119E-1,-6.721498E-2,-3.248388E-3,6.7475855E-1,4.5231E-3,3.0247122E-3,3.158706E-4,4.5400283E-1,-2.6781007E-3,4.44171E-1,1.6626729E0,8.7030936E-4,4.3078326E-3,-1.9018895E-3,5.9959275E-1,-4.3514028E-1,3.6424955E-3,5.3058015E-3,-1.3474433E-3,1.7835087E-3,-1.3474462E-3,4.058331E-3,-4.2053548E-1,1.3138558E-3,5.305826E-3,3.4912962E-3,2.1441798E-1,-7.369249E-2,-4.674063E-3,1.3138558E-3,-3.010756E-3,2.810844E-3,-2.7449653E-1,2.3118514E-3,-2.6781007E-3,-3.5652018E-3,3.6424955E-3],"categories":[],"categories_nodes":[],"categories_segments":[],"categories_sizes":[],"default_left":[0,0,0,0,0,0,0,0,0,0,0,0,0,0,0,0,0,0,0,0,0,0,0,0,0,0,0,0,0,0,0,0,0,0,0,0,0,0,0,0,0,0,0,0,0,0,0,0,0,0,0,0,0,0,0,0,0,0,0,0,0,0,0,0,0,0,0],"id":25,"left_children":[1,3,5,-1,7,9,11,13,15,17,19,21,-1,23,25,-1,-1,27,-1,29,31,33,35,-1,-1,-1,-1,37,39,41,43,45,-1,47,-1,-1,-1,49,-1,51,53,-1,-1,-1,55,57,-1,-1,-1,-1,-1,-1,59,-1,-1,-1,61,63,-1,-1,-1,-1,65,-1,-1,-1,-1],"loss_changes":[3.782232E2,1.5060577E1,5.337262E1,0E0,2.3577175E0,6.941485E0,2.8220062E0,2.4944477E0,3.3885689E0,4.254693E0,6.7400813E0,2.498886E0,0E0,6.2526383E0,2.0654125E0,0E0,0E0,3.8984013E0,0E0,3.134864E0,4.7930317E0,2.955883E0,2.5889416E0,0E0,0E0,0E0,0E0,4.739646E0,3.3170204E0,2.256977E0,5.4597764E0,4.3537664E0,0E0,4.8679476E0,0E0,0E0,0E0,2.8129067E0,0E0,4.863961E0,2.267891E0,0E0,0E0,0E0,2.6261773E0,3.2530017E0,0E0,0E0,0E0,0E0,0E0,0E0,2.0567102E0,0E0,0E0,0E0,2.566794E0,5.020096E0,0E0,0E0,0E0,0E0,7.541288E0,0E0,0E0,0E0,0E0],"parents":[2147483647,0,0,1,1,2,2,4,4,5,5,6,6,7,7,8,8,9,9,10,10,11,11,13,13,14,14,17,17,19,19,20,20,21,21,22,22,27,27,28,28,29,29,30,30,31,31,33,33,37,37,39,39,40,40,44,44,45,45,52,52,56,56,57,57,62,62],"right_children":[2,4,6,-1,8,10,12,14,16,18,20,22,-1,24,26,-1,-1,28,-1,30,32,34,36,-1,-1,-1,-1,38,40,42,44,46,-1,48,-1,-1,-1,50,-1,52,54,-1,-1,-1,56,58,-1,-1,-1,-1,-1,-1,60,-1,-1,-1,62,64,-1,-1,-1,-1,66,-1,-1,-1,-1],"split_conditions":[2.3436446E-1,1.4061868E-1,4.6872893E-1,-4.6741E-3,7.023742E-1,4.485334E-1,6.562205E-1,2.3936471E-1,1E0,4.0902928E-1,6.080653E-1,1E0,4.162766E-3,2.1270561E-1,8.323676E-1,-2.1791107E-3,1.5633571E-3,3.7498313E-1,4.058341E-3,5.662238E-1,1E0,2.1739604E-1,8.323676E-1,-2.8595598E-3,3.3098287E-3,-4.1038133E-3,-6.821171E-4,1E0,1E0,3.2811025E-1,6.850138E-1,7.804371E-1,-3.248388E-3,5.027145E-1,4.5231E-3,3.0247122E-3,3.158706E-4,1E0,-2.6781007E-3,4.9591413E-1,3.8424763E-1,8.7030936E-4,4.3078326E-3,-1.9018895E-3,2.8123736E-1,1E0,3.6424955E-3,5.3058015E-3,-1.3474433E-3,1.7835087E-3,-1.3474462E-3,4.058331E-3,2.8070077E-1,1.3138558E-3,5.305826E-3,3.4912962E-3,7.23231E-1,5.151933E-1,-4.674063E-3,1.3138558E-3,-3.010756E-3,2.810844E-3,3.7498313E-1,2.3118514E-3,-2.6781007E-3,-3.5652018E-3,3.6424955E-3],"split_indices":[3,3,3,0,0,2,3,0,4,2,1,12,0,0,1,0,0,3,0,2,12,2,1,0,0,0,0,9,12,3,2,2,0,0,0,0,0,8,0,1,0,0,0,0,3,7,0,0,0,0,0,0,2,0,0,0,2,0,0,0,0,0,3,0,0,0,0],"split_type":[0,0,0,0,0,0,0,0,0,0,0,0,0,0,0,0,0,0,0,0,0,0,0,0,0,0,0,0,0,0,0,0,0,0,0,0,0,0,0,0,0,0,0,0,0,0,0,0,0,0,0,0,0,0,0,0,0,0,0,0,0,0,0,0,0,0,0],"sum_hessian":[2.3131937E2,8.266741E1,1.4865195E2,5.801659E1,2.4650826E1,5.67716E1,9.188035E1,1.6682882E1,7.9679437E0,2.6144815E1,3.0626783E1,3.535775E1,5.6522602E1,6.7229524E0,9.959929E0,5.975958E0,1.9919859E0,2.2160843E1,3.9839718E0,1.7678875E1,1.2947908E1,1.5437891E1,1.9919859E1,5.477961E0,1.2449912E0,8.714938E0,1.2449912E0,1.3196907E1,8.963937E0,4.7309666E0,1.2947908E1,7.7189455E0,5.228963E0,2.7389805E0,1.269891E1,1.7429876E1,2.4899824E0,1.0706924E1,2.4899824E0,4.7309666E0,4.23297E0,2.2409842E0,2.4899824E0,4.4819684E0,8.46594E0,6.224956E0,1.4939895E0,1.2449912E0,1.4939895E0,8.46594E0,2.2409842E0,1.9919859E0,2.7389805E0,1.2449912E0,2.987979E0,2.7389805E0,5.7269597E0,4.9799647E0,1.2449912E0,1.2449912E0,1.4939895E0,1.9919859E0,3.7349737E0,2.4899824E0,2.4899824E0,2.2409842E0,1.4939895E0],"tree_param":{"num_deleted":"0","num_feature":"13","num_nodes":"67","size_leaf_vector":"1"}},{"base_weights":[6.759799E-2,-1.3741416E0,1.3008579E0,-1.796974E0,-4.617135E-1,5.856421E-1,3.85272E-3,-4.6741E-3,-3.4520635E-3,-1.4671244E-1,-2.678109E-3,1.2462053E-3,4.196943E-3,-8.3325654E-1,9.6218914E-2,1.3138558E-3,-3.0107698E-3,-3.8924232E-1,1.646529E-3,1.2711173E-1,-1.0777129E0,-5.4223496E-1,2.810844E-3,-4.674074E-3,-9.316166E-4,-3.2483756E-3,1.3138558E-3],"categories":[],"categories_nodes":[],"categories_segments":[],"categories_sizes":[],"default_left":[0,0,0,0,0,0,0,0,0,0,0,0,0,0,0,0,0,0,0,0,0,0,0,0,0,0,0],"id":26,"left_children":[1,3,5,7,9,11,-1,-1,-1,13,-1,-1,-1,15,17,-1,-1,19,-1,21,23,25,-1,-1,-1,-1,-1],"loss_changes":[4.033259E2,4.0347137E1,2.1819977E1,2.4467926E0,6.4260125E0,2.9358292E0,0E0,0E0,0E0,3.6545277E0,0E0,0E0,0E0,2.9509447E0,4.4500604E0,0E0,0E0,3.0981183E0,0E0,3.3467283E0,2.1084237E0,2.4478874E0,0E0,0E0,0E0,0E0,0E0],"parents":[2147483647,0,0,1,1,2,2,3,3,4,4,5,5,9,9,13,13,14,14,17,17,19,19,20,20,21,21],"right_children":[2,4,6,8,10,12,-1,-1,-1,14,-1,-1,-1,16,18,-1,-1,20,-1,22,24,26,-1,-1,-1,-1,-1],"split_conditions":[3.2811025E-1,1.8749157E-1,4.6872893E-1,1.4061868E-1,6.080653E-1,9.4451874E-1,3.85272E-3,-4.6741E-3,-3.4520635E-3,2.3436446E-1,-2.678109E-3,1.2462053E-3,4.196943E-3,2.7161184E-1,1E0,1.3138558E-3,-3.0107698E-3,5.611271E-1,1.646529E-3,3.8911584E-1,7.0170516E-1,2.8123736E-1,2.810844E-3,-4.674074E-3,-9.316166E-4,-3.2483756E-3,1.3138558E-3],"split_indices":[3,3,3,3,1,1,0,0,0,3,0,0,0,1,12,0,0,2,0,2,2,3,0,0,0,0,0],"split_type":[0,0,0,0,0,0,0,0,0,0,0,0,0,0,0,0,0,0,0,0,0,0,0,0,0,0,0],"sum_hessian":[2.268374E2,1.0457926E2,1.2225813E2,7.1462494E1,3.3116764E1,3.1622776E1,9.063536E1,5.926158E1,1.2200913E1,2.1911844E1,1.1204921E1,2.9381792E1,2.2409842E0,5.7269597E0,1.6184885E1,1.2449912E0,4.4819684E0,8.714938E0,7.4699473E0,4.9799647E0,3.7349737E0,2.987979E0,1.9919859E0,1.7429876E0,1.9919859E0,1.7429876E0,1.2449912E0],"tree_param":{"num_deleted":"0","num_feature":"13","num_nodes":"27","size_leaf_vector":"1"}},{"base_weights":[1.0422234E-1,-1.4268534E0,1.1789457E0,-4.6741E-3,-7.514081E-1,9.922243E-2,1.546511E0,-9.884689E-1,-3.6666965E-1,3.8801157E-3,2.4511078E-2,1.1847849E0,4.246329E-3,-4.175095E-3,-8.13365E-1,-4.674077E-3,-1.3810156E-1,-4.674063E-3,9.668702E-2,3.7811685E-1,3.2230718E-3,-2.0756204E-1,-1.077715E0,-5.118114E-1,4.196943E-3,4.7633702E-1,-1.06381714E-1,3.309842E-3,-3.010756E-3,-3.676091E-3,1.7415732E-3,-4.2582625E-3,-5.8541983E-1,-8.356594E-4,-4.674063E-3,-2.7353067E-2,2.8108524E-3,-3.2245043E-1,6.5554386E-1,-3.676091E-3,-1.5975146E-1,-3.2483756E-3,4.44171E-1,-1.6915703E-1,-4.674069E-3,3.002771E-3,-1.3474433E-3,5.3058085E-3,-2.6781042E-3,-1.5975131E-1,5.3058015E-3,-8.817208E-4,1.6767674E-3,1.5633571E-3,-3.010756E-3],"categories":[],"categories_nodes":[],"categories_segments":[],"categories_sizes":[],"default_left":[0,0,0,0,0,0,0,0,0,0,0,0,0,0,0,0,0,0,0,0,0,0,0,0,0,0,0,0,0,0,0,0,0,0,0,0,0,0,0,0,0,0,0,0,0,0,0,0,0,0,0,0,0,0,0],"id":27,"left_children":[1,3,5,-1,7,9,11,13,15,-1,17,19,-1,-1,21,-1,23,-1,25,27,-1,29,31,33,-1,35,37,-1,-1,-1,-1,-1,39,-1,-1,41,-1,43,45,-1,47,-1,49,51,-1,-1,-1,-1,-1,53,-1,-1,-1,-1,-1],"loss_changes":[3.953821E2,3.0395004E1,5.603073E1,0E0,3.6336346E0,3.9169867E0,6.18277E0,2.9854965E0,5.2570343E0,0E0,4.691402E0,2.9530983E0,0E0,0E0,3.1501713E0,0E0,9.010536E0,0E0,2.5339432E0,6.0408416E0,0E0,6.903828E0,4.2870493E0,2.6328938E0,0E0,3.7776685E0,3.5253286E0,0E0,0E0,0E0,0E0,0E0,2.9370964E0,0E0,0E0,3.906903E0,0E0,3.9855955E0,3.1326475E0,0E0,1.1015512E1,0E0,4.831346E0,2.3798435E0,0E0,0E0,0E0,0E0,0E0,2.8925245E0,0E0,0E0,0E0,0E0,0E0],"parents":[2147483647,0,0,1,1,2,2,4,4,5,5,6,6,7,7,8,8,10,10,11,11,14,14,16,16,18,18,19,19,21,21,22,22,23,23,25,25,26,26,32,32,35,35,37,37,38,38,40,40,42,42,43,43,49,49],"right_children":[2,4,6,-1,8,10,12,14,16,-1,18,20,-1,-1,22,-1,24,-1,26,28,-1,30,32,34,-1,36,38,-1,-1,-1,-1,-1,40,-1,-1,42,-1,44,46,-1,48,-1,50,52,-1,-1,-1,-1,-1,54,-1,-1,-1,-1,-1],"split_conditions":[2.8123736E-1,1.4061868E-1,4.2185605E-1,-4.6741E-3,2.3436446E-1,3.4357022E-2,5.624747E-1,2.1739604E-1,2.7161184E-1,3.8801157E-3,6.417632E-2,2.7161184E-1,4.246329E-3,-4.175095E-3,2.4317317E-1,-4.674077E-3,7.804371E-1,-4.674063E-3,4.2208898E-1,1E0,3.2230718E-3,1.0550199E-1,5.081436E-1,1E0,4.196943E-3,2.7469411E-1,8.723766E-1,3.309842E-3,-3.010756E-3,-3.676091E-3,1.7415732E-3,-4.2582625E-3,3.552754E-1,-8.356594E-4,-4.674063E-3,4.720367E-1,2.8108524E-3,8.3842474E-1,5.9002715E-1,-3.676091E-3,4.794251E-1,-3.2483756E-3,7.2021645E-1,7.88915E-1,-4.674069E-3,3.002771E-3,-1.3474433E-3,5.3058085E-3,-2.6781042E-3,6.2944144E-1,5.3058015E-3,-8.817208E-4,1.6767674E-3,1.5633571E-3,-3.010756E-3],"split_indices":[3,3,3,0,3,0,3,2,1,0,0,1,0,0,0,0,2,0,0,12,0,0,0,9,0,0,0,0,0,0,0,0,2,0,0,2,0,0,2,0,2,0,1,0,0,0,0,0,0,2,0,0,0,0,0],"split_type":[0,0,0,0,0,0,0,0,0,0,0,0,0,0,0,0,0,0,0,0,0,0,0,0,0,0,0,0,0,0,0,0,0,0,0,0,0,0,0,0,0,0,0,0,0,0,0,0,0,0,0,0,0,0,0],"sum_hessian":[2.402833E2,9.91013E1,1.41182E2,5.926158E1,3.9839718E1,3.5855747E1,1.05326256E2,2.4650826E1,1.5188892E1,1.7429876E0,3.411276E1,3.261877E1,7.270749E1,4.9799647E0,1.967086E1,1.9919859E0,1.3196907E1,1.2449912E0,3.2867767E1,3.9839718E0,2.8634798E1,5.975958E0,1.3694903E1,1.0955922E1,2.2409842E0,1.1453919E1,2.1413849E1,2.4899824E0,1.4939895E0,2.4899824E0,3.4859753E0,5.975958E0,7.7189455E0,9.710932E0,1.2449912E0,6.473954E0,4.9799647E0,1.6682882E1,4.7309666E0,2.4899824E0,5.228963E0,1.7429876E0,4.7309666E0,1.5188892E1,1.4939895E0,3.236977E0,1.4939895E0,1.4939895E0,3.7349737E0,3.4859753E0,1.2449912E0,1.2449912E1,2.7389805E0,1.9919859E0,1.4939895E0],"tree_param":{"num_deleted":"0","num_feature":"13","num_nodes":"55","size_leaf_vector":"1"}},{"base_weights":[-1.0346635E-1,-1.8752456E-1,4.8569152E-1,-1.5805615E0,9.9852824E-1,-1.2827917E0,1.764441E0,-4.529463E-3,-7.942265E-1,1.1531209E0,7.161387E-1,-4.674093E-3,-6.030856E-1,1.5633571E-3,4.7805808E-3,-4.6740794E-3,-6.6553754E-1,6.4011633E-1,1.666125E0,-6.544036E-2,1.4571159E0,-3.1387147E-3,8.7030936E-4,-3.3723628E-3,-9.0808293E-4,-1.7713724E-1,8.994371E-1,1.5633571E-3,4.300112E-3,-3.1387147E-3,1.9404674E-1,1.1534457E0,1.8841501E0,-8.7690943E-1,2.2350852E-3,1.2620935E0,6.118124E-1,-6.975524E-2,4.196943E-3,1.3319385E0,-6.821171E-4,1.3138558E-3,5.3058364E-3,1.3138558E-3,-3.3434322E-3,1.4673994E-3,3.7937267E-3,3.980556E-2,9.8770213E-1,-2.931765E-1,2.810844E-3,3.8382006E-3,3.1586972E-4,-3.010756E-3,4.81472E-1,5.305823E-3,1.3138641E-3,-5.0700736E-1,3.3098287E-3,3.6424955E-3,-1.3776148E-4,-1.8672387E-3,1.9791827E-3],"categories":[],"categories_nodes":[],"categories_segments":[],"categories_sizes":[],"default_left":[0,0,0,0,0,0,0,0,0,0,0,0,0,0,0,0,0,0,0,0,0,0,0,0,0,0,0,0,0,0,0,0,0,0,0,0,0,0,0,0,0,0,0,0,0,0,0,0,0,0,0,0,0,0,0,0,0,0,0,0,0,0,0],"id":28,"left_children":[1,3,5,7,9,11,13,-1,15,17,19,-1,21,-1,-1,-1,23,25,27,29,31,-1,-1,-1,-1,33,35,-1,-1,-1,37,39,41,43,-1,45,47,49,-1,51,-1,-1,-1,-1,-1,-1,-1,53,55,57,-1,-1,-1,-1,59,-1,-1,61,-1,-1,-1,-1,-1],"loss_changes":[1.1061158E1,3.2294806E2,6.3066833E1,1.7117004E1,4.6089096E0,4.757921E0,2.9279213E0,0E0,2.959815E0,1.795514E1,2.1630447E1,0E0,3.446587E0,0E0,0E0,0E0,3.927514E0,7.2295504E0,2.2749557E0,5.6488223E0,2.486267E0,0E0,0E0,0E0,0E0,6.1902905E0,2.7011604E0,0E0,0E0,0E0,5.8915534E0,2.8558836E0,2.7108498E0,3.279796E0,0E0,2.035101E0,3.1051755E0,3.407164E0,0E0,2.5513954E0,0E0,0E0,0E0,0E0,0E0,0E0,0E0,3.1652665E0,4.5897818E0,3.7206423E0,0E0,0E0,0E0,0E0,2.2371092E0,0E0,0E0,3.0142612E0,0E0,0E0,0E0,0E0,0E0],"parents":[2147483647,0,0,1,1,2,2,3,3,4,4,5,5,6,6,8,8,9,9,10,10,12,12,16,16,17,17,18,18,19,19,20,20,25,25,26,26,30,30,31,31,32,32,33,33,35,35,36,36,37,37,39,39,47,47,48,48,49,49,54,54,57,57],"right_children":[2,4,6,8,10,12,14,-1,16,18,20,-1,22,-1,-1,-1,24,26,28,30,32,-1,-1,-1,-1,34,36,-1,-1,-1,38,40,42,44,-1,46,48,50,-1,52,-1,-1,-1,-1,-1,-1,-1,54,56,58,-1,-1,-1,-1,60,-1,-1,62,-1,